<?xml version="1.0"?>
<opencv_storage>
<!-- Created using Computer Vision Toolbox(tm) for MATLAB(R) -->
<!-- Version 9.6.0.1072779 (R2019a) -->
<!-- Compatible with OpenCV 3.4 -->
<cascade>
  <stageType>BOOST</stageType>
  <featureType>HOG</featureType>
  <height>60</height>
  <width>32</width>
  <stageParams>
    <boostType>GAB</boostType>
    <minHitRate>9.9500000476837158e-01</minHitRate>
    <maxFalseAlarm>5.0000000000000000e-01</maxFalseAlarm>
    <weightTrimRate>9.4999999999999996e-01</weightTrimRate>
    <maxDepth>1</maxDepth>
    <maxWeakCount>100</maxWeakCount></stageParams>
  <featureParams>
    <maxCatCount>0</maxCatCount>
    <featSize>36</featSize></featureParams>
  <stageNum>10</stageNum>
  <stages>
    <!-- stage 0 -->
    <_>
      <maxWeakCount>5</maxWeakCount>
      <stageThreshold>-1.9870380163192749e+00</stageThreshold>
      <weakClassifiers>
        <_>
          <internalNodes>
            0 -1 2 1.8933916464447975e-02</internalNodes>
          <leafValues>
            -8.0473315715789795e-01 7.2836750745773315e-01</leafValues></_>
        <_>
          <internalNodes>
            0 -1 32 7.9798996448516846e-03</internalNodes>
          <leafValues>
            -9.2471045255661011e-01 4.7801160812377930e-01</leafValues></_>
        <_>
          <internalNodes>
            0 -1 14 9.7250394523143768e-02</internalNodes>
          <leafValues>
            -6.4023298025131226e-01 4.8950749635696411e-01</leafValues></_>
        <_>
          <internalNodes>
            0 -1 41 4.6169944107532501e-02</internalNodes>
          <leafValues>
            -3.3945974707603455e-01 7.0457834005355835e-01</leafValues></_>
        <_>
          <internalNodes>
            0 -1 40 4.9702823162078857e-02</internalNodes>
          <leafValues>
            -6.8062371015548706e-01 4.0900751948356628e-01</leafValues></_></weakClassifiers></_>
    <!-- stage 1 -->
    <_>
      <maxWeakCount>2</maxWeakCount>
      <stageThreshold>-1.6970743238925934e-01</stageThreshold>
      <weakClassifiers>
        <_>
          <internalNodes>
            0 -1 51 1.8468545749783516e-04</internalNodes>
          <leafValues>
            9.5013737678527832e-01 -9.8552149534225464e-01</leafValues></_>
        <_>
          <internalNodes>
            0 -1 22 3.0819803941994905e-04</internalNodes>
          <leafValues>
            8.1581407785415649e-01 -9.6912014484405518e-01</leafValues></_></weakClassifiers></_>
    <!-- stage 2 -->
    <_>
      <maxWeakCount>3</maxWeakCount>
      <stageThreshold>-1.2085982561111450e+00</stageThreshold>
      <weakClassifiers>
        <_>
          <internalNodes>
            0 -1 27 5.7834084145724773e-05</internalNodes>
          <leafValues>
            4.6269822120666504e-01 -9.5600366592407227e-01</leafValues></_>
        <_>
          <internalNodes>
            0 -1 17 3.8432322442531586e-02</internalNodes>
          <leafValues>
            -7.0508998632431030e-01 7.1873557567596436e-01</leafValues></_>
        <_>
          <internalNodes>
            0 -1 49 6.4629834923835006e-06</internalNodes>
          <leafValues>
            4.5249539613723755e-01 -8.7418556213378906e-01</leafValues></_></weakClassifiers></_>
    <!-- stage 3 -->
    <_>
      <maxWeakCount>4</maxWeakCount>
      <stageThreshold>-9.5672792196273804e-01</stageThreshold>
      <weakClassifiers>
        <_>
          <internalNodes>
            0 -1 17 6.9186337292194366e-02</internalNodes>
          <leafValues>
            -6.7052865028381348e-01 5.8277046680450439e-01</leafValues></_>
        <_>
          <internalNodes>
            0 -1 43 2.9622846341226250e-05</internalNodes>
          <leafValues>
            3.5242673754692078e-01 -9.3193048238754272e-01</leafValues></_>
        <_>
          <internalNodes>
            0 -1 37 1.6549063846468925e-02</internalNodes>
          <leafValues>
            -9.6183609962463379e-01 4.0685439109802246e-01</leafValues></_>
        <_>
          <internalNodes>
            0 -1 52 1.0298943379893899e-05</internalNodes>
          <leafValues>
            3.2321012020111084e-01 -8.8952535390853882e-01</leafValues></_></weakClassifiers></_>
    <!-- stage 4 -->
    <_>
      <maxWeakCount>4</maxWeakCount>
      <stageThreshold>-1.1530905961990356e+00</stageThreshold>
      <weakClassifiers>
        <_>
          <internalNodes>
            0 -1 2 1.2824632227420807e-02</internalNodes>
          <leafValues>
            -8.0664062500000000e-01 4.7941121459007263e-01</leafValues></_>
        <_>
          <internalNodes>
            0 -1 36 2.1754963323473930e-02</internalNodes>
          <leafValues>
            -9.2340075969696045e-01 3.0876764655113220e-01</leafValues></_>
        <_>
          <internalNodes>
            0 -1 39 3.9117235690355301e-02</internalNodes>
          <leafValues>
            -7.8927189111709595e-01 3.2777372002601624e-01</leafValues></_>
        <_>
          <internalNodes>
            0 -1 46 2.9537481168517843e-05</internalNodes>
          <leafValues>
            2.4917712807655334e-01 -8.6958843469619751e-01</leafValues></_></weakClassifiers></_>
    <!-- stage 5 -->
    <_>
      <maxWeakCount>7</maxWeakCount>
      <stageThreshold>-1.9589303731918335e+00</stageThreshold>
      <weakClassifiers>
        <_>
          <internalNodes>
            0 -1 6 8.3902722690254450e-04</internalNodes>
          <leafValues>
            -8.0177813768386841e-01 6.5635007619857788e-01</leafValues></_>
        <_>
          <internalNodes>
            0 -1 42 1.0709144175052643e-02</internalNodes>
          <leafValues>
            -5.5029255151748657e-01 5.0674927234649658e-01</leafValues></_>
        <_>
          <internalNodes>
            0 -1 1 3.2114924397319555e-03</internalNodes>
          <leafValues>
            -4.1910201311111450e-01 7.0979648828506470e-01</leafValues></_>
        <_>
          <internalNodes>
            0 -1 9 1.3609476387500763e-02</internalNodes>
          <leafValues>
            -5.3334039449691772e-01 4.6284034848213196e-01</leafValues></_>
        <_>
          <internalNodes>
            0 -1 12 9.6125334501266479e-02</internalNodes>
          <leafValues>
            -5.2198570966720581e-01 3.7862423062324524e-01</leafValues></_>
        <_>
          <internalNodes>
            0 -1 16 1.3490626588463783e-03</internalNodes>
          <leafValues>
            -3.8094788789749146e-01 5.1488310098648071e-01</leafValues></_>
        <_>
          <internalNodes>
            0 -1 34 9.7327474504709244e-03</internalNodes>
          <leafValues>
            -6.6672515869140625e-01 2.5233566761016846e-01</leafValues></_></weakClassifiers></_>
    <!-- stage 6 -->
    <_>
      <maxWeakCount>13</maxWeakCount>
      <stageThreshold>-2.4717998504638672e+00</stageThreshold>
      <weakClassifiers>
        <_>
          <internalNodes>
            0 -1 2 9.3045793473720551e-03</internalNodes>
          <leafValues>
            -8.1189936399459839e-01 4.9943628907203674e-01</leafValues></_>
        <_>
          <internalNodes>
            0 -1 19 2.1075382828712463e-03</internalNodes>
          <leafValues>
            -6.6846573352813721e-01 2.7643403410911560e-01</leafValues></_>
        <_>
          <internalNodes>
            0 -1 32 9.6500087529420853e-03</internalNodes>
          <leafValues>
            -8.5106682777404785e-01 2.4811640381813049e-01</leafValues></_>
        <_>
          <internalNodes>
            0 -1 40 5.0768945366144180e-02</internalNodes>
          <leafValues>
            -6.2419211864471436e-01 3.4353560209274292e-01</leafValues></_>
        <_>
          <internalNodes>
            0 -1 16 2.4056956171989441e-02</internalNodes>
          <leafValues>
            -3.5040217638015747e-01 6.4700579643249512e-01</leafValues></_>
        <_>
          <internalNodes>
            0 -1 8 4.6208314597606659e-03</internalNodes>
          <leafValues>
            -3.0867725610733032e-01 6.4975953102111816e-01</leafValues></_>
        <_>
          <internalNodes>
            0 -1 38 1.4776708558201790e-02</internalNodes>
          <leafValues>
            -8.5541504621505737e-01 1.9971732795238495e-01</leafValues></_>
        <_>
          <internalNodes>
            0 -1 27 2.1751937310909852e-05</internalNodes>
          <leafValues>
            1.5238684415817261e-01 -8.0341821908950806e-01</leafValues></_>
        <_>
          <internalNodes>
            0 -1 23 1.6951568424701691e-02</internalNodes>
          <leafValues>
            -2.1070718765258789e-01 6.0879343748092651e-01</leafValues></_>
        <_>
          <internalNodes>
            0 -1 18 7.6086027547717094e-03</internalNodes>
          <leafValues>
            -1.9248798489570618e-01 6.6460454463958740e-01</leafValues></_>
        <_>
          <internalNodes>
            0 -1 47 5.4003349505364895e-03</internalNodes>
          <leafValues>
            1.8418604135513306e-01 -9.1950559616088867e-01</leafValues></_>
        <_>
          <internalNodes>
            0 -1 21 1.3433577492833138e-02</internalNodes>
          <leafValues>
            9.5640458166599274e-02 -8.1022632122039795e-01</leafValues></_>
        <_>
          <internalNodes>
            0 -1 33 1.4754354953765869e-02</internalNodes>
          <leafValues>
            -2.4687613546848297e-01 4.0591967105865479e-01</leafValues></_></weakClassifiers></_>
    <!-- stage 7 -->
    <_>
      <maxWeakCount>9</maxWeakCount>
      <stageThreshold>-1.8026329278945923e+00</stageThreshold>
      <weakClassifiers>
        <_>
          <internalNodes>
            0 -1 5 1.1198551394045353e-02</internalNodes>
          <leafValues>
            -6.8528550863265991e-01 3.4389412403106689e-01</leafValues></_>
        <_>
          <internalNodes>
            0 -1 0 9.3671947252005339e-04</internalNodes>
          <leafValues>
            -4.3532302975654602e-01 5.1080584526062012e-01</leafValues></_>
        <_>
          <internalNodes>
            0 -1 42 2.6873925700783730e-02</internalNodes>
          <leafValues>
            -3.7879809737205505e-01 4.4068145751953125e-01</leafValues></_>
        <_>
          <internalNodes>
            0 -1 32 7.9770740121603012e-03</internalNodes>
          <leafValues>
            -7.9212754964828491e-01 2.7098533511161804e-01</leafValues></_>
        <_>
          <internalNodes>
            0 -1 11 5.1951214671134949e-02</internalNodes>
          <leafValues>
            -5.1015430688858032e-01 2.5874263048171997e-01</leafValues></_>
        <_>
          <internalNodes>
            0 -1 7 3.0975852860137820e-04</internalNodes>
          <leafValues>
            -3.0965691804885864e-01 4.7823503613471985e-01</leafValues></_>
        <_>
          <internalNodes>
            0 -1 3 2.1893024677410722e-04</internalNodes>
          <leafValues>
            -4.6207827329635620e-01 3.0768680572509766e-01</leafValues></_>
        <_>
          <internalNodes>
            0 -1 26 6.1669517308473587e-03</internalNodes>
          <leafValues>
            1.6855464875698090e-01 -8.1655412912368774e-01</leafValues></_>
        <_>
          <internalNodes>
            0 -1 29 1.5494958497583866e-02</internalNodes>
          <leafValues>
            -2.4876867234706879e-01 5.0833463668823242e-01</leafValues></_></weakClassifiers></_>
    <!-- stage 8 -->
    <_>
      <maxWeakCount>12</maxWeakCount>
      <stageThreshold>-1.7046146392822266e+00</stageThreshold>
      <weakClassifiers>
        <_>
          <internalNodes>
            0 -1 13 8.0400995910167694e-02</internalNodes>
          <leafValues>
            -8.2513487339019775e-01 4.0937084704637527e-02</leafValues></_>
        <_>
          <internalNodes>
            0 -1 17 2.3406129330396652e-02</internalNodes>
          <leafValues>
            -5.9827500581741333e-01 3.6589124798774719e-01</leafValues></_>
        <_>
          <internalNodes>
            0 -1 20 3.2086476683616638e-02</internalNodes>
          <leafValues>
            -6.2066429853439331e-01 2.6057037711143494e-01</leafValues></_>
        <_>
          <internalNodes>
            0 -1 50 2.0388180928421207e-05</internalNodes>
          <leafValues>
            1.6951331496238708e-01 -8.5084724426269531e-01</leafValues></_>
        <_>
          <internalNodes>
            0 -1 31 5.5803909897804260e-02</internalNodes>
          <leafValues>
            -2.7819907665252686e-01 6.3375711441040039e-01</leafValues></_>
        <_>
          <internalNodes>
            0 -1 35 3.4672368317842484e-02</internalNodes>
          <leafValues>
            -6.8493431806564331e-01 2.1447564661502838e-01</leafValues></_>
        <_>
          <internalNodes>
            0 -1 48 6.6791585595638026e-06</internalNodes>
          <leafValues>
            1.6554804146289825e-01 -6.8645858764648438e-01</leafValues></_>
        <_>
          <internalNodes>
            0 -1 53 1.4525784179568291e-02</internalNodes>
          <leafValues>
            -2.9172176122665405e-01 4.2013067007064819e-01</leafValues></_>
        <_>
          <internalNodes>
            0 -1 16 2.1484458819031715e-02</internalNodes>
          <leafValues>
            -2.8240224719047546e-01 4.5163455605506897e-01</leafValues></_>
        <_>
          <internalNodes>
            0 -1 10 3.1293503940105438e-02</internalNodes>
          <leafValues>
            -3.0501824617385864e-01 4.7378969192504883e-01</leafValues></_>
        <_>
          <internalNodes>
            0 -1 45 1.4858886599540710e-02</internalNodes>
          <leafValues>
            8.6092039942741394e-02 -9.1957592964172363e-01</leafValues></_>
        <_>
          <internalNodes>
            0 -1 26 1.1882477439939976e-02</internalNodes>
          <leafValues>
            8.2363881170749664e-02 -8.3939439058303833e-01</leafValues></_></weakClassifiers></_>
    <!-- stage 9 -->
    <_>
      <maxWeakCount>11</maxWeakCount>
      <stageThreshold>-1.2783125638961792e+00</stageThreshold>
      <weakClassifiers>
        <_>
          <internalNodes>
            0 -1 2 2.0618632435798645e-02</internalNodes>
          <leafValues>
            -6.2342309951782227e-01 3.3529311418533325e-01</leafValues></_>
        <_>
          <internalNodes>
            0 -1 24 8.8653676211833954e-03</internalNodes>
          <leafValues>
            -3.1263256072998047e-01 5.6879162788391113e-01</leafValues></_>
        <_>
          <internalNodes>
            0 -1 15 9.6216380596160889e-02</internalNodes>
          <leafValues>
            -4.3073725700378418e-01 3.3836796879768372e-01</leafValues></_>
        <_>
          <internalNodes>
            0 -1 9 1.3604963198304176e-02</internalNodes>
          <leafValues>
            -4.6547392010688782e-01 2.6108202338218689e-01</leafValues></_>
        <_>
          <internalNodes>
            0 -1 44 9.2752333730459213e-03</internalNodes>
          <leafValues>
            -4.0613692998886108e-01 2.3382566869258881e-01</leafValues></_>
        <_>
          <internalNodes>
            0 -1 4 5.1206745207309723e-02</internalNodes>
          <leafValues>
            -4.7166132926940918e-01 2.6670417189598083e-01</leafValues></_>
        <_>
          <internalNodes>
            0 -1 30 1.0459466278553009e-01</internalNodes>
          <leafValues>
            -1.7225159704685211e-01 6.0354655981063843e-01</leafValues></_>
        <_>
          <internalNodes>
            0 -1 28 1.0691890565794893e-05</internalNodes>
          <leafValues>
            1.2490448355674744e-01 -7.4059462547302246e-01</leafValues></_>
        <_>
          <internalNodes>
            0 -1 25 2.3667377233505249e-01</internalNodes>
          <leafValues>
            8.0427750945091248e-02 -9.5493197441101074e-01</leafValues></_>
        <_>
          <internalNodes>
            0 -1 36 1.4895934611558914e-02</internalNodes>
          <leafValues>
            -9.1208189725875854e-01 9.7260832786560059e-02</leafValues></_>
        <_>
          <internalNodes>
            0 -1 32 9.1602007159963250e-04</internalNodes>
          <leafValues>
            -1. 3.1286291778087616e-02</leafValues></_></weakClassifiers></_></stages>
  <features>
    <_>
      <rect>
        0 44 8 8 20</rect></_>
    <_>
      <rect>
        0 44 8 8 21</rect></_>
    <_>
      <rect>
        4 0 8 8 11</rect></_>
    <_>
      <rect>
        4 4 8 8 4</rect></_>
    <_>
      <rect>
        8 44 8 8 8</rect></_>
    <_>
      <rect>
        12 0 8 8 1</rect></_>
    <_>
      <rect>
        12 0 8 8 3</rect></_>
    <_>
      <rect>
        16 0 8 8 10</rect></_>
    <_>
      <rect>
        16 0 8 8 11</rect></_>
    <_>
      <rect>
        16 0 8 8 17</rect></_>
    <_>
      <rect>
        16 12 8 8 9</rect></_>
    <_>
      <rect>
        16 28 8 8 26</rect></_>
    <_>
      <rect>
        16 32 8 8 8</rect></_>
    <_>
      <rect>
        16 36 8 8 8</rect></_>
    <_>
      <rect>
        16 40 8 8 8</rect></_>
    <_>
      <rect>
        16 44 8 8 8</rect></_>
    <_>
      <rect>
        0 0 8 16 3</rect></_>
    <_>
      <rect>
        0 0 8 16 11</rect></_>
    <_>
      <rect>
        0 0 8 16 29</rect></_>
    <_>
      <rect>
        0 4 8 16 13</rect></_>
    <_>
      <rect>
        0 8 8 16 35</rect></_>
    <_>
      <rect>
        0 16 8 16 0</rect></_>
    <_>
      <rect>
        0 16 8 16 22</rect></_>
    <_>
      <rect>
        0 28 8 16 21</rect></_>
    <_>
      <rect>
        4 28 8 16 21</rect></_>
    <_>
      <rect>
        16 0 8 16 18</rect></_>
    <_>
      <rect>
        16 4 8 16 13</rect></_>
    <_>
      <rect>
        16 8 8 16 13</rect></_>
    <_>
      <rect>
        16 12 8 16 13</rect></_>
    <_>
      <rect>
        16 28 8 16 31</rect></_>
    <_>
      <rect>
        0 0 16 8 10</rect></_>
    <_>
      <rect>
        0 0 16 8 11</rect></_>
    <_>
      <rect>
        0 0 16 8 17</rect></_>
    <_>
      <rect>
        0 4 16 8 3</rect></_>
    <_>
      <rect>
        0 4 16 8 17</rect></_>
    <_>
      <rect>
        0 4 16 8 35</rect></_>
    <_>
      <rect>
        0 8 16 8 35</rect></_>
    <_>
      <rect>
        0 16 16 8 35</rect></_>
    <_>
      <rect>
        0 28 16 8 17</rect></_>
    <_>
      <rect>
        0 32 16 8 26</rect></_>
    <_>
      <rect>
        0 36 16 8 26</rect></_>
    <_>
      <rect>
        0 0 16 16 2</rect></_>
    <_>
      <rect>
        0 0 16 16 3</rect></_>
    <_>
      <rect>
        0 0 16 16 33</rect></_>
    <_>
      <rect>
        0 4 16 16 3</rect></_>
    <_>
      <rect>
        0 4 16 16 16</rect></_>
    <_>
      <rect>
        0 12 16 16 31</rect></_>
    <_>
      <rect>
        0 16 16 16 25</rect></_>
    <_>
      <rect>
        0 16 16 16 31</rect></_>
    <_>
      <rect>
        0 16 16 16 33</rect></_>
    <_>
      <rect>
        0 20 16 16 25</rect></_>
    <_>
      <rect>
        0 24 16 16 13</rect></_>
    <_>
      <rect>
        0 24 16 16 24</rect></_>
    <_>
      <rect>
        0 28 16 16 31</rect></_></features></cascade>
</opencv_storage>
