<?xml version="1.0"?>
<opencv_storage>
<!-- Created using Computer Vision System Toolbox(tm) for MATLAB(R) -->
<!-- Version 9.5.0.1033004 (R2018b) Update 2 -->
<!-- Compatible with OpenCV 3.4 -->
<cascade>
  <stageType>BOOST</stageType>
  <featureType>HOG</featureType>
  <height>45</height>
  <width>32</width>
  <stageParams>
    <boostType>GAB</boostType>
    <minHitRate>9.9500000476837158e-01</minHitRate>
    <maxFalseAlarm>5.0000000000000000e-01</maxFalseAlarm>
    <weightTrimRate>9.4999999999999996e-01</weightTrimRate>
    <maxDepth>1</maxDepth>
    <maxWeakCount>100</maxWeakCount></stageParams>
  <featureParams>
    <maxCatCount>0</maxCatCount>
    <featSize>36</featSize></featureParams>
  <stageNum>17</stageNum>
  <stages>
    <!-- stage 0 -->
    <_>
      <maxWeakCount>3</maxWeakCount>
      <stageThreshold>-8.0249661207199097e-01</stageThreshold>
      <weakClassifiers>
        <_>
          <internalNodes>
            0 -1 89 1.2235790491104126e-02</internalNodes>
          <leafValues>
            9.5375722646713257e-01 -8.1739127635955811e-01</leafValues></_>
        <_>
          <internalNodes>
            0 -1 65 1.0407863184809685e-02</internalNodes>
          <leafValues>
            8.2217657566070557e-01 -6.8973529338836670e-01</leafValues></_>
        <_>
          <internalNodes>
            0 -1 103 1.4674987643957138e-02</internalNodes>
          <leafValues>
            7.0462995767593384e-01 -7.5413489341735840e-01</leafValues></_></weakClassifiers></_>
    <!-- stage 1 -->
    <_>
      <maxWeakCount>3</maxWeakCount>
      <stageThreshold>-8.4715676307678223e-01</stageThreshold>
      <weakClassifiers>
        <_>
          <internalNodes>
            0 -1 104 1.0451724752783775e-02</internalNodes>
          <leafValues>
            8.0219781398773193e-01 -7.9157429933547974e-01</leafValues></_>
        <_>
          <internalNodes>
            0 -1 60 1.1105621233582497e-02</internalNodes>
          <leafValues>
            6.8060177564620972e-01 -6.5360772609710693e-01</leafValues></_>
        <_>
          <internalNodes>
            0 -1 92 1.8499661237001419e-02</internalNodes>
          <leafValues>
            5.9802526235580444e-01 -6.3792365789413452e-01</leafValues></_></weakClassifiers></_>
    <!-- stage 2 -->
    <_>
      <maxWeakCount>3</maxWeakCount>
      <stageThreshold>-9.9927818775177002e-01</stageThreshold>
      <weakClassifiers>
        <_>
          <internalNodes>
            0 -1 147 1.0110042989253998e-02</internalNodes>
          <leafValues>
            5.4901963472366333e-01 -7.5291377305984497e-01</leafValues></_>
        <_>
          <internalNodes>
            0 -1 72 7.6425271108746529e-03</internalNodes>
          <leafValues>
            4.7954457998275757e-01 -6.7241990566253662e-01</leafValues></_>
        <_>
          <internalNodes>
            0 -1 95 9.5357391983270645e-03</internalNodes>
          <leafValues>
            4.2605552077293396e-01 -6.6145133972167969e-01</leafValues></_></weakClassifiers></_>
    <!-- stage 3 -->
    <_>
      <maxWeakCount>6</maxWeakCount>
      <stageThreshold>-1.2325732707977295e+00</stageThreshold>
      <weakClassifiers>
        <_>
          <internalNodes>
            0 -1 70 5.9267073869705200e-02</internalNodes>
          <leafValues>
            -6.0569107532501221e-01 6.1702126264572144e-01</leafValues></_>
        <_>
          <internalNodes>
            0 -1 86 6.7370687611401081e-03</internalNodes>
          <leafValues>
            5.4100435972213745e-01 -5.1430356502532959e-01</leafValues></_>
        <_>
          <internalNodes>
            0 -1 96 8.4820436313748360e-03</internalNodes>
          <leafValues>
            3.5448125004768372e-01 -5.6124061346054077e-01</leafValues></_>
        <_>
          <internalNodes>
            0 -1 147 1.2281225994229317e-02</internalNodes>
          <leafValues>
            4.3518900871276855e-01 -5.3254085779190063e-01</leafValues></_>
        <_>
          <internalNodes>
            0 -1 127 1.8340613692998886e-02</internalNodes>
          <leafValues>
            -3.9178761839866638e-01 4.9535119533538818e-01</leafValues></_>
        <_>
          <internalNodes>
            0 -1 122 4.9887988716363907e-03</internalNodes>
          <leafValues>
            4.7561383247375488e-01 -4.2987024784088135e-01</leafValues></_></weakClassifiers></_>
    <!-- stage 4 -->
    <_>
      <maxWeakCount>8</maxWeakCount>
      <stageThreshold>-1.4430420398712158e+00</stageThreshold>
      <weakClassifiers>
        <_>
          <internalNodes>
            0 -1 141 3.1756445765495300e-02</internalNodes>
          <leafValues>
            -6.9193154573440552e-01 3.2142856717109680e-01</leafValues></_>
        <_>
          <internalNodes>
            0 -1 134 5.8139007538557053e-02</internalNodes>
          <leafValues>
            -3.3848991990089417e-01 7.3893350362777710e-01</leafValues></_>
        <_>
          <internalNodes>
            0 -1 34 6.0194050893187523e-03</internalNodes>
          <leafValues>
            3.4092292189598083e-01 -4.7357425093650818e-01</leafValues></_>
        <_>
          <internalNodes>
            0 -1 145 2.7117572724819183e-02</internalNodes>
          <leafValues>
            -3.3249929547309875e-01 5.3211832046508789e-01</leafValues></_>
        <_>
          <internalNodes>
            0 -1 52 5.8920551091432571e-03</internalNodes>
          <leafValues>
            5.3196829557418823e-01 -2.6499128341674805e-01</leafValues></_>
        <_>
          <internalNodes>
            0 -1 105 1.5727095305919647e-02</internalNodes>
          <leafValues>
            -6.6354846954345703e-01 2.5803968310356140e-01</leafValues></_>
        <_>
          <internalNodes>
            0 -1 52 8.6577415466308594e-02</internalNodes>
          <leafValues>
            1.6859242320060730e-01 -7.6045352220535278e-01</leafValues></_>
        <_>
          <internalNodes>
            0 -1 65 9.7394632175564766e-03</internalNodes>
          <leafValues>
            2.4685809016227722e-01 -5.2571445703506470e-01</leafValues></_></weakClassifiers></_>
    <!-- stage 5 -->
    <_>
      <maxWeakCount>9</maxWeakCount>
      <stageThreshold>-1.0258846282958984e+00</stageThreshold>
      <weakClassifiers>
        <_>
          <internalNodes>
            0 -1 47 6.3555538654327393e-02</internalNodes>
          <leafValues>
            -5.7849460840225220e-01 3.4523808956146240e-01</leafValues></_>
        <_>
          <internalNodes>
            0 -1 144 4.3598106130957603e-03</internalNodes>
          <leafValues>
            -7.2844737768173218e-01 1.9395636022090912e-01</leafValues></_>
        <_>
          <internalNodes>
            0 -1 117 7.6780375093221664e-03</internalNodes>
          <leafValues>
            3.0614969134330750e-01 -4.3091085553169250e-01</leafValues></_>
        <_>
          <internalNodes>
            0 -1 127 1.1198960244655609e-02</internalNodes>
          <leafValues>
            -5.0727325677871704e-01 3.7988510727882385e-01</leafValues></_>
        <_>
          <internalNodes>
            0 -1 146 5.5131586268544197e-03</internalNodes>
          <leafValues>
            -8.8410580158233643e-01 1.6591569781303406e-01</leafValues></_>
        <_>
          <internalNodes>
            0 -1 149 5.2770573645830154e-02</internalNodes>
          <leafValues>
            -3.7587681412696838e-01 4.1044539213180542e-01</leafValues></_>
        <_>
          <internalNodes>
            0 -1 71 3.7103783339262009e-02</internalNodes>
          <leafValues>
            -2.7468174695968628e-01 5.5031460523605347e-01</leafValues></_>
        <_>
          <internalNodes>
            0 -1 81 7.4320018291473389e-02</internalNodes>
          <leafValues>
            -1.6820527613162994e-01 7.0449584722518921e-01</leafValues></_>
        <_>
          <internalNodes>
            0 -1 31 3.5995687358081341e-03</internalNodes>
          <leafValues>
            3.4870690107345581e-01 -3.0902570486068726e-01</leafValues></_></weakClassifiers></_>
    <!-- stage 6 -->
    <_>
      <maxWeakCount>8</maxWeakCount>
      <stageThreshold>-8.9702284336090088e-01</stageThreshold>
      <weakClassifiers>
        <_>
          <internalNodes>
            0 -1 51 4.0267258882522583e-03</internalNodes>
          <leafValues>
            3.4131735563278198e-01 -5.7510727643966675e-01</leafValues></_>
        <_>
          <internalNodes>
            0 -1 127 1.6312986845150590e-03</internalNodes>
          <leafValues>
            -8.3847969770431519e-01 1.1007087677717209e-01</leafValues></_>
        <_>
          <internalNodes>
            0 -1 40 8.9250318706035614e-03</internalNodes>
          <leafValues>
            4.1402029991149902e-01 -3.9515814185142517e-01</leafValues></_>
        <_>
          <internalNodes>
            0 -1 52 6.0710096731781960e-03</internalNodes>
          <leafValues>
            4.3297973275184631e-01 -3.5682752728462219e-01</leafValues></_>
        <_>
          <internalNodes>
            0 -1 62 8.4183281287550926e-03</internalNodes>
          <leafValues>
            3.5568565130233765e-01 -4.2830911278724670e-01</leafValues></_>
        <_>
          <internalNodes>
            0 -1 145 3.3046714961528778e-02</internalNodes>
          <leafValues>
            -3.5916489362716675e-01 4.3306595087051392e-01</leafValues></_>
        <_>
          <internalNodes>
            0 -1 98 1.7825609073042870e-02</internalNodes>
          <leafValues>
            1.9776439666748047e-01 -6.7642462253570557e-01</leafValues></_>
        <_>
          <internalNodes>
            0 -1 142 6.1232363805174828e-03</internalNodes>
          <leafValues>
            -5.8031195402145386e-01 2.1461448073387146e-01</leafValues></_></weakClassifiers></_>
    <!-- stage 7 -->
    <_>
      <maxWeakCount>10</maxWeakCount>
      <stageThreshold>-9.8566097021102905e-01</stageThreshold>
      <weakClassifiers>
        <_>
          <internalNodes>
            0 -1 23 1.2549156323075294e-02</internalNodes>
          <leafValues>
            5.8823529630899429e-02 -6.6279071569442749e-01</leafValues></_>
        <_>
          <internalNodes>
            0 -1 57 4.6739615499973297e-03</internalNodes>
          <leafValues>
            2.5232240557670593e-01 -3.9198589324951172e-01</leafValues></_>
        <_>
          <internalNodes>
            0 -1 66 7.2820909321308136e-02</internalNodes>
          <leafValues>
            -1.6219753026962280e-01 7.5960350036621094e-01</leafValues></_>
        <_>
          <internalNodes>
            0 -1 141 2.7582313865423203e-02</internalNodes>
          <leafValues>
            -3.5985118150711060e-01 2.9523113369941711e-01</leafValues></_>
        <_>
          <internalNodes>
            0 -1 34 6.0711717233061790e-03</internalNodes>
          <leafValues>
            3.7473973631858826e-01 -4.1521960496902466e-01</leafValues></_>
        <_>
          <internalNodes>
            0 -1 152 2.6208963245153427e-03</internalNodes>
          <leafValues>
            -7.6283752918243408e-01 1.0096033662557602e-01</leafValues></_>
        <_>
          <internalNodes>
            0 -1 129 1.3975754380226135e-02</internalNodes>
          <leafValues>
            2.1284580230712891e-01 -4.3689885735511780e-01</leafValues></_>
        <_>
          <internalNodes>
            0 -1 85 9.5909917727112770e-03</internalNodes>
          <leafValues>
            3.6621901392936707e-01 -2.9358878731727600e-01</leafValues></_>
        <_>
          <internalNodes>
            0 -1 26 1.0135694174095988e-04</internalNodes>
          <leafValues>
            -9.0789687633514404e-01 9.3892879784107208e-02</leafValues></_>
        <_>
          <internalNodes>
            0 -1 5 5.2812793292105198e-03</internalNodes>
          <leafValues>
            3.0096673965454102e-01 -3.1218108534812927e-01</leafValues></_></weakClassifiers></_>
    <!-- stage 8 -->
    <_>
      <maxWeakCount>9</maxWeakCount>
      <stageThreshold>-1.0155756473541260e+00</stageThreshold>
      <weakClassifiers>
        <_>
          <internalNodes>
            0 -1 50 3.7048660218715668e-02</internalNodes>
          <leafValues>
            -5.8808934688568115e-01 1.1304347962141037e-01</leafValues></_>
        <_>
          <internalNodes>
            0 -1 7 3.9928909391164780e-03</internalNodes>
          <leafValues>
            2.1701170504093170e-01 -4.3006768822669983e-01</leafValues></_>
        <_>
          <internalNodes>
            0 -1 53 1.2109360657632351e-02</internalNodes>
          <leafValues>
            1.7273679375648499e-01 -5.9724259376525879e-01</leafValues></_>
        <_>
          <internalNodes>
            0 -1 131 1.6674321144819260e-02</internalNodes>
          <leafValues>
            -4.9032434821128845e-01 3.0023530125617981e-01</leafValues></_>
        <_>
          <internalNodes>
            0 -1 58 3.6391792818903923e-03</internalNodes>
          <leafValues>
            3.2213732600212097e-01 -3.5044839978218079e-01</leafValues></_>
        <_>
          <internalNodes>
            0 -1 13 6.2515176832675934e-03</internalNodes>
          <leafValues>
            2.3240467905998230e-01 -3.3491769433021545e-01</leafValues></_>
        <_>
          <internalNodes>
            0 -1 115 2.5681819766759872e-02</internalNodes>
          <leafValues>
            -1.6201901435852051e-01 5.3479880094528198e-01</leafValues></_>
        <_>
          <internalNodes>
            0 -1 109 1.8915191292762756e-02</internalNodes>
          <leafValues>
            -4.8495814204216003e-01 1.7103131115436554e-01</leafValues></_>
        <_>
          <internalNodes>
            0 -1 121 2.6120822876691818e-02</internalNodes>
          <leafValues>
            -2.8819772601127625e-01 3.7449398636817932e-01</leafValues></_></weakClassifiers></_>
    <!-- stage 9 -->
    <_>
      <maxWeakCount>12</maxWeakCount>
      <stageThreshold>-8.9034497737884521e-01</stageThreshold>
      <weakClassifiers>
        <_>
          <internalNodes>
            0 -1 134 6.6977411508560181e-02</internalNodes>
          <leafValues>
            -4.9180328845977783e-01 2.0000000298023224e-01</leafValues></_>
        <_>
          <internalNodes>
            0 -1 8 7.0893066003918648e-03</internalNodes>
          <leafValues>
            2.1966043114662170e-01 -4.2717942595481873e-01</leafValues></_>
        <_>
          <internalNodes>
            0 -1 99 9.3127982690930367e-03</internalNodes>
          <leafValues>
            2.5625887513160706e-01 -4.0491148829460144e-01</leafValues></_>
        <_>
          <internalNodes>
            0 -1 123 8.0713741481304169e-03</internalNodes>
          <leafValues>
            -4.2831915616989136e-01 1.6924698650836945e-01</leafValues></_>
        <_>
          <internalNodes>
            0 -1 140 4.5115342363715172e-03</internalNodes>
          <leafValues>
            -5.5523258447647095e-01 1.3300515711307526e-01</leafValues></_>
        <_>
          <internalNodes>
            0 -1 98 9.7670629620552063e-03</internalNodes>
          <leafValues>
            2.3617407679557800e-01 -3.6266678571701050e-01</leafValues></_>
        <_>
          <internalNodes>
            0 -1 36 4.8473784700036049e-03</internalNodes>
          <leafValues>
            3.5076150298118591e-01 -2.5754496455192566e-01</leafValues></_>
        <_>
          <internalNodes>
            0 -1 59 4.7702277079224586e-03</internalNodes>
          <leafValues>
            3.0717420578002930e-01 -3.1152287125587463e-01</leafValues></_>
        <_>
          <internalNodes>
            0 -1 70 7.3914252221584320e-02</internalNodes>
          <leafValues>
            -2.1401461958885193e-01 4.0333569049835205e-01</leafValues></_>
        <_>
          <internalNodes>
            0 -1 25 2.7829085011035204e-03</internalNodes>
          <leafValues>
            -5.7354158163070679e-01 1.3778768479824066e-01</leafValues></_>
        <_>
          <internalNodes>
            0 -1 17 6.1590068042278290e-02</internalNodes>
          <leafValues>
            -1.2447732686996460e-01 6.5776348114013672e-01</leafValues></_>
        <_>
          <internalNodes>
            0 -1 135 9.8099783062934875e-03</internalNodes>
          <leafValues>
            -5.6076174974441528e-01 1.6948942840099335e-01</leafValues></_></weakClassifiers></_>
    <!-- stage 10 -->
    <_>
      <maxWeakCount>14</maxWeakCount>
      <stageThreshold>-1.0434327125549316e+00</stageThreshold>
      <weakClassifiers>
        <_>
          <internalNodes>
            0 -1 87 8.4776632487773895e-02</internalNodes>
          <leafValues>
            -4.3971630930900574e-01 5.3623187541961670e-01</leafValues></_>
        <_>
          <internalNodes>
            0 -1 141 1.7968177795410156e-02</internalNodes>
          <leafValues>
            -4.4922429323196411e-01 1.8011863529682159e-01</leafValues></_>
        <_>
          <internalNodes>
            0 -1 54 2.7860566973686218e-02</internalNodes>
          <leafValues>
            -2.8949698805809021e-01 2.6695078611373901e-01</leafValues></_>
        <_>
          <internalNodes>
            0 -1 9 6.0220416635274887e-03</internalNodes>
          <leafValues>
            1.9196009635925293e-01 -4.0785276889801025e-01</leafValues></_>
        <_>
          <internalNodes>
            0 -1 46 5.5459443479776382e-02</internalNodes>
          <leafValues>
            -1.3675001263618469e-01 6.0025388002395630e-01</leafValues></_>
        <_>
          <internalNodes>
            0 -1 148 3.1165168620646000e-03</internalNodes>
          <leafValues>
            -1. 1.1094909161329269e-01</leafValues></_>
        <_>
          <internalNodes>
            0 -1 28 4.3529450893402100e-02</internalNodes>
          <leafValues>
            -1.6100209951400757e-01 5.4334646463394165e-01</leafValues></_>
        <_>
          <internalNodes>
            0 -1 4 4.9114460125565529e-03</internalNodes>
          <leafValues>
            3.0230161547660828e-01 -2.4029694497585297e-01</leafValues></_>
        <_>
          <internalNodes>
            0 -1 38 4.1357845067977905e-02</internalNodes>
          <leafValues>
            -1.6237473487854004e-01 3.7439903616905212e-01</leafValues></_>
        <_>
          <internalNodes>
            0 -1 68 6.0765268281102180e-03</internalNodes>
          <leafValues>
            2.7661088109016418e-01 -2.4024748802185059e-01</leafValues></_>
        <_>
          <internalNodes>
            0 -1 15 2.0579020492732525e-03</internalNodes>
          <leafValues>
            -7.0083057880401611e-01 7.4709355831146240e-02</leafValues></_>
        <_>
          <internalNodes>
            0 -1 79 1.1561665683984756e-02</internalNodes>
          <leafValues>
            2.2045449912548065e-01 -3.0049619078636169e-01</leafValues></_>
        <_>
          <internalNodes>
            0 -1 128 7.8686043620109558e-02</internalNodes>
          <leafValues>
            1.4917045831680298e-01 -5.2460479736328125e-01</leafValues></_>
        <_>
          <internalNodes>
            0 -1 78 4.3021151795983315e-03</internalNodes>
          <leafValues>
            2.9612600803375244e-01 -2.2801509499549866e-01</leafValues></_></weakClassifiers></_>
    <!-- stage 11 -->
    <_>
      <maxWeakCount>19</maxWeakCount>
      <stageThreshold>-9.8229277133941650e-01</stageThreshold>
      <weakClassifiers>
        <_>
          <internalNodes>
            0 -1 139 4.8491671681404114e-02</internalNodes>
          <leafValues>
            -4.5038166642189026e-01 2.2935779392719269e-01</leafValues></_>
        <_>
          <internalNodes>
            0 -1 49 8.7439361959695816e-03</internalNodes>
          <leafValues>
            1.9768387079238892e-01 -3.4569045901298523e-01</leafValues></_>
        <_>
          <internalNodes>
            0 -1 107 1.0693769901990891e-02</internalNodes>
          <leafValues>
            -7.3355650901794434e-01 9.0775474905967712e-02</leafValues></_>
        <_>
          <internalNodes>
            0 -1 131 3.4057803452014923e-02</internalNodes>
          <leafValues>
            -2.4420438706874847e-01 2.6824662089347839e-01</leafValues></_>
        <_>
          <internalNodes>
            0 -1 77 3.8987076841294765e-03</internalNodes>
          <leafValues>
            3.4757414460182190e-01 -2.3239001631736755e-01</leafValues></_>
        <_>
          <internalNodes>
            0 -1 55 2.5411476599401794e-05</internalNodes>
          <leafValues>
            -6.0467231273651123e-01 8.3043172955513000e-02</leafValues></_>
        <_>
          <internalNodes>
            0 -1 126 9.4885816797614098e-03</internalNodes>
          <leafValues>
            -4.5484513044357300e-01 1.4894293248653412e-01</leafValues></_>
        <_>
          <internalNodes>
            0 -1 13 1.0140883736312389e-02</internalNodes>
          <leafValues>
            1.5107190608978271e-01 -4.6244782209396362e-01</leafValues></_>
        <_>
          <internalNodes>
            0 -1 151 3.0846085865050554e-03</internalNodes>
          <leafValues>
            -6.0351145267486572e-01 1.1632544547319412e-01</leafValues></_>
        <_>
          <internalNodes>
            0 -1 106 1.5386488288640976e-02</internalNodes>
          <leafValues>
            1.3031630218029022e-01 -4.6456873416900635e-01</leafValues></_>
        <_>
          <internalNodes>
            0 -1 130 1.6604963690042496e-02</internalNodes>
          <leafValues>
            1.1264573782682419e-01 -5.5542939901351929e-01</leafValues></_>
        <_>
          <internalNodes>
            0 -1 20 3.2539814710617065e-02</internalNodes>
          <leafValues>
            -1.7784121632575989e-01 3.7910974025726318e-01</leafValues></_>
        <_>
          <internalNodes>
            0 -1 84 1.0649105533957481e-02</internalNodes>
          <leafValues>
            2.6806986331939697e-01 -2.7103227376937866e-01</leafValues></_>
        <_>
          <internalNodes>
            0 -1 136 6.4600139856338501e-02</internalNodes>
          <leafValues>
            -8.4132105112075806e-02 6.4191120862960815e-01</leafValues></_>
        <_>
          <internalNodes>
            0 -1 43 1.4682471752166748e-02</internalNodes>
          <leafValues>
            2.3630629479885101e-01 -2.7394437789916992e-01</leafValues></_>
        <_>
          <internalNodes>
            0 -1 94 6.6543743014335632e-04</internalNodes>
          <leafValues>
            -6.1932557821273804e-01 9.4533592462539673e-02</leafValues></_>
        <_>
          <internalNodes>
            0 -1 14 1.7374854534864426e-02</internalNodes>
          <leafValues>
            1.0104672610759735e-01 -4.9433353543281555e-01</leafValues></_>
        <_>
          <internalNodes>
            0 -1 132 7.7583305537700653e-03</internalNodes>
          <leafValues>
            -4.2753574252128601e-01 1.4027296006679535e-01</leafValues></_>
        <_>
          <internalNodes>
            0 -1 29 5.2879601716995239e-03</internalNodes>
          <leafValues>
            3.0401641130447388e-01 -2.1018630266189575e-01</leafValues></_></weakClassifiers></_>
    <!-- stage 12 -->
    <_>
      <maxWeakCount>18</maxWeakCount>
      <stageThreshold>-7.8913754224777222e-01</stageThreshold>
      <weakClassifiers>
        <_>
          <internalNodes>
            0 -1 66 5.0192628055810928e-02</internalNodes>
          <leafValues>
            -2.1003134548664093e-01 4.6551725268363953e-01</leafValues></_>
        <_>
          <internalNodes>
            0 -1 21 2.8630897402763367e-02</internalNodes>
          <leafValues>
            -2.1094915270805359e-01 3.0296435952186584e-01</leafValues></_>
        <_>
          <internalNodes>
            0 -1 32 2.6870783418416977e-02</internalNodes>
          <leafValues>
            1.4176705479621887e-01 -5.1929420232772827e-01</leafValues></_>
        <_>
          <internalNodes>
            0 -1 76 4.8527596518397331e-03</internalNodes>
          <leafValues>
            3.6110857129096985e-01 -2.1398012340068817e-01</leafValues></_>
        <_>
          <internalNodes>
            0 -1 48 7.1005458012223244e-03</internalNodes>
          <leafValues>
            3.2594224810600281e-01 -2.4433179199695587e-01</leafValues></_>
        <_>
          <internalNodes>
            0 -1 120 2.3099815007299185e-03</internalNodes>
          <leafValues>
            -7.0353573560714722e-01 6.7038059234619141e-02</leafValues></_>
        <_>
          <internalNodes>
            0 -1 83 4.6877199783921242e-03</internalNodes>
          <leafValues>
            3.1388348340988159e-01 -1.9328057765960693e-01</leafValues></_>
        <_>
          <internalNodes>
            0 -1 112 5.7779662311077118e-02</internalNodes>
          <leafValues>
            1.8500117957592010e-01 -4.1766199469566345e-01</leafValues></_>
        <_>
          <internalNodes>
            0 -1 124 3.2568324822932482e-03</internalNodes>
          <leafValues>
            -5.5067789554595947e-01 8.3713896572589874e-02</leafValues></_>
        <_>
          <internalNodes>
            0 -1 64 6.3148764893412590e-03</internalNodes>
          <leafValues>
            3.0271831154823303e-01 -2.1641969680786133e-01</leafValues></_>
        <_>
          <internalNodes>
            0 -1 45 9.7684167325496674e-02</internalNodes>
          <leafValues>
            -1.5219433605670929e-01 5.4301285743713379e-01</leafValues></_>
        <_>
          <internalNodes>
            0 -1 19 2.7557872235774994e-02</internalNodes>
          <leafValues>
            2.1022611856460571e-01 -4.0023323893547058e-01</leafValues></_>
        <_>
          <internalNodes>
            0 -1 12 6.1748951673507690e-02</internalNodes>
          <leafValues>
            -2.2263467311859131e-01 3.1896460056304932e-01</leafValues></_>
        <_>
          <internalNodes>
            0 -1 30 7.2745592333376408e-03</internalNodes>
          <leafValues>
            3.7029498815536499e-01 -1.7316024005413055e-01</leafValues></_>
        <_>
          <internalNodes>
            0 -1 91 3.0709557235240936e-02</internalNodes>
          <leafValues>
            -1.1243933439254761e-01 5.8960992097854614e-01</leafValues></_>
        <_>
          <internalNodes>
            0 -1 114 1.5439894981682301e-02</internalNodes>
          <leafValues>
            -4.8275905847549438e-01 1.3165242969989777e-01</leafValues></_>
        <_>
          <internalNodes>
            0 -1 3 5.2932731807231903e-02</internalNodes>
          <leafValues>
            -1.0483963787555695e-01 6.1030167341232300e-01</leafValues></_>
        <_>
          <internalNodes>
            0 -1 93 3.1230931635946035e-03</internalNodes>
          <leafValues>
            -7.3913609981536865e-01 1.0130885243415833e-01</leafValues></_></weakClassifiers></_>
    <!-- stage 13 -->
    <_>
      <maxWeakCount>15</maxWeakCount>
      <stageThreshold>-5.6532382965087891e-01</stageThreshold>
      <weakClassifiers>
        <_>
          <internalNodes>
            0 -1 47 1.0544921457767487e-01</internalNodes>
          <leafValues>
            2.3255813866853714e-02 6.4583331346511841e-01</leafValues></_>
        <_>
          <internalNodes>
            0 -1 108 4.7180533409118652e-02</internalNodes>
          <leafValues>
            1.1164415627717972e-01 -8.6407917737960815e-01</leafValues></_>
        <_>
          <internalNodes>
            0 -1 127 2.7173772454261780e-02</internalNodes>
          <leafValues>
            -2.7540469169616699e-01 2.9338875412940979e-01</leafValues></_>
        <_>
          <internalNodes>
            0 -1 27 7.4967090040445328e-03</internalNodes>
          <leafValues>
            2.7953436970710754e-01 -2.7070209383964539e-01</leafValues></_>
        <_>
          <internalNodes>
            0 -1 11 3.0549816787242889e-02</internalNodes>
          <leafValues>
            -1.2638650834560394e-01 6.3216900825500488e-01</leafValues></_>
        <_>
          <internalNodes>
            0 -1 137 8.6199641227722168e-02</internalNodes>
          <leafValues>
            -1.8021592497825623e-01 5.5266153812408447e-01</leafValues></_>
        <_>
          <internalNodes>
            0 -1 2 5.2793774753808975e-02</internalNodes>
          <leafValues>
            -1.3825671374797821e-01 5.9474593400955200e-01</leafValues></_>
        <_>
          <internalNodes>
            0 -1 80 3.6020437255501747e-03</internalNodes>
          <leafValues>
            3.8979399204254150e-01 -2.2167953848838806e-01</leafValues></_>
        <_>
          <internalNodes>
            0 -1 42 6.9543544668704271e-04</internalNodes>
          <leafValues>
            -4.4421634078025818e-01 1.9902193546295166e-01</leafValues></_>
        <_>
          <internalNodes>
            0 -1 24 5.9478478506207466e-03</internalNodes>
          <leafValues>
            3.8139912486076355e-01 -1.9592049717903137e-01</leafValues></_>
        <_>
          <internalNodes>
            0 -1 56 1.4862776733934879e-02</internalNodes>
          <leafValues>
            -2.3574878275394440e-01 3.1710743904113770e-01</leafValues></_>
        <_>
          <internalNodes>
            0 -1 97 2.2243959829211235e-03</internalNodes>
          <leafValues>
            -8.1400680541992188e-01 1.1767210811376572e-01</leafValues></_>
        <_>
          <internalNodes>
            0 -1 90 2.8324448503553867e-03</internalNodes>
          <leafValues>
            4.5191296935081482e-01 -1.9968740642070770e-01</leafValues></_>
        <_>
          <internalNodes>
            0 -1 61 8.2335453480482101e-03</internalNodes>
          <leafValues>
            3.1977260112762451e-01 -2.2497592866420746e-01</leafValues></_>
        <_>
          <internalNodes>
            0 -1 36 3.0870206654071808e-02</internalNodes>
          <leafValues>
            1.1373922228813171e-01 -5.8806115388870239e-01</leafValues></_></weakClassifiers></_>
    <!-- stage 14 -->
    <_>
      <maxWeakCount>19</maxWeakCount>
      <stageThreshold>-5.7953315973281860e-01</stageThreshold>
      <weakClassifiers>
        <_>
          <internalNodes>
            0 -1 110 7.1982052177190781e-03</internalNodes>
          <leafValues>
            5.1295334100723267e-01 -3.7593983113765717e-02</leafValues></_>
        <_>
          <internalNodes>
            0 -1 145 1.2723213061690331e-02</internalNodes>
          <leafValues>
            -4.3058228492736816e-01 1.9712792336940765e-01</leafValues></_>
        <_>
          <internalNodes>
            0 -1 64 1.7069041728973389e-02</internalNodes>
          <leafValues>
            2.3675502836704254e-01 -4.3444925546646118e-01</leafValues></_>
        <_>
          <internalNodes>
            0 -1 113 5.9202453121542931e-04</internalNodes>
          <leafValues>
            -6.4393705129623413e-01 1.0619751363992691e-01</leafValues></_>
        <_>
          <internalNodes>
            0 -1 88 3.8741952739655972e-03</internalNodes>
          <leafValues>
            3.0863896012306213e-01 -2.4108125269412994e-01</leafValues></_>
        <_>
          <internalNodes>
            0 -1 125 2.9442002996802330e-02</internalNodes>
          <leafValues>
            -2.1560615301132202e-01 5.4693955183029175e-01</leafValues></_>
        <_>
          <internalNodes>
            0 -1 74 8.8980551809072495e-03</internalNodes>
          <leafValues>
            3.4837424755096436e-01 -2.3516836762428284e-01</leafValues></_>
        <_>
          <internalNodes>
            0 -1 75 5.7505525648593903e-02</internalNodes>
          <leafValues>
            8.6290575563907623e-02 -7.1651399135589600e-01</leafValues></_>
        <_>
          <internalNodes>
            0 -1 39 2.1964054554700851e-02</internalNodes>
          <leafValues>
            -2.2500480711460114e-01 3.1114652752876282e-01</leafValues></_>
        <_>
          <internalNodes>
            0 -1 101 1.6697414685040712e-03</internalNodes>
          <leafValues>
            -7.6027870178222656e-01 9.5359303057193756e-02</leafValues></_>
        <_>
          <internalNodes>
            0 -1 41 6.7296354100108147e-03</internalNodes>
          <leafValues>
            2.8633522987365723e-01 -2.3352205753326416e-01</leafValues></_>
        <_>
          <internalNodes>
            0 -1 0 7.2290115058422089e-03</internalNodes>
          <leafValues>
            3.1071633100509644e-01 -3.0347383022308350e-01</leafValues></_>
        <_>
          <internalNodes>
            0 -1 33 8.9165661484003067e-03</internalNodes>
          <leafValues>
            -3.5951006412506104e-01 2.1888615190982819e-01</leafValues></_>
        <_>
          <internalNodes>
            0 -1 44 9.3435812741518021e-03</internalNodes>
          <leafValues>
            2.6545783877372742e-01 -3.3748462796211243e-01</leafValues></_>
        <_>
          <internalNodes>
            0 -1 35 3.4963350743055344e-02</internalNodes>
          <leafValues>
            2.0209532976150513e-01 -4.5051494240760803e-01</leafValues></_>
        <_>
          <internalNodes>
            0 -1 1 2.3841347545385361e-02</internalNodes>
          <leafValues>
            1.5335749089717865e-01 -4.9060687422752380e-01</leafValues></_>
        <_>
          <internalNodes>
            0 -1 37 5.8548375964164734e-02</internalNodes>
          <leafValues>
            1.3092012703418732e-01 -6.1866378784179688e-01</leafValues></_>
        <_>
          <internalNodes>
            0 -1 57 1.6742553561925888e-03</internalNodes>
          <leafValues>
            3.1669768691062927e-01 -2.2426848113536835e-01</leafValues></_>
        <_>
          <internalNodes>
            0 -1 10 3.3703837543725967e-03</internalNodes>
          <leafValues>
            -4.6841675043106079e-01 1.7029058933258057e-01</leafValues></_></weakClassifiers></_>
    <!-- stage 15 -->
    <_>
      <maxWeakCount>12</maxWeakCount>
      <stageThreshold>-3.3183059096336365e-01</stageThreshold>
      <weakClassifiers>
        <_>
          <internalNodes>
            0 -1 67 1.1556741083040833e-03</internalNodes>
          <leafValues>
            -4.1935482621192932e-01 4.9812734127044678e-01</leafValues></_>
        <_>
          <internalNodes>
            0 -1 82 1.8777474761009216e-03</internalNodes>
          <leafValues>
            5.8068186044692993e-01 -1.1499030888080597e-01</leafValues></_>
        <_>
          <internalNodes>
            0 -1 16 3.0300606042146683e-02</internalNodes>
          <leafValues>
            -1.9109466671943665e-01 4.7408491373062134e-01</leafValues></_>
        <_>
          <internalNodes>
            0 -1 18 8.8196909055113792e-03</internalNodes>
          <leafValues>
            2.3822245001792908e-01 -3.1468543410301208e-01</leafValues></_>
        <_>
          <internalNodes>
            0 -1 118 8.4612146019935608e-04</internalNodes>
          <leafValues>
            -8.0173438787460327e-01 9.3607991933822632e-02</leafValues></_>
        <_>
          <internalNodes>
            0 -1 138 8.0242175608873367e-03</internalNodes>
          <leafValues>
            5.5511510372161865e-01 -1.8900577723979950e-01</leafValues></_>
        <_>
          <internalNodes>
            0 -1 69 2.3111309856176376e-03</internalNodes>
          <leafValues>
            3.8330635428428650e-01 -2.1877454221248627e-01</leafValues></_>
        <_>
          <internalNodes>
            0 -1 11 1.1150863720104098e-03</internalNodes>
          <leafValues>
            -4.1329300403594971e-01 2.1304640173912048e-01</leafValues></_>
        <_>
          <internalNodes>
            0 -1 22 8.0477762967348099e-03</internalNodes>
          <leafValues>
            3.0162245035171509e-01 -2.9483258724212646e-01</leafValues></_>
        <_>
          <internalNodes>
            0 -1 100 5.2926518023014069e-02</internalNodes>
          <leafValues>
            1.5685896575450897e-01 -6.2931942939758301e-01</leafValues></_>
        <_>
          <internalNodes>
            0 -1 111 1.9516222178936005e-02</internalNodes>
          <leafValues>
            -4.0487775206565857e-01 2.6418873667716980e-01</leafValues></_>
        <_>
          <internalNodes>
            0 -1 6 6.6042700782418251e-03</internalNodes>
          <leafValues>
            3.0127525329589844e-01 -3.0933108925819397e-01</leafValues></_></weakClassifiers></_>
    <!-- stage 16 -->
    <_>
      <maxWeakCount>9</maxWeakCount>
      <stageThreshold>3.4999758005142212e-02</stageThreshold>
      <weakClassifiers>
        <_>
          <internalNodes>
            0 -1 102 1.2783795595169067e-01</internalNodes>
          <leafValues>
            6.5322577953338623e-01 -5.3846156597137451e-01</leafValues></_>
        <_>
          <internalNodes>
            0 -1 150 2.9037924483418465e-02</internalNodes>
          <leafValues>
            -2.4491371214389801e-01 4.2579773068428040e-01</leafValues></_>
        <_>
          <internalNodes>
            0 -1 73 4.9701996147632599e-02</internalNodes>
          <leafValues>
            -1.9010528922080994e-01 5.7713818550109863e-01</leafValues></_>
        <_>
          <internalNodes>
            0 -1 116 3.4505246730986983e-05</internalNodes>
          <leafValues>
            -7.8532516956329346e-01 1.6909052431583405e-01</leafValues></_>
        <_>
          <internalNodes>
            0 -1 133 5.8198748156428337e-03</internalNodes>
          <leafValues>
            5.0174808502197266e-01 -3.0314710736274719e-01</leafValues></_>
        <_>
          <internalNodes>
            0 -1 119 7.8495196998119354e-02</internalNodes>
          <leafValues>
            -2.0511722564697266e-01 7.3176574707031250e-01</leafValues></_>
        <_>
          <internalNodes>
            0 -1 143 6.8322955630719662e-03</internalNodes>
          <leafValues>
            -5.1116091012954712e-01 2.8423005342483521e-01</leafValues></_>
        <_>
          <internalNodes>
            0 -1 63 9.8341265693306923e-03</internalNodes>
          <leafValues>
            4.4176098704338074e-01 -3.1442582607269287e-01</leafValues></_>
        <_>
          <internalNodes>
            0 -1 141 5.6074306368827820e-02</internalNodes>
          <leafValues>
            -2.4255973100662231e-01 4.6036261320114136e-01</leafValues></_></weakClassifiers></_></stages>
  <features>
    <_>
      <rect>
        0 0 8 8 9</rect></_>
    <_>
      <rect>
        0 0 8 8 22</rect></_>
    <_>
      <rect>
        0 4 8 8 0</rect></_>
    <_>
      <rect>
        0 4 8 8 10</rect></_>
    <_>
      <rect>
        0 4 8 8 28</rect></_>
    <_>
      <rect>
        0 8 8 8 13</rect></_>
    <_>
      <rect>
        0 12 8 8 24</rect></_>
    <_>
      <rect>
        0 16 8 8 2</rect></_>
    <_>
      <rect>
        0 20 8 8 4</rect></_>
    <_>
      <rect>
        0 20 8 8 5</rect></_>
    <_>
      <rect>
        0 20 8 8 9</rect></_>
    <_>
      <rect>
        0 20 8 8 12</rect></_>
    <_>
      <rect>
        0 20 8 8 35</rect></_>
    <_>
      <rect>
        0 24 8 8 1</rect></_>
    <_>
      <rect>
        0 24 8 8 5</rect></_>
    <_>
      <rect>
        0 24 8 8 34</rect></_>
    <_>
      <rect>
        0 28 8 8 23</rect></_>
    <_>
      <rect>
        0 28 8 8 24</rect></_>
    <_>
      <rect>
        0 28 8 8 29</rect></_>
    <_>
      <rect>
        0 28 8 8 34</rect></_>
    <_>
      <rect>
        4 0 8 8 2</rect></_>
    <_>
      <rect>
        4 0 8 8 3</rect></_>
    <_>
      <rect>
        4 0 8 8 5</rect></_>
    <_>
      <rect>
        4 0 8 8 7</rect></_>
    <_>
      <rect>
        4 0 8 8 8</rect></_>
    <_>
      <rect>
        4 0 8 8 18</rect></_>
    <_>
      <rect>
        4 4 8 8 11</rect></_>
    <_>
      <rect>
        4 8 8 8 13</rect></_>
    <_>
      <rect>
        4 12 8 8 30</rect></_>
    <_>
      <rect>
        4 12 8 8 33</rect></_>
    <_>
      <rect>
        4 16 8 8 0</rect></_>
    <_>
      <rect>
        4 16 8 8 22</rect></_>
    <_>
      <rect>
        4 24 8 8 21</rect></_>
    <_>
      <rect>
        4 24 8 8 24</rect></_>
    <_>
      <rect>
        4 28 8 8 4</rect></_>
    <_>
      <rect>
        4 28 8 8 25</rect></_>
    <_>
      <rect>
        8 0 8 8 0</rect></_>
    <_>
      <rect>
        8 0 8 8 8</rect></_>
    <_>
      <rect>
        8 0 8 8 14</rect></_>
    <_>
      <rect>
        8 0 8 8 18</rect></_>
    <_>
      <rect>
        8 8 8 8 4</rect></_>
    <_>
      <rect>
        8 8 8 8 14</rect></_>
    <_>
      <rect>
        8 12 8 8 12</rect></_>
    <_>
      <rect>
        8 12 8 8 27</rect></_>
    <_>
      <rect>
        8 20 8 8 22</rect></_>
    <_>
      <rect>
        8 20 8 8 25</rect></_>
    <_>
      <rect>
        8 24 8 8 6</rect></_>
    <_>
      <rect>
        8 28 8 8 22</rect></_>
    <_>
      <rect>
        8 28 8 8 26</rect></_>
    <_>
      <rect>
        8 28 8 8 27</rect></_>
    <_>
      <rect>
        8 28 8 8 30</rect></_>
    <_>
      <rect>
        8 28 8 8 35</rect></_>
    <_>
      <rect>
        12 0 8 8 8</rect></_>
    <_>
      <rect>
        12 0 8 8 11</rect></_>
    <_>
      <rect>
        12 0 8 8 34</rect></_>
    <_>
      <rect>
        12 4 8 8 31</rect></_>
    <_>
      <rect>
        12 8 8 8 0</rect></_>
    <_>
      <rect>
        12 8 8 8 31</rect></_>
    <_>
      <rect>
        12 8 8 8 32</rect></_>
    <_>
      <rect>
        12 12 8 8 13</rect></_>
    <_>
      <rect>
        12 16 8 8 31</rect></_>
    <_>
      <rect>
        12 20 8 8 18</rect></_>
    <_>
      <rect>
        12 20 8 8 31</rect></_>
    <_>
      <rect>
        12 24 8 8 9</rect></_>
    <_>
      <rect>
        12 24 8 8 31</rect></_>
    <_>
      <rect>
        12 28 8 8 13</rect></_>
    <_>
      <rect>
        12 28 8 8 29</rect></_>
    <_>
      <rect>
        12 28 8 8 30</rect></_>
    <_>
      <rect>
        12 28 8 8 32</rect></_>
    <_>
      <rect>
        12 28 8 8 34</rect></_>
    <_>
      <rect>
        16 0 8 8 4</rect></_>
    <_>
      <rect>
        16 0 8 8 5</rect></_>
    <_>
      <rect>
        16 0 8 8 10</rect></_>
    <_>
      <rect>
        16 4 8 8 6</rect></_>
    <_>
      <rect>
        16 4 8 8 27</rect></_>
    <_>
      <rect>
        16 4 8 8 33</rect></_>
    <_>
      <rect>
        16 8 8 8 4</rect></_>
    <_>
      <rect>
        16 8 8 8 13</rect></_>
    <_>
      <rect>
        16 8 8 8 33</rect></_>
    <_>
      <rect>
        16 12 8 8 9</rect></_>
    <_>
      <rect>
        16 16 8 8 4</rect></_>
    <_>
      <rect>
        16 16 8 8 34</rect></_>
    <_>
      <rect>
        16 20 8 8 15</rect></_>
    <_>
      <rect>
        16 20 8 8 28</rect></_>
    <_>
      <rect>
        16 24 8 8 9</rect></_>
    <_>
      <rect>
        16 24 8 8 31</rect></_>
    <_>
      <rect>
        16 28 8 8 18</rect></_>
    <_>
      <rect>
        16 28 8 8 20</rect></_>
    <_>
      <rect>
        16 28 8 8 33</rect></_>
    <_>
      <rect>
        0 0 8 16 22</rect></_>
    <_>
      <rect>
        0 0 8 16 24</rect></_>
    <_>
      <rect>
        0 0 8 16 30</rect></_>
    <_>
      <rect>
        0 8 8 16 4</rect></_>
    <_>
      <rect>
        0 8 8 16 7</rect></_>
    <_>
      <rect>
        0 8 8 16 30</rect></_>
    <_>
      <rect>
        0 12 8 16 2</rect></_>
    <_>
      <rect>
        0 12 8 16 4</rect></_>
    <_>
      <rect>
        0 12 8 16 16</rect></_>
    <_>
      <rect>
        0 12 8 16 20</rect></_>
    <_>
      <rect>
        0 12 8 16 28</rect></_>
    <_>
      <rect>
        0 12 8 16 30</rect></_>
    <_>
      <rect>
        4 0 8 16 14</rect></_>
    <_>
      <rect>
        4 0 8 16 17</rect></_>
    <_>
      <rect>
        4 0 8 16 19</rect></_>
    <_>
      <rect>
        4 0 8 16 22</rect></_>
    <_>
      <rect>
        4 0 8 16 26</rect></_>
    <_>
      <rect>
        4 4 8 16 22</rect></_>
    <_>
      <rect>
        4 8 8 16 8</rect></_>
    <_>
      <rect>
        4 8 8 16 21</rect></_>
    <_>
      <rect>
        4 8 8 16 26</rect></_>
    <_>
      <rect>
        4 12 8 16 5</rect></_>
    <_>
      <rect>
        4 12 8 16 22</rect></_>
    <_>
      <rect>
        8 0 8 16 17</rect></_>
    <_>
      <rect>
        12 8 8 16 14</rect></_>
    <_>
      <rect>
        12 8 8 16 17</rect></_>
    <_>
      <rect>
        12 12 8 16 3</rect></_>
    <_>
      <rect>
        12 12 8 16 11</rect></_>
    <_>
      <rect>
        12 12 8 16 13</rect></_>
    <_>
      <rect>
        12 12 8 16 20</rect></_>
    <_>
      <rect>
        16 0 8 16 4</rect></_>
    <_>
      <rect>
        16 0 8 16 27</rect></_>
    <_>
      <rect>
        16 4 8 16 6</rect></_>
    <_>
      <rect>
        16 12 8 16 11</rect></_>
    <_>
      <rect>
        16 12 8 16 27</rect></_>
    <_>
      <rect>
        16 12 8 16 28</rect></_>
    <_>
      <rect>
        16 12 8 16 33</rect></_>
    <_>
      <rect>
        16 12 8 16 35</rect></_>
    <_>
      <rect>
        0 0 16 8 3</rect></_>
    <_>
      <rect>
        0 0 16 8 8</rect></_>
    <_>
      <rect>
        0 0 16 8 9</rect></_>
    <_>
      <rect>
        0 0 16 8 11</rect></_>
    <_>
      <rect>
        0 0 16 8 13</rect></_>
    <_>
      <rect>
        0 0 16 8 15</rect></_>
    <_>
      <rect>
        0 0 16 8 32</rect></_>
    <_>
      <rect>
        0 0 16 8 34</rect></_>
    <_>
      <rect>
        0 4 16 8 17</rect></_>
    <_>
      <rect>
        0 12 16 8 9</rect></_>
    <_>
      <rect>
        0 16 16 8 25</rect></_>
    <_>
      <rect>
        0 24 16 8 22</rect></_>
    <_>
      <rect>
        0 24 16 8 28</rect></_>
    <_>
      <rect>
        0 28 16 8 21</rect></_>
    <_>
      <rect>
        0 28 16 8 22</rect></_>
    <_>
      <rect>
        0 28 16 8 23</rect></_>
    <_>
      <rect>
        0 28 16 8 28</rect></_>
    <_>
      <rect>
        0 28 16 8 29</rect></_>
    <_>
      <rect>
        0 28 16 8 30</rect></_>
    <_>
      <rect>
        0 0 16 16 16</rect></_>
    <_>
      <rect>
        0 0 16 16 19</rect></_>
    <_>
      <rect>
        0 4 16 16 25</rect></_>
    <_>
      <rect>
        0 8 16 16 8</rect></_>
    <_>
      <rect>
        0 8 16 16 35</rect></_>
    <_>
      <rect>
        0 12 16 16 21</rect></_>
    <_>
      <rect>
        0 12 16 16 30</rect></_></features></cascade>
</opencv_storage>
