<?xml version="1.0"?>
<opencv_storage>
<!-- Created using Computer Vision System Toolbox(tm) for MATLAB(R) -->
<!-- Version 9.5.0.1033004 (R2018b) Update 2 -->
<!-- Compatible with OpenCV 3.4 -->
<cascade>
  <stageType>BOOST</stageType>
  <featureType>HOG</featureType>
  <height>46</height>
  <width>32</width>
  <stageParams>
    <boostType>GAB</boostType>
    <minHitRate>9.9500000476837158e-01</minHitRate>
    <maxFalseAlarm>5.0000000000000000e-01</maxFalseAlarm>
    <weightTrimRate>9.4999999999999996e-01</weightTrimRate>
    <maxDepth>1</maxDepth>
    <maxWeakCount>100</maxWeakCount></stageParams>
  <featureParams>
    <maxCatCount>0</maxCatCount>
    <featSize>36</featSize></featureParams>
  <stageNum>10</stageNum>
  <stages>
    <!-- stage 0 -->
    <_>
      <maxWeakCount>11</maxWeakCount>
      <stageThreshold>-2.0265765190124512e+00</stageThreshold>
      <weakClassifiers>
        <_>
          <internalNodes>
            0 -1 232 1.0279408656060696e-02</internalNodes>
          <leafValues>
            3.7114143371582031e-01 -7.6120918989181519e-01</leafValues></_>
        <_>
          <internalNodes>
            0 -1 125 1.2969925999641418e-02</internalNodes>
          <leafValues>
            3.7158727645874023e-01 -6.7665368318557739e-01</leafValues></_>
        <_>
          <internalNodes>
            0 -1 205 1.3643632642924786e-02</internalNodes>
          <leafValues>
            3.6048954725265503e-01 -5.2992886304855347e-01</leafValues></_>
        <_>
          <internalNodes>
            0 -1 359 3.9077993482351303e-02</internalNodes>
          <leafValues>
            -4.9686634540557861e-01 3.1806573271751404e-01</leafValues></_>
        <_>
          <internalNodes>
            0 -1 224 7.2063528932631016e-03</internalNodes>
          <leafValues>
            -5.5790835618972778e-01 2.6516690850257874e-01</leafValues></_>
        <_>
          <internalNodes>
            0 -1 214 4.8251245170831680e-02</internalNodes>
          <leafValues>
            -1.9256927073001862e-01 4.9072635173797607e-01</leafValues></_>
        <_>
          <internalNodes>
            0 -1 64 1.3052975758910179e-02</internalNodes>
          <leafValues>
            2.5724574923515320e-01 -3.8793665170669556e-01</leafValues></_>
        <_>
          <internalNodes>
            0 -1 55 1.8339574337005615e-02</internalNodes>
          <leafValues>
            1.9982816278934479e-01 -3.2668861746788025e-01</leafValues></_>
        <_>
          <internalNodes>
            0 -1 358 3.5790153779089451e-03</internalNodes>
          <leafValues>
            -7.1787118911743164e-01 1.1646498739719391e-01</leafValues></_>
        <_>
          <internalNodes>
            0 -1 197 1.1028449051082134e-02</internalNodes>
          <leafValues>
            2.0087678730487823e-01 -3.4818330407142639e-01</leafValues></_>
        <_>
          <internalNodes>
            0 -1 169 1.9899601466022432e-04</internalNodes>
          <leafValues>
            -7.4149113893508911e-01 7.9471804201602936e-02</leafValues></_></weakClassifiers></_>
    <!-- stage 1 -->
    <_>
      <maxWeakCount>15</maxWeakCount>
      <stageThreshold>-1.9397799968719482e+00</stageThreshold>
      <weakClassifiers>
        <_>
          <internalNodes>
            0 -1 359 9.8380297422409058e-02</internalNodes>
          <leafValues>
            -6.4074450731277466e-01 4.1657596826553345e-01</leafValues></_>
        <_>
          <internalNodes>
            0 -1 255 3.5454533994197845e-02</internalNodes>
          <leafValues>
            -3.9701777696609497e-01 4.3704265356063843e-01</leafValues></_>
        <_>
          <internalNodes>
            0 -1 34 1.7704393714666367e-02</internalNodes>
          <leafValues>
            2.6791909337043762e-01 -6.2484800815582275e-01</leafValues></_>
        <_>
          <internalNodes>
            0 -1 203 1.5752064064145088e-02</internalNodes>
          <leafValues>
            2.4276101589202881e-01 -4.6947374939918518e-01</leafValues></_>
        <_>
          <internalNodes>
            0 -1 162 1.2534927407159557e-07</internalNodes>
          <leafValues>
            -7.8770285844802856e-01 2.0339769124984741e-01</leafValues></_>
        <_>
          <internalNodes>
            0 -1 89 2.0527891814708710e-02</internalNodes>
          <leafValues>
            2.3751613497734070e-01 -5.2921682596206665e-01</leafValues></_>
        <_>
          <internalNodes>
            0 -1 317 4.1859604418277740e-02</internalNodes>
          <leafValues>
            -2.4428963661193848e-01 4.3348291516304016e-01</leafValues></_>
        <_>
          <internalNodes>
            0 -1 199 1.0841173119843006e-02</internalNodes>
          <leafValues>
            2.8286415338516235e-01 -3.0061343312263489e-01</leafValues></_>
        <_>
          <internalNodes>
            0 -1 129 2.1689697168767452e-03</internalNodes>
          <leafValues>
            -8.3333688974380493e-01 1.3435131311416626e-01</leafValues></_>
        <_>
          <internalNodes>
            0 -1 86 6.1367712914943695e-02</internalNodes>
          <leafValues>
            -2.1106548607349396e-01 4.5508199930191040e-01</leafValues></_>
        <_>
          <internalNodes>
            0 -1 351 1.7572840675711632e-02</internalNodes>
          <leafValues>
            1.6471217572689056e-01 -4.6603685617446899e-01</leafValues></_>
        <_>
          <internalNodes>
            0 -1 52 9.4939226983115077e-05</internalNodes>
          <leafValues>
            -7.3083680868148804e-01 1.1081919819116592e-01</leafValues></_>
        <_>
          <internalNodes>
            0 -1 64 9.6702445298433304e-03</internalNodes>
          <leafValues>
            2.1723553538322449e-01 -2.8470957279205322e-01</leafValues></_>
        <_>
          <internalNodes>
            0 -1 94 1.5306018292903900e-02</internalNodes>
          <leafValues>
            2.2208018600940704e-01 -3.2675671577453613e-01</leafValues></_>
        <_>
          <internalNodes>
            0 -1 360 1.5448931604623795e-02</internalNodes>
          <leafValues>
            -5.0604206323623657e-01 1.0997770726680756e-01</leafValues></_></weakClassifiers></_>
    <!-- stage 2 -->
    <_>
      <maxWeakCount>26</maxWeakCount>
      <stageThreshold>-2.0372824668884277e+00</stageThreshold>
      <weakClassifiers>
        <_>
          <internalNodes>
            0 -1 359 7.6220735907554626e-02</internalNodes>
          <leafValues>
            -6.7285382747650146e-01 2.2901405394077301e-01</leafValues></_>
        <_>
          <internalNodes>
            0 -1 125 7.7087488025426865e-03</internalNodes>
          <leafValues>
            2.3176412284374237e-01 -4.5611569285392761e-01</leafValues></_>
        <_>
          <internalNodes>
            0 -1 196 8.9051853865385056e-03</internalNodes>
          <leafValues>
            3.0247458815574646e-01 -3.9080271124839783e-01</leafValues></_>
        <_>
          <internalNodes>
            0 -1 359 1.5069773420691490e-02</internalNodes>
          <leafValues>
            -6.1976420879364014e-01 1.8932965397834778e-01</leafValues></_>
        <_>
          <internalNodes>
            0 -1 224 1.0601021349430084e-02</internalNodes>
          <leafValues>
            -4.8946142196655273e-01 2.1967886388301849e-01</leafValues></_>
        <_>
          <internalNodes>
            0 -1 242 1.4475230127573013e-02</internalNodes>
          <leafValues>
            1.8562731146812439e-01 -5.1343107223510742e-01</leafValues></_>
        <_>
          <internalNodes>
            0 -1 347 1.4604534022510052e-02</internalNodes>
          <leafValues>
            -3.5874596238136292e-01 2.5390231609344482e-01</leafValues></_>
        <_>
          <internalNodes>
            0 -1 209 1.0746742598712444e-02</internalNodes>
          <leafValues>
            2.3468412458896637e-01 -3.2110473513603210e-01</leafValues></_>
        <_>
          <internalNodes>
            0 -1 309 6.0437198728322983e-02</internalNodes>
          <leafValues>
            1.3502472639083862e-01 -5.7223707437515259e-01</leafValues></_>
        <_>
          <internalNodes>
            0 -1 351 2.4382416158914566e-02</internalNodes>
          <leafValues>
            8.7636664509773254e-02 -6.2959122657775879e-01</leafValues></_>
        <_>
          <internalNodes>
            0 -1 169 1.6675461665727198e-04</internalNodes>
          <leafValues>
            -7.6522320508956909e-01 7.1873746812343597e-02</leafValues></_>
        <_>
          <internalNodes>
            0 -1 65 1.0682011023163795e-02</internalNodes>
          <leafValues>
            1.7569261789321899e-01 -3.4422612190246582e-01</leafValues></_>
        <_>
          <internalNodes>
            0 -1 172 2.1356020122766495e-02</internalNodes>
          <leafValues>
            1.2005309760570526e-01 -4.6444448828697205e-01</leafValues></_>
        <_>
          <internalNodes>
            0 -1 344 5.7687270455062389e-03</internalNodes>
          <leafValues>
            -4.9238562583923340e-01 9.9090188741683960e-02</leafValues></_>
        <_>
          <internalNodes>
            0 -1 245 2.1200396120548248e-02</internalNodes>
          <leafValues>
            1.1031304299831390e-01 -4.3621513247489929e-01</leafValues></_>
        <_>
          <internalNodes>
            0 -1 12 2.3992045316845179e-04</internalNodes>
          <leafValues>
            -7.8555721044540405e-01 5.3969461470842361e-02</leafValues></_>
        <_>
          <internalNodes>
            0 -1 158 7.8942961990833282e-03</internalNodes>
          <leafValues>
            2.1714286506175995e-01 -2.1537959575653076e-01</leafValues></_>
        <_>
          <internalNodes>
            0 -1 236 5.5802889168262482e-02</internalNodes>
          <leafValues>
            6.5350279211997986e-02 -6.4246159791946411e-01</leafValues></_>
        <_>
          <internalNodes>
            0 -1 54 9.9215265363454819e-03</internalNodes>
          <leafValues>
            1.5960030257701874e-01 -2.6410588622093201e-01</leafValues></_>
        <_>
          <internalNodes>
            0 -1 181 1.2053232640028000e-02</internalNodes>
          <leafValues>
            -3.1000447273254395e-01 1.4311259984970093e-01</leafValues></_>
        <_>
          <internalNodes>
            0 -1 316 7.7608346939086914e-02</internalNodes>
          <leafValues>
            7.4424721300601959e-02 -6.2938332557678223e-01</leafValues></_>
        <_>
          <internalNodes>
            0 -1 197 1.2781054712831974e-02</internalNodes>
          <leafValues>
            1.3196937739849091e-01 -3.3665102720260620e-01</leafValues></_>
        <_>
          <internalNodes>
            0 -1 42 1.6629992751404643e-04</internalNodes>
          <leafValues>
            -4.5478412508964539e-01 8.1283397972583771e-02</leafValues></_>
        <_>
          <internalNodes>
            0 -1 74 9.8849739879369736e-03</internalNodes>
          <leafValues>
            1.4624294638633728e-01 -2.0566122233867645e-01</leafValues></_>
        <_>
          <internalNodes>
            0 -1 128 1.7898681107908487e-04</internalNodes>
          <leafValues>
            -5.9748017787933350e-01 5.4148156195878983e-02</leafValues></_>
        <_>
          <internalNodes>
            0 -1 366 1.0987045243382454e-02</internalNodes>
          <leafValues>
            -3.7693771719932556e-01 6.7886255681514740e-02</leafValues></_></weakClassifiers></_>
    <!-- stage 3 -->
    <_>
      <maxWeakCount>43</maxWeakCount>
      <stageThreshold>-2.1007461547851563e+00</stageThreshold>
      <weakClassifiers>
        <_>
          <internalNodes>
            0 -1 232 5.8045331388711929e-03</internalNodes>
          <leafValues>
            1.2321386486291885e-01 -6.2035197019577026e-01</leafValues></_>
        <_>
          <internalNodes>
            0 -1 90 8.7656415998935699e-03</internalNodes>
          <leafValues>
            2.5021150708198547e-01 -5.4285216331481934e-01</leafValues></_>
        <_>
          <internalNodes>
            0 -1 193 8.1674782559275627e-03</internalNodes>
          <leafValues>
            2.6438254117965698e-01 -3.1626647710800171e-01</leafValues></_>
        <_>
          <internalNodes>
            0 -1 214 3.3618275076150894e-02</internalNodes>
          <leafValues>
            -1.9878552854061127e-01 3.9084872603416443e-01</leafValues></_>
        <_>
          <internalNodes>
            0 -1 28 1.2195403687655926e-02</internalNodes>
          <leafValues>
            1.9266192615032196e-01 -3.7630218267440796e-01</leafValues></_>
        <_>
          <internalNodes>
            0 -1 309 5.1289312541484833e-02</internalNodes>
          <leafValues>
            1.7528559267520905e-01 -5.8988386392593384e-01</leafValues></_>
        <_>
          <internalNodes>
            0 -1 359 4.4921770691871643e-02</internalNodes>
          <leafValues>
            -4.2295047640800476e-01 1.8020203709602356e-01</leafValues></_>
        <_>
          <internalNodes>
            0 -1 89 1.0955879464745522e-02</internalNodes>
          <leafValues>
            2.2112934291362762e-01 -2.4988894164562225e-01</leafValues></_>
        <_>
          <internalNodes>
            0 -1 285 1.8180552870035172e-02</internalNodes>
          <leafValues>
            1.1725709587335587e-01 -4.1961970925331116e-01</leafValues></_>
        <_>
          <internalNodes>
            0 -1 9 4.3364879675209522e-03</internalNodes>
          <leafValues>
            -5.6594759225845337e-01 7.8902557492256165e-02</leafValues></_>
        <_>
          <internalNodes>
            0 -1 203 1.6718715429306030e-02</internalNodes>
          <leafValues>
            1.5460194647312164e-01 -3.2923045754432678e-01</leafValues></_>
        <_>
          <internalNodes>
            0 -1 97 7.5944252312183380e-03</internalNodes>
          <leafValues>
            1.7171078920364380e-01 -2.4505168199539185e-01</leafValues></_>
        <_>
          <internalNodes>
            0 -1 347 1.9899755716323853e-03</internalNodes>
          <leafValues>
            -5.4242801666259766e-01 7.6460137963294983e-02</leafValues></_>
        <_>
          <internalNodes>
            0 -1 318 5.4694060236215591e-03</internalNodes>
          <leafValues>
            -6.0014271736145020e-01 5.3702890872955322e-02</leafValues></_>
        <_>
          <internalNodes>
            0 -1 353 1.5725698322057724e-03</internalNodes>
          <leafValues>
            -7.2835248708724976e-01 3.6440674215555191e-02</leafValues></_>
        <_>
          <internalNodes>
            0 -1 70 6.9763539358973503e-03</internalNodes>
          <leafValues>
            1.5242667496204376e-01 -2.5211754441261292e-01</leafValues></_>
        <_>
          <internalNodes>
            0 -1 7 2.1611802279949188e-02</internalNodes>
          <leafValues>
            9.8927475512027740e-02 -3.3649912476539612e-01</leafValues></_>
        <_>
          <internalNodes>
            0 -1 19 6.0653950640698895e-05</internalNodes>
          <leafValues>
            -6.2993770837783813e-01 4.4259175658226013e-02</leafValues></_>
        <_>
          <internalNodes>
            0 -1 147 7.1216188371181488e-03</internalNodes>
          <leafValues>
            1.3730125129222870e-01 -2.0012801885604858e-01</leafValues></_>
        <_>
          <internalNodes>
            0 -1 369 8.0631459131836891e-03</internalNodes>
          <leafValues>
            -3.5552957653999329e-01 9.9340796470642090e-02</leafValues></_>
        <_>
          <internalNodes>
            0 -1 246 3.4160465002059937e-02</internalNodes>
          <leafValues>
            7.1301974356174469e-02 -4.4173675775527954e-01</leafValues></_>
        <_>
          <internalNodes>
            0 -1 351 2.8812579810619354e-02</internalNodes>
          <leafValues>
            4.5379702001810074e-02 -5.3904044628143311e-01</leafValues></_>
        <_>
          <internalNodes>
            0 -1 316 3.7138275802135468e-02</internalNodes>
          <leafValues>
            9.2147603631019592e-02 -3.1968462467193604e-01</leafValues></_>
        <_>
          <internalNodes>
            0 -1 181 9.5307137817144394e-03</internalNodes>
          <leafValues>
            -3.1734952330589294e-01 1.1631874740123749e-01</leafValues></_>
        <_>
          <internalNodes>
            0 -1 3 3.8512138416990638e-04</internalNodes>
          <leafValues>
            -4.3887344002723694e-01 5.8354973793029785e-02</leafValues></_>
        <_>
          <internalNodes>
            0 -1 76 1.0560178197920322e-02</internalNodes>
          <leafValues>
            1.2853126227855682e-01 -2.2707694768905640e-01</leafValues></_>
        <_>
          <internalNodes>
            0 -1 160 8.9034298434853554e-03</internalNodes>
          <leafValues>
            2.2856412827968597e-01 -1.4042584598064423e-01</leafValues></_>
        <_>
          <internalNodes>
            0 -1 373 1.2552535161375999e-02</internalNodes>
          <leafValues>
            -3.5349550843238831e-01 7.4782565236091614e-02</leafValues></_>
        <_>
          <internalNodes>
            0 -1 113 5.2343904972076416e-03</internalNodes>
          <leafValues>
            1.6866818070411682e-01 -1.4854890108108521e-01</leafValues></_>
        <_>
          <internalNodes>
            0 -1 368 1.1930360924452543e-03</internalNodes>
          <leafValues>
            -5.3026515245437622e-01 4.2212434113025665e-02</leafValues></_>
        <_>
          <internalNodes>
            0 -1 236 4.8075873404741287e-02</internalNodes>
          <leafValues>
            4.5085176825523376e-02 -4.8718279600143433e-01</leafValues></_>
        <_>
          <internalNodes>
            0 -1 354 2.2936601191759109e-02</internalNodes>
          <leafValues>
            -2.0177055895328522e-01 1.0588597506284714e-01</leafValues></_>
        <_>
          <internalNodes>
            0 -1 222 6.1687719076871872e-02</internalNodes>
          <leafValues>
            5.2830908447504044e-02 -4.5384970307350159e-01</leafValues></_>
        <_>
          <internalNodes>
            0 -1 265 8.8246613740921021e-02</internalNodes>
          <leafValues>
            -4.8811294138431549e-02 4.5901131629943848e-01</leafValues></_>
        <_>
          <internalNodes>
            0 -1 206 7.3636667802929878e-03</internalNodes>
          <leafValues>
            1.6844047605991364e-01 -1.1935706436634064e-01</leafValues></_>
        <_>
          <internalNodes>
            0 -1 336 3.2126199454069138e-02</internalNodes>
          <leafValues>
            -7.8195489943027496e-02 2.5471550226211548e-01</leafValues></_>
        <_>
          <internalNodes>
            0 -1 350 9.7069181501865387e-03</internalNodes>
          <leafValues>
            -2.4700988829135895e-01 7.7233284711837769e-02</leafValues></_>
        <_>
          <internalNodes>
            0 -1 4 1.5909931063652039e-01</internalNodes>
          <leafValues>
            2.4664239957928658e-02 -7.6482295989990234e-01</leafValues></_>
        <_>
          <internalNodes>
            0 -1 229 4.0765102952718735e-02</internalNodes>
          <leafValues>
            3.2680410891771317e-02 -4.6285590529441833e-01</leafValues></_>
        <_>
          <internalNodes>
            0 -1 170 1.6486264765262604e-02</internalNodes>
          <leafValues>
            8.4258638322353363e-02 -2.0737639069557190e-01</leafValues></_>
        <_>
          <internalNodes>
            0 -1 187 2.0353896543383598e-02</internalNodes>
          <leafValues>
            1.2767513096332550e-01 -1.6900642216205597e-01</leafValues></_>
        <_>
          <internalNodes>
            0 -1 124 3.6104179918766022e-02</internalNodes>
          <leafValues>
            4.3346747756004333e-02 -4.3653097748756409e-01</leafValues></_>
        <_>
          <internalNodes>
            0 -1 175 2.6344603975303471e-04</internalNodes>
          <leafValues>
            -4.3950617313385010e-01 3.4334138035774231e-02</leafValues></_></weakClassifiers></_>
    <!-- stage 4 -->
    <_>
      <maxWeakCount>69</maxWeakCount>
      <stageThreshold>-2.0932939052581787e+00</stageThreshold>
      <weakClassifiers>
        <_>
          <internalNodes>
            0 -1 359 1.2181252241134644e-01</internalNodes>
          <leafValues>
            -5.5613917112350464e-01 1.5923936665058136e-01</leafValues></_>
        <_>
          <internalNodes>
            0 -1 125 1.3092288747429848e-02</internalNodes>
          <leafValues>
            1.9742795825004578e-01 -5.3086751699447632e-01</leafValues></_>
        <_>
          <internalNodes>
            0 -1 231 7.9228989779949188e-03</internalNodes>
          <leafValues>
            1.9396029412746429e-01 -3.9057511091232300e-01</leafValues></_>
        <_>
          <internalNodes>
            0 -1 46 3.7164308130741119e-02</internalNodes>
          <leafValues>
            -2.1307185292243958e-01 3.5415381193161011e-01</leafValues></_>
        <_>
          <internalNodes>
            0 -1 189 6.5885498188436031e-03</internalNodes>
          <leafValues>
            2.9307842254638672e-01 -2.3750089108943939e-01</leafValues></_>
        <_>
          <internalNodes>
            0 -1 317 5.0297074019908905e-02</internalNodes>
          <leafValues>
            -1.3597990572452545e-01 4.3528857827186584e-01</leafValues></_>
        <_>
          <internalNodes>
            0 -1 55 7.2871699929237366e-02</internalNodes>
          <leafValues>
            6.9113627076148987e-02 -6.1935442686080933e-01</leafValues></_>
        <_>
          <internalNodes>
            0 -1 112 7.0271268486976624e-03</internalNodes>
          <leafValues>
            2.0612733066082001e-01 -2.3999147117137909e-01</leafValues></_>
        <_>
          <internalNodes>
            0 -1 354 1.4867333695292473e-02</internalNodes>
          <leafValues>
            -3.6304053664207458e-01 1.0727626085281372e-01</leafValues></_>
        <_>
          <internalNodes>
            0 -1 14 1.1949613690376282e-01</internalNodes>
          <leafValues>
            -1.3252961635589600e-01 3.8140097260475159e-01</leafValues></_>
        <_>
          <internalNodes>
            0 -1 205 1.3394207693636417e-02</internalNodes>
          <leafValues>
            1.4536109566688538e-01 -3.1132173538208008e-01</leafValues></_>
        <_>
          <internalNodes>
            0 -1 371 2.9901335947215557e-03</internalNodes>
          <leafValues>
            -5.4715585708618164e-01 8.0254681408405304e-02</leafValues></_>
        <_>
          <internalNodes>
            0 -1 356 9.1579459607601166e-02</internalNodes>
          <leafValues>
            -9.5310106873512268e-02 5.3752875328063965e-01</leafValues></_>
        <_>
          <internalNodes>
            0 -1 370 4.5331786386668682e-03</internalNodes>
          <leafValues>
            -5.3119826316833496e-01 8.1372924149036407e-02</leafValues></_>
        <_>
          <internalNodes>
            0 -1 165 6.4826095476746559e-03</internalNodes>
          <leafValues>
            1.7633141577243805e-01 -2.0407408475875854e-01</leafValues></_>
        <_>
          <internalNodes>
            0 -1 180 6.0512858908623457e-04</internalNodes>
          <leafValues>
            -6.0051590204238892e-01 5.0091259181499481e-02</leafValues></_>
        <_>
          <internalNodes>
            0 -1 202 8.9923646301031113e-03</internalNodes>
          <leafValues>
            1.5686374902725220e-01 -2.0106613636016846e-01</leafValues></_>
        <_>
          <internalNodes>
            0 -1 316 6.4551435410976410e-02</internalNodes>
          <leafValues>
            6.9052830338478088e-02 -5.0150322914123535e-01</leafValues></_>
        <_>
          <internalNodes>
            0 -1 183 9.4222202897071838e-03</internalNodes>
          <leafValues>
            1.2651453912258148e-01 -2.1443444490432739e-01</leafValues></_>
        <_>
          <internalNodes>
            0 -1 302 2.1787818986922503e-03</internalNodes>
          <leafValues>
            -5.1382213830947876e-01 5.2079085260629654e-02</leafValues></_>
        <_>
          <internalNodes>
            0 -1 1 7.1411067619919777e-04</internalNodes>
          <leafValues>
            -5.5197620391845703e-01 3.7304814904928207e-02</leafValues></_>
        <_>
          <internalNodes>
            0 -1 121 1.7019618302583694e-02</internalNodes>
          <leafValues>
            1.1866091936826706e-01 -2.1286214888095856e-01</leafValues></_>
        <_>
          <internalNodes>
            0 -1 351 1.7356019467115402e-02</internalNodes>
          <leafValues>
            7.3335781693458557e-02 -2.9432436823844910e-01</leafValues></_>
        <_>
          <internalNodes>
            0 -1 350 6.3609723001718521e-03</internalNodes>
          <leafValues>
            -3.7117740511894226e-01 6.8443559110164642e-02</leafValues></_>
        <_>
          <internalNodes>
            0 -1 64 6.7422473803162575e-03</internalNodes>
          <leafValues>
            1.5911075472831726e-01 -1.6351942718029022e-01</leafValues></_>
        <_>
          <internalNodes>
            0 -1 299 4.5208185911178589e-02</internalNodes>
          <leafValues>
            6.2487140297889709e-02 -3.7158331274986267e-01</leafValues></_>
        <_>
          <internalNodes>
            0 -1 344 4.5201890170574188e-03</internalNodes>
          <leafValues>
            -4.0405926108360291e-01 5.4815631359815598e-02</leafValues></_>
        <_>
          <internalNodes>
            0 -1 79 4.7817160375416279e-03</internalNodes>
          <leafValues>
            1.6276916861534119e-01 -1.3636548817157745e-01</leafValues></_>
        <_>
          <internalNodes>
            0 -1 55 1.8246458843350410e-02</internalNodes>
          <leafValues>
            1.1008077859878540e-01 -2.1184059977531433e-01</leafValues></_>
        <_>
          <internalNodes>
            0 -1 61 1.3299628335516900e-04</internalNodes>
          <leafValues>
            -5.0526803731918335e-01 4.0217865258455276e-02</leafValues></_>
        <_>
          <internalNodes>
            0 -1 122 6.5385252237319946e-02</internalNodes>
          <leafValues>
            2.1811924874782562e-02 -6.8985980749130249e-01</leafValues></_>
        <_>
          <internalNodes>
            0 -1 177 8.7925349362194538e-04</internalNodes>
          <leafValues>
            -3.2621264457702637e-01 4.6145334839820862e-02</leafValues></_>
        <_>
          <internalNodes>
            0 -1 92 8.9864637702703476e-03</internalNodes>
          <leafValues>
            1.0898385941982269e-01 -1.6870239377021790e-01</leafValues></_>
        <_>
          <internalNodes>
            0 -1 319 6.3440486788749695e-02</internalNodes>
          <leafValues>
            -4.8887930810451508e-02 3.3180931210517883e-01</leafValues></_>
        <_>
          <internalNodes>
            0 -1 160 1.9581999629735947e-02</internalNodes>
          <leafValues>
            1.1395514011383057e-01 -1.3876187801361084e-01</leafValues></_>
        <_>
          <internalNodes>
            0 -1 366 1.0561447590589523e-02</internalNodes>
          <leafValues>
            -3.7674984335899353e-01 5.2904136478900909e-02</leafValues></_>
        <_>
          <internalNodes>
            0 -1 109 7.3805926367640495e-03</internalNodes>
          <leafValues>
            1.2635165452957153e-01 -1.5092061460018158e-01</leafValues></_>
        <_>
          <internalNodes>
            0 -1 174 3.0800872482359409e-03</internalNodes>
          <leafValues>
            -4.5381230115890503e-01 4.1040200740098953e-02</leafValues></_>
        <_>
          <internalNodes>
            0 -1 327 1.0456288873683661e-04</internalNodes>
          <leafValues>
            -4.4218865036964417e-01 3.2779399305582047e-02</leafValues></_>
        <_>
          <internalNodes>
            0 -1 72 2.1495893597602844e-02</internalNodes>
          <leafValues>
            6.2005497515201569e-02 -2.6581764221191406e-01</leafValues></_>
        <_>
          <internalNodes>
            0 -1 224 3.9381921291351318e-02</internalNodes>
          <leafValues>
            -1.0216163098812103e-01 1.5624497830867767e-01</leafValues></_>
        <_>
          <internalNodes>
            0 -1 230 3.1448192894458771e-02</internalNodes>
          <leafValues>
            7.2211258113384247e-02 -2.5848877429962158e-01</leafValues></_>
        <_>
          <internalNodes>
            0 -1 148 4.3933158740401268e-03</internalNodes>
          <leafValues>
            1.5150915086269379e-01 -1.0422704368829727e-01</leafValues></_>
        <_>
          <internalNodes>
            0 -1 159 2.1837226813659072e-04</internalNodes>
          <leafValues>
            -3.9130127429962158e-01 4.2217016220092773e-02</leafValues></_>
        <_>
          <internalNodes>
            0 -1 372 3.0405310913920403e-02</internalNodes>
          <leafValues>
            3.6999378353357315e-02 -3.3970502018928528e-01</leafValues></_>
        <_>
          <internalNodes>
            0 -1 251 5.9627663344144821e-02</internalNodes>
          <leafValues>
            -4.1228290647268295e-02 4.3755438923835754e-01</leafValues></_>
        <_>
          <internalNodes>
            0 -1 108 5.8951815590262413e-03</internalNodes>
          <leafValues>
            1.4723488688468933e-01 -1.0495455563068390e-01</leafValues></_>
        <_>
          <internalNodes>
            0 -1 241 1.5127232763916254e-03</internalNodes>
          <leafValues>
            -5.2022492885589600e-01 2.5346491485834122e-02</leafValues></_>
        <_>
          <internalNodes>
            0 -1 371 1.3916373252868652e-02</internalNodes>
          <leafValues>
            -1.3781861960887909e-01 8.9954949915409088e-02</leafValues></_>
        <_>
          <internalNodes>
            0 -1 208 1.3073847629129887e-02</internalNodes>
          <leafValues>
            1.0887826979160309e-01 -1.7491836845874786e-01</leafValues></_>
        <_>
          <internalNodes>
            0 -1 291 9.3651749193668365e-03</internalNodes>
          <leafValues>
            -1.1842388659715652e-01 1.0834811627864838e-01</leafValues></_>
        <_>
          <internalNodes>
            0 -1 325 7.2280034422874451e-02</internalNodes>
          <leafValues>
            -4.5222647488117218e-02 3.4538933634757996e-01</leafValues></_>
        <_>
          <internalNodes>
            0 -1 173 9.3195289373397827e-02</internalNodes>
          <leafValues>
            3.4577999264001846e-02 -4.0898764133453369e-01</leafValues></_>
        <_>
          <internalNodes>
            0 -1 170 9.1111622750759125e-03</internalNodes>
          <leafValues>
            1.0125713795423508e-01 -1.5196196734905243e-01</leafValues></_>
        <_>
          <internalNodes>
            0 -1 125 1.3242285698652267e-02</internalNodes>
          <leafValues>
            -9.5574401319026947e-02 1.7956960201263428e-01</leafValues></_>
        <_>
          <internalNodes>
            0 -1 125 4.2257398366928101e-02</internalNodes>
          <leafValues>
            4.7181822359561920e-02 -3.2846158742904663e-01</leafValues></_>
        <_>
          <internalNodes>
            0 -1 7 1.5242149122059345e-02</internalNodes>
          <leafValues>
            6.7232474684715271e-02 -1.7852663993835449e-01</leafValues></_>
        <_>
          <internalNodes>
            0 -1 14 2.3905673995614052e-02</internalNodes>
          <leafValues>
            -1.5719161927700043e-01 9.9626347422599792e-02</leafValues></_>
        <_>
          <internalNodes>
            0 -1 5 1.2988840171601623e-04</internalNodes>
          <leafValues>
            -3.6890572309494019e-01 3.2624449580907822e-02</leafValues></_>
        <_>
          <internalNodes>
            0 -1 154 5.2445176988840103e-03</internalNodes>
          <leafValues>
            1.2236807495355606e-01 -9.7536683082580566e-02</leafValues></_>
        <_>
          <internalNodes>
            0 -1 161 8.0808475613594055e-02</internalNodes>
          <leafValues>
            -2.9184686020016670e-02 3.9809527993202209e-01</leafValues></_>
        <_>
          <internalNodes>
            0 -1 236 7.3196493089199066e-02</internalNodes>
          <leafValues>
            2.0283129066228867e-02 -5.8499270677566528e-01</leafValues></_>
        <_>
          <internalNodes>
            0 -1 140 9.1962829232215881e-02</internalNodes>
          <leafValues>
            -2.8244862332940102e-02 4.0956002473831177e-01</leafValues></_>
        <_>
          <internalNodes>
            0 -1 163 1.4499865937978029e-03</internalNodes>
          <leafValues>
            -3.3569097518920898e-01 3.2365269958972931e-02</leafValues></_>
        <_>
          <internalNodes>
            0 -1 204 6.5550506114959717e-03</internalNodes>
          <leafValues>
            8.6222350597381592e-02 -1.1910975724458694e-01</leafValues></_>
        <_>
          <internalNodes>
            0 -1 277 3.9061898860381916e-05</internalNodes>
          <leafValues>
            -7.2771257162094116e-01 1.4388963580131531e-02</leafValues></_>
        <_>
          <internalNodes>
            0 -1 284 6.2150306999683380e-02</internalNodes>
          <leafValues>
            -7.0229940116405487e-02 1.5144570171833038e-01</leafValues></_>
        <_>
          <internalNodes>
            0 -1 318 3.1259912252426147e-01</internalNodes>
          <leafValues>
            -1.7116930335760117e-02 6.6204136610031128e-01</leafValues></_>
        <_>
          <internalNodes>
            0 -1 309 1.1637531220912933e-01</internalNodes>
          <leafValues>
            2.7573183178901672e-02 -4.5947238802909851e-01</leafValues></_></weakClassifiers></_>
    <!-- stage 5 -->
    <_>
      <maxWeakCount>100</maxWeakCount>
      <stageThreshold>-2.0083296298980713e+00</stageThreshold>
      <weakClassifiers>
        <_>
          <internalNodes>
            0 -1 359 1.0390181839466095e-01</internalNodes>
          <leafValues>
            -5.6525027751922607e-01 1.1582143604755402e-02</leafValues></_>
        <_>
          <internalNodes>
            0 -1 264 4.5316228643059731e-03</internalNodes>
          <leafValues>
            2.8513121604919434e-01 -2.9514658451080322e-01</leafValues></_>
        <_>
          <internalNodes>
            0 -1 56 1.1434040963649750e-02</internalNodes>
          <leafValues>
            1.5945318341255188e-01 -4.0127182006835938e-01</leafValues></_>
        <_>
          <internalNodes>
            0 -1 319 3.9703000336885452e-02</internalNodes>
          <leafValues>
            -1.1574858427047729e-01 4.5603078603744507e-01</leafValues></_>
        <_>
          <internalNodes>
            0 -1 203 6.3350270502269268e-03</internalNodes>
          <leafValues>
            2.1693643927574158e-01 -2.3797327280044556e-01</leafValues></_>
        <_>
          <internalNodes>
            0 -1 347 2.1063163876533508e-02</internalNodes>
          <leafValues>
            -2.7586013078689575e-01 2.1771343052387238e-01</leafValues></_>
        <_>
          <internalNodes>
            0 -1 29 1.0315113700926304e-02</internalNodes>
          <leafValues>
            1.3150230050086975e-01 -4.1263130307197571e-01</leafValues></_>
        <_>
          <internalNodes>
            0 -1 309 8.9313119649887085e-02</internalNodes>
          <leafValues>
            6.2219470739364624e-02 -6.6815388202667236e-01</leafValues></_>
        <_>
          <internalNodes>
            0 -1 87 6.7336633801460266e-03</internalNodes>
          <leafValues>
            2.2930060327053070e-01 -1.4543570578098297e-01</leafValues></_>
        <_>
          <internalNodes>
            0 -1 73 8.0960076302289963e-03</internalNodes>
          <leafValues>
            1.6750691831111908e-01 -2.5842070579528809e-01</leafValues></_>
        <_>
          <internalNodes>
            0 -1 369 8.6922813206911087e-03</internalNodes>
          <leafValues>
            -3.4004083275794983e-01 1.0667558014392853e-01</leafValues></_>
        <_>
          <internalNodes>
            0 -1 192 9.2538632452487946e-03</internalNodes>
          <leafValues>
            1.1652530729770660e-01 -2.8467714786529541e-01</leafValues></_>
        <_>
          <internalNodes>
            0 -1 349 3.8142739795148373e-03</internalNodes>
          <leafValues>
            -5.2063667774200439e-01 6.1318390071392059e-02</leafValues></_>
        <_>
          <internalNodes>
            0 -1 130 1.5488719567656517e-02</internalNodes>
          <leafValues>
            1.3059221208095551e-01 -2.4934424459934235e-01</leafValues></_>
        <_>
          <internalNodes>
            0 -1 38 1.3925112783908844e-02</internalNodes>
          <leafValues>
            1.2797716259956360e-01 -2.2214129567146301e-01</leafValues></_>
        <_>
          <internalNodes>
            0 -1 351 2.5822293013334274e-02</internalNodes>
          <leafValues>
            3.7750914692878723e-02 -4.9403774738311768e-01</leafValues></_>
        <_>
          <internalNodes>
            0 -1 305 5.0045270472764969e-03</internalNodes>
          <leafValues>
            -4.9363464117050171e-01 4.9786556512117386e-02</leafValues></_>
        <_>
          <internalNodes>
            0 -1 181 4.8070591874420643e-03</internalNodes>
          <leafValues>
            -3.5075399279594421e-01 6.9718517363071442e-02</leafValues></_>
        <_>
          <internalNodes>
            0 -1 133 7.5354270637035370e-02</internalNodes>
          <leafValues>
            -4.9888011068105698e-02 4.8579356074333191e-01</leafValues></_>
        <_>
          <internalNodes>
            0 -1 142 6.1692912131547928e-03</internalNodes>
          <leafValues>
            1.7310531437397003e-01 -1.3321839272975922e-01</leafValues></_>
        <_>
          <internalNodes>
            0 -1 216 2.3317041632253677e-04</internalNodes>
          <leafValues>
            -5.2289628982543945e-01 4.2295668274164200e-02</leafValues></_>
        <_>
          <internalNodes>
            0 -1 269 1.9260555505752563e-02</internalNodes>
          <leafValues>
            6.7146562039852142e-02 -3.1109973788261414e-01</leafValues></_>
        <_>
          <internalNodes>
            0 -1 256 1.2863804399967194e-01</internalNodes>
          <leafValues>
            -4.2978420853614807e-02 5.0987660884857178e-01</leafValues></_>
        <_>
          <internalNodes>
            0 -1 278 1.8587425351142883e-02</internalNodes>
          <leafValues>
            -2.1563592553138733e-01 1.1315961927175522e-01</leafValues></_>
        <_>
          <internalNodes>
            0 -1 286 4.0146399289369583e-02</internalNodes>
          <leafValues>
            8.0400072038173676e-02 -2.7234485745429993e-01</leafValues></_>
        <_>
          <internalNodes>
            0 -1 164 9.6495542675256729e-03</internalNodes>
          <leafValues>
            1.1598372459411621e-01 -1.9357962906360626e-01</leafValues></_>
        <_>
          <internalNodes>
            0 -1 84 1.2199181946925819e-04</internalNodes>
          <leafValues>
            -5.1224762201309204e-01 4.2355246841907501e-02</leafValues></_>
        <_>
          <internalNodes>
            0 -1 350 9.7244447097182274e-03</internalNodes>
          <leafValues>
            -2.5363209843635559e-01 6.5560288727283478e-02</leafValues></_>
        <_>
          <internalNodes>
            0 -1 24 6.8854382261633873e-03</internalNodes>
          <leafValues>
            1.5189205110073090e-01 -1.6901634633541107e-01</leafValues></_>
        <_>
          <internalNodes>
            0 -1 373 6.9338614121079445e-03</internalNodes>
          <leafValues>
            -3.9606067538261414e-01 4.0185831487178802e-02</leafValues></_>
        <_>
          <internalNodes>
            0 -1 167 2.9230240732431412e-02</internalNodes>
          <leafValues>
            1.0820551216602325e-01 -1.6424018144607544e-01</leafValues></_>
        <_>
          <internalNodes>
            0 -1 200 1.0507350787520409e-02</internalNodes>
          <leafValues>
            1.0385952144861221e-01 -1.7701733112335205e-01</leafValues></_>
        <_>
          <internalNodes>
            0 -1 6 1.3416668400168419e-02</internalNodes>
          <leafValues>
            7.4611231684684753e-02 -2.1746009588241577e-01</leafValues></_>
        <_>
          <internalNodes>
            0 -1 11 1.3837978243827820e-01</internalNodes>
          <leafValues>
            2.0563982427120209e-02 -7.1085655689239502e-01</leafValues></_>
        <_>
          <internalNodes>
            0 -1 223 7.4781998991966248e-02</internalNodes>
          <leafValues>
            3.6717861890792847e-02 -4.2606529593467712e-01</leafValues></_>
        <_>
          <internalNodes>
            0 -1 42 3.5883727832697332e-04</internalNodes>
          <leafValues>
            -3.0869951844215393e-01 4.7094307839870453e-02</leafValues></_>
        <_>
          <internalNodes>
            0 -1 246 7.3382422327995300e-02</internalNodes>
          <leafValues>
            1.9922932609915733e-02 -6.0930007696151733e-01</leafValues></_>
        <_>
          <internalNodes>
            0 -1 49 1.2511768378317356e-02</internalNodes>
          <leafValues>
            8.7950833141803741e-02 -1.5031863749027252e-01</leafValues></_>
        <_>
          <internalNodes>
            0 -1 54 1.3178483641240746e-04</internalNodes>
          <leafValues>
            -4.1505485773086548e-01 3.5325363278388977e-02</leafValues></_>
        <_>
          <internalNodes>
            0 -1 14 2.3898908868432045e-02</internalNodes>
          <leafValues>
            -1.4859224855899811e-01 8.5201583802700043e-02</leafValues></_>
        <_>
          <internalNodes>
            0 -1 316 1.1161197721958160e-01</internalNodes>
          <leafValues>
            2.3411307483911514e-02 -5.5020433664321899e-01</leafValues></_>
        <_>
          <internalNodes>
            0 -1 195 7.8624468296766281e-03</internalNodes>
          <leafValues>
            9.6914567053318024e-02 -1.5578195452690125e-01</leafValues></_>
        <_>
          <internalNodes>
            0 -1 364 2.5655063800513744e-03</internalNodes>
          <leafValues>
            -4.8007717728614807e-01 2.8814166784286499e-02</leafValues></_>
        <_>
          <internalNodes>
            0 -1 101 4.3530785478651524e-03</internalNodes>
          <leafValues>
            1.6244141757488251e-01 -1.0518027096986771e-01</leafValues></_>
        <_>
          <internalNodes>
            0 -1 371 1.7032605828717351e-03</internalNodes>
          <leafValues>
            -4.0622603893280029e-01 3.5362318158149719e-02</leafValues></_>
        <_>
          <internalNodes>
            0 -1 208 7.0421369746327400e-03</internalNodes>
          <leafValues>
            1.1805561184883118e-01 -1.2558358907699585e-01</leafValues></_>
        <_>
          <internalNodes>
            0 -1 369 2.7256891131401062e-02</internalNodes>
          <leafValues>
            -9.2274501919746399e-02 1.4993207156658173e-01</leafValues></_>
        <_>
          <internalNodes>
            0 -1 240 1.0811424814164639e-02</internalNodes>
          <leafValues>
            -2.7270004153251648e-01 4.9793750047683716e-02</leafValues></_>
        <_>
          <internalNodes>
            0 -1 172 3.2168306410312653e-02</internalNodes>
          <leafValues>
            3.2917581498622894e-02 -3.5945862531661987e-01</leafValues></_>
        <_>
          <internalNodes>
            0 -1 161 8.0608278512954712e-02</internalNodes>
          <leafValues>
            -3.3924896270036697e-02 3.7839663028717041e-01</leafValues></_>
        <_>
          <internalNodes>
            0 -1 7 5.8035898953676224e-02</internalNodes>
          <leafValues>
            2.4086315184831619e-02 -5.0288438796997070e-01</leafValues></_>
        <_>
          <internalNodes>
            0 -1 230 1.1175644397735596e-01</internalNodes>
          <leafValues>
            1.3475428335368633e-02 -7.3629659414291382e-01</leafValues></_>
        <_>
          <internalNodes>
            0 -1 114 5.1371590234339237e-03</internalNodes>
          <leafValues>
            1.3433517515659332e-01 -8.7800756096839905e-02</leafValues></_>
        <_>
          <internalNodes>
            0 -1 149 5.2860669791698456e-02</internalNodes>
          <leafValues>
            9.1711290180683136e-02 -1.3488185405731201e-01</leafValues></_>
        <_>
          <internalNodes>
            0 -1 123 1.1583675222937018e-04</internalNodes>
          <leafValues>
            -4.3307888507843018e-01 2.5187730789184570e-02</leafValues></_>
        <_>
          <internalNodes>
            0 -1 123 8.4779150784015656e-03</internalNodes>
          <leafValues>
            1.0641140490770340e-01 -1.3305766880512238e-01</leafValues></_>
        <_>
          <internalNodes>
            0 -1 176 1.4782524667680264e-03</internalNodes>
          <leafValues>
            -2.6616087555885315e-01 4.3148651719093323e-02</leafValues></_>
        <_>
          <internalNodes>
            0 -1 82 8.8466480374336243e-03</internalNodes>
          <leafValues>
            9.1837182641029358e-02 -1.2292390316724777e-01</leafValues></_>
        <_>
          <internalNodes>
            0 -1 357 5.6685209274291992e-02</internalNodes>
          <leafValues>
            2.3722339421510696e-02 -4.6987831592559814e-01</leafValues></_>
        <_>
          <internalNodes>
            0 -1 310 6.1511084437370300e-02</internalNodes>
          <leafValues>
            1.7865713685750961e-02 -5.5544704198837280e-01</leafValues></_>
        <_>
          <internalNodes>
            0 -1 137 9.0737432241439819e-02</internalNodes>
          <leafValues>
            -3.6231871694326401e-02 3.1735453009605408e-01</leafValues></_>
        <_>
          <internalNodes>
            0 -1 271 7.0154279470443726e-02</internalNodes>
          <leafValues>
            1.3843827880918980e-02 -7.8351819515228271e-01</leafValues></_>
        <_>
          <internalNodes>
            0 -1 55 3.6067243665456772e-02</internalNodes>
          <leafValues>
            4.7225181013345718e-02 -2.0224845409393311e-01</leafValues></_>
        <_>
          <internalNodes>
            0 -1 323 8.3038192242383957e-03</internalNodes>
          <leafValues>
            1.1141763627529144e-01 -8.9540593326091766e-02</leafValues></_>
        <_>
          <internalNodes>
            0 -1 225 5.6765928864479065e-02</internalNodes>
          <leafValues>
            -5.2415356040000916e-02 1.9892919063568115e-01</leafValues></_>
        <_>
          <internalNodes>
            0 -1 264 4.5135607942938805e-03</internalNodes>
          <leafValues>
            -1.3241207599639893e-01 8.1417426466941833e-02</leafValues></_>
        <_>
          <internalNodes>
            0 -1 58 6.6125907003879547e-02</internalNodes>
          <leafValues>
            1.8761353567242622e-02 -6.1112821102142334e-01</leafValues></_>
        <_>
          <internalNodes>
            0 -1 188 7.3471799492835999e-02</internalNodes>
          <leafValues>
            -4.2543455958366394e-02 2.5065335631370544e-01</leafValues></_>
        <_>
          <internalNodes>
            0 -1 199 3.8156688213348389e-02</internalNodes>
          <leafValues>
            4.1189037263393402e-02 -2.7040356397628784e-01</leafValues></_>
        <_>
          <internalNodes>
            0 -1 29 1.0305680334568024e-02</internalNodes>
          <leafValues>
            -5.2728913724422455e-02 1.8588490784168243e-01</leafValues></_>
        <_>
          <internalNodes>
            0 -1 106 2.8800803702324629e-03</internalNodes>
          <leafValues>
            1.4913237094879150e-01 -6.6098436713218689e-02</leafValues></_>
        <_>
          <internalNodes>
            0 -1 160 2.2355960682034492e-02</internalNodes>
          <leafValues>
            9.5102578401565552e-02 -1.1907863616943359e-01</leafValues></_>
        <_>
          <internalNodes>
            0 -1 229 2.7260985225439072e-02</internalNodes>
          <leafValues>
            3.9267331361770630e-02 -2.4581770598888397e-01</leafValues></_>
        <_>
          <internalNodes>
            0 -1 38 5.3457558155059814e-02</internalNodes>
          <leafValues>
            3.0807064846158028e-02 -2.9508632421493530e-01</leafValues></_>
        <_>
          <internalNodes>
            0 -1 250 7.9015847295522690e-03</internalNodes>
          <leafValues>
            -1.3007195293903351e-01 7.1482136845588684e-02</leafValues></_>
        <_>
          <internalNodes>
            0 -1 117 5.3598184138536453e-02</internalNodes>
          <leafValues>
            -4.2302299290895462e-02 2.4203266203403473e-01</leafValues></_>
        <_>
          <internalNodes>
            0 -1 152 8.5088163614273071e-03</internalNodes>
          <leafValues>
            9.8823368549346924e-02 -1.0665397346019745e-01</leafValues></_>
        <_>
          <internalNodes>
            0 -1 233 2.2504921071231365e-03</internalNodes>
          <leafValues>
            -3.6651569604873657e-01 2.4202534928917885e-02</leafValues></_>
        <_>
          <internalNodes>
            0 -1 307 7.4684813618659973e-02</internalNodes>
          <leafValues>
            9.3901865184307098e-03 -7.6822930574417114e-01</leafValues></_>
        <_>
          <internalNodes>
            0 -1 96 3.0600940808653831e-03</internalNodes>
          <leafValues>
            1.5901114046573639e-01 -5.3114123642444611e-02</leafValues></_>
        <_>
          <internalNodes>
            0 -1 302 4.7926013357937336e-03</internalNodes>
          <leafValues>
            -2.0272774994373322e-01 4.2266085743904114e-02</leafValues></_>
        <_>
          <internalNodes>
            0 -1 255 5.8934256434440613e-02</internalNodes>
          <leafValues>
            -5.4724130779504776e-02 1.4769645035266876e-01</leafValues></_>
        <_>
          <internalNodes>
            0 -1 3 1.3147343695163727e-01</internalNodes>
          <leafValues>
            1.8284415826201439e-02 -5.5053704977035522e-01</leafValues></_>
        <_>
          <internalNodes>
            0 -1 347 1.8500927090644836e-01</internalNodes>
          <leafValues>
            6.8162926472723484e-03 -8.4598839282989502e-01</leafValues></_>
        <_>
          <internalNodes>
            0 -1 281 9.4938501715660095e-02</internalNodes>
          <leafValues>
            -2.3199016228318214e-02 3.5356137156486511e-01</leafValues></_>
        <_>
          <internalNodes>
            0 -1 340 1.4079156517982483e-01</internalNodes>
          <leafValues>
            -5.1008172333240509e-02 1.5201339125633240e-01</leafValues></_>
        <_>
          <internalNodes>
            0 -1 85 1.7750520259141922e-02</internalNodes>
          <leafValues>
            1.2144924700260162e-01 -8.2999251782894135e-02</leafValues></_>
        <_>
          <internalNodes>
            0 -1 257 4.4874002924188972e-04</internalNodes>
          <leafValues>
            -4.9581825733184814e-01 1.5838632360100746e-02</leafValues></_>
        <_>
          <internalNodes>
            0 -1 354 5.6038349866867065e-03</internalNodes>
          <leafValues>
            -3.4877663850784302e-01 2.0441312342882156e-02</leafValues></_>
        <_>
          <internalNodes>
            0 -1 254 4.0413457900285721e-03</internalNodes>
          <leafValues>
            1.2641422450542450e-01 -7.0910885930061340e-02</leafValues></_>
        <_>
          <internalNodes>
            0 -1 18 1.2154737487435341e-04</internalNodes>
          <leafValues>
            -4.4273567199707031e-01 1.8195159733295441e-02</leafValues></_>
        <_>
          <internalNodes>
            0 -1 68 8.6870312690734863e-02</internalNodes>
          <leafValues>
            -2.0475890487432480e-02 3.8798052072525024e-01</leafValues></_>
        <_>
          <internalNodes>
            0 -1 324 2.4487499147653580e-02</internalNodes>
          <leafValues>
            3.5600781440734863e-02 -2.7888664603233337e-01</leafValues></_>
        <_>
          <internalNodes>
            0 -1 266 1.2272620201110840e-01</internalNodes>
          <leafValues>
            -1.0617571882903576e-02 8.2788872718811035e-01</leafValues></_>
        <_>
          <internalNodes>
            0 -1 252 7.6679429039359093e-03</internalNodes>
          <leafValues>
            -1.5000605583190918e-01 5.9276230633258820e-02</leafValues></_>
        <_>
          <internalNodes>
            0 -1 187 1.8595684319734573e-02</internalNodes>
          <leafValues>
            8.7132923305034637e-02 -1.0584080964326859e-01</leafValues></_>
        <_>
          <internalNodes>
            0 -1 203 6.2518315389752388e-03</internalNodes>
          <leafValues>
            -9.9590457975864410e-02 7.8807398676872253e-02</leafValues></_>
        <_>
          <internalNodes>
            0 -1 212 6.1220740899443626e-03</internalNodes>
          <leafValues>
            9.6595726907253265e-02 -8.2802303135395050e-02</leafValues></_>
        <_>
          <internalNodes>
            0 -1 23 2.5854104757308960e-01</internalNodes>
          <leafValues>
            -1.3987901620566845e-02 5.3648424148559570e-01</leafValues></_>
        <_>
          <internalNodes>
            0 -1 311 3.9329171180725098e-02</internalNodes>
          <leafValues>
            2.5687661021947861e-02 -2.9767388105392456e-01</leafValues></_></weakClassifiers></_>
    <!-- stage 6 -->
    <_>
      <maxWeakCount>100</maxWeakCount>
      <stageThreshold>-2.0548889636993408e+00</stageThreshold>
      <weakClassifiers>
        <_>
          <internalNodes>
            0 -1 226 1.4632380008697510e-01</internalNodes>
          <leafValues>
            -4.9804359674453735e-01 1.0734463483095169e-01</leafValues></_>
        <_>
          <internalNodes>
            0 -1 91 6.9597158581018448e-03</internalNodes>
          <leafValues>
            1.6238704323768616e-01 -3.7222900986671448e-01</leafValues></_>
        <_>
          <internalNodes>
            0 -1 296 6.7061120644211769e-03</internalNodes>
          <leafValues>
            2.4552997946739197e-01 -2.3181961476802826e-01</leafValues></_>
        <_>
          <internalNodes>
            0 -1 351 1.0611289180815220e-02</internalNodes>
          <leafValues>
            1.5832051634788513e-01 -2.8647184371948242e-01</leafValues></_>
        <_>
          <internalNodes>
            0 -1 344 2.2683981806039810e-02</internalNodes>
          <leafValues>
            -2.0789556205272675e-01 2.0837630331516266e-01</leafValues></_>
        <_>
          <internalNodes>
            0 -1 236 1.7905382439494133e-02</internalNodes>
          <leafValues>
            1.5817876160144806e-01 -3.3808723092079163e-01</leafValues></_>
        <_>
          <internalNodes>
            0 -1 309 2.6037912815809250e-02</internalNodes>
          <leafValues>
            1.2929439544677734e-01 -3.6345350742340088e-01</leafValues></_>
        <_>
          <internalNodes>
            0 -1 66 9.1101545840501785e-03</internalNodes>
          <leafValues>
            1.3850794732570648e-01 -3.3834996819496155e-01</leafValues></_>
        <_>
          <internalNodes>
            0 -1 350 6.2057720497250557e-03</internalNodes>
          <leafValues>
            -4.2051252722740173e-01 5.1455225795507431e-02</leafValues></_>
        <_>
          <internalNodes>
            0 -1 223 6.1970368027687073e-02</internalNodes>
          <leafValues>
            5.8211568742990494e-02 -4.4207066297531128e-01</leafValues></_>
        <_>
          <internalNodes>
            0 -1 262 4.0888138115406036e-02</internalNodes>
          <leafValues>
            -1.2723125517368317e-01 1.9228079915046692e-01</leafValues></_>
        <_>
          <internalNodes>
            0 -1 41 1.1787317693233490e-01</internalNodes>
          <leafValues>
            -1.0501590371131897e-01 2.4362882971763611e-01</leafValues></_>
        <_>
          <internalNodes>
            0 -1 320 7.3218792676925659e-02</internalNodes>
          <leafValues>
            -8.1597447395324707e-02 3.4104457497596741e-01</leafValues></_>
        <_>
          <internalNodes>
            0 -1 316 7.4564784765243530e-02</internalNodes>
          <leafValues>
            5.1529623568058014e-02 -5.4541146755218506e-01</leafValues></_>
        <_>
          <internalNodes>
            0 -1 177 2.1506947814486921e-04</internalNodes>
          <leafValues>
            -5.2276045083999634e-01 3.2976202666759491e-02</leafValues></_>
        <_>
          <internalNodes>
            0 -1 191 7.2726560756564140e-03</internalNodes>
          <leafValues>
            1.5017892420291901e-01 -1.3207887113094330e-01</leafValues></_>
        <_>
          <internalNodes>
            0 -1 354 2.7416653931140900e-02</internalNodes>
          <leafValues>
            -1.9731622934341431e-01 1.2307614088058472e-01</leafValues></_>
        <_>
          <internalNodes>
            0 -1 287 1.1894924938678741e-01</internalNodes>
          <leafValues>
            3.2723460346460342e-02 -4.8060500621795654e-01</leafValues></_>
        <_>
          <internalNodes>
            0 -1 331 1.3676419854164124e-02</internalNodes>
          <leafValues>
            8.0105073750019073e-02 -2.2557407617568970e-01</leafValues></_>
        <_>
          <internalNodes>
            0 -1 371 3.9406092837452888e-03</internalNodes>
          <leafValues>
            -3.1774866580963135e-01 5.2930954843759537e-02</leafValues></_>
        <_>
          <internalNodes>
            0 -1 156 8.6096785962581635e-03</internalNodes>
          <leafValues>
            1.4611238241195679e-01 -1.3288131356239319e-01</leafValues></_>
        <_>
          <internalNodes>
            0 -1 13 2.3911352036520839e-04</internalNodes>
          <leafValues>
            -3.7131479382514954e-01 4.5915845781564713e-02</leafValues></_>
        <_>
          <internalNodes>
            0 -1 213 7.7654188498854637e-03</internalNodes>
          <leafValues>
            1.3893425464630127e-01 -1.2395468354225159e-01</leafValues></_>
        <_>
          <internalNodes>
            0 -1 335 3.1865265220403671e-02</internalNodes>
          <leafValues>
            -9.5424570143222809e-02 1.9675306975841522e-01</leafValues></_>
        <_>
          <internalNodes>
            0 -1 14 5.4234169423580170e-02</internalNodes>
          <leafValues>
            -1.1085148155689240e-01 1.4538085460662842e-01</leafValues></_>
        <_>
          <internalNodes>
            0 -1 313 3.6414668429642916e-03</internalNodes>
          <leafValues>
            -5.8155244588851929e-01 2.4725273251533508e-02</leafValues></_>
        <_>
          <internalNodes>
            0 -1 171 8.1354230642318726e-03</internalNodes>
          <leafValues>
            8.8319815695285797e-02 -1.7311123013496399e-01</leafValues></_>
        <_>
          <internalNodes>
            0 -1 43 1.1561599094420671e-03</internalNodes>
          <leafValues>
            -3.1823858618736267e-01 4.2324654757976532e-02</leafValues></_>
        <_>
          <internalNodes>
            0 -1 69 5.6665809825062752e-03</internalNodes>
          <leafValues>
            1.1450012028217316e-01 -1.3494893908500671e-01</leafValues></_>
        <_>
          <internalNodes>
            0 -1 91 6.8825744092464447e-03</internalNodes>
          <leafValues>
            -9.2150636017322540e-02 1.4275430142879486e-01</leafValues></_>
        <_>
          <internalNodes>
            0 -1 277 1.4429677277803421e-02</internalNodes>
          <leafValues>
            7.8202724456787109e-02 -1.8904069066047668e-01</leafValues></_>
        <_>
          <internalNodes>
            0 -1 93 1.3706601224839687e-02</internalNodes>
          <leafValues>
            7.2863288223743439e-02 -2.1538341045379639e-01</leafValues></_>
        <_>
          <internalNodes>
            0 -1 342 4.3844018131494522e-02</internalNodes>
          <leafValues>
            -6.4598940312862396e-02 2.1700932085514069e-01</leafValues></_>
        <_>
          <internalNodes>
            0 -1 215 2.7028629556298256e-03</internalNodes>
          <leafValues>
            -2.1456223726272583e-01 6.1958435922861099e-02</leafValues></_>
        <_>
          <internalNodes>
            0 -1 104 5.5734151974320412e-03</internalNodes>
          <leafValues>
            1.1704412102699280e-01 -1.1487244814634323e-01</leafValues></_>
        <_>
          <internalNodes>
            0 -1 369 3.8116429932415485e-03</internalNodes>
          <leafValues>
            -3.3385306596755981e-01 3.8796283304691315e-02</leafValues></_>
        <_>
          <internalNodes>
            0 -1 339 7.2867535054683685e-02</internalNodes>
          <leafValues>
            -4.6515423804521561e-02 2.7272546291351318e-01</leafValues></_>
        <_>
          <internalNodes>
            0 -1 201 3.0328488349914551e-01</internalNodes>
          <leafValues>
            -2.4253869429230690e-02 4.5083004236221313e-01</leafValues></_>
        <_>
          <internalNodes>
            0 -1 179 2.9646189068444073e-04</internalNodes>
          <leafValues>
            -4.2102020978927612e-01 2.9558533802628517e-02</leafValues></_>
        <_>
          <internalNodes>
            0 -1 167 2.2622046992182732e-02</internalNodes>
          <leafValues>
            9.6026018261909485e-02 -1.2824097275733948e-01</leafValues></_>
        <_>
          <internalNodes>
            0 -1 4 1.9105558749288321e-03</internalNodes>
          <leafValues>
            -3.9771553874015808e-01 2.6888316497206688e-02</leafValues></_>
        <_>
          <internalNodes>
            0 -1 236 6.6674783825874329e-02</internalNodes>
          <leafValues>
            1.8718762323260307e-02 -5.5914509296417236e-01</leafValues></_>
        <_>
          <internalNodes>
            0 -1 286 1.0373033583164215e-01</internalNodes>
          <leafValues>
            1.9677963107824326e-02 -4.8896336555480957e-01</leafValues></_>
        <_>
          <internalNodes>
            0 -1 310 2.8779916465282440e-02</internalNodes>
          <leafValues>
            3.5235378891229630e-02 -3.0465272068977356e-01</leafValues></_>
        <_>
          <internalNodes>
            0 -1 351 3.8799561560153961e-02</internalNodes>
          <leafValues>
            1.8034933134913445e-02 -5.6988668441772461e-01</leafValues></_>
        <_>
          <internalNodes>
            0 -1 47 5.9359677135944366e-02</internalNodes>
          <leafValues>
            -3.8350924849510193e-02 2.6723155379295349e-01</leafValues></_>
        <_>
          <internalNodes>
            0 -1 328 6.2708504498004913e-02</internalNodes>
          <leafValues>
            -4.4694293290376663e-02 2.3928710818290710e-01</leafValues></_>
        <_>
          <internalNodes>
            0 -1 206 6.8348678760230541e-03</internalNodes>
          <leafValues>
            1.1580120772123337e-01 -9.6244566142559052e-02</leafValues></_>
        <_>
          <internalNodes>
            0 -1 338 4.9574580043554306e-03</internalNodes>
          <leafValues>
            -3.0173677206039429e-01 3.6320835351943970e-02</leafValues></_>
        <_>
          <internalNodes>
            0 -1 26 2.5007490068674088e-02</internalNodes>
          <leafValues>
            4.0537115186452866e-02 -2.4034824967384338e-01</leafValues></_>
        <_>
          <internalNodes>
            0 -1 86 6.4486265182495117e-04</internalNodes>
          <leafValues>
            -5.0377285480499268e-01 2.0202834159135818e-02</leafValues></_>
        <_>
          <internalNodes>
            0 -1 372 2.2264176979660988e-02</internalNodes>
          <leafValues>
            4.4363658875226974e-02 -2.3080421984195709e-01</leafValues></_>
        <_>
          <internalNodes>
            0 -1 88 3.3603645861148834e-02</internalNodes>
          <leafValues>
            3.6411821842193604e-02 -2.9747951030731201e-01</leafValues></_>
        <_>
          <internalNodes>
            0 -1 8 2.1392272412776947e-01</internalNodes>
          <leafValues>
            1.0610047727823257e-02 -7.5144124031066895e-01</leafValues></_>
        <_>
          <internalNodes>
            0 -1 234 1.2035293038934469e-03</internalNodes>
          <leafValues>
            -4.2213922739028931e-01 1.8111066892743111e-02</leafValues></_>
        <_>
          <internalNodes>
            0 -1 145 1.2007002532482147e-01</internalNodes>
          <leafValues>
            -2.3419624194502831e-02 4.2582756280899048e-01</leafValues></_>
        <_>
          <internalNodes>
            0 -1 285 5.7665824890136719e-02</internalNodes>
          <leafValues>
            1.6470737755298615e-02 -6.2527173757553101e-01</leafValues></_>
        <_>
          <internalNodes>
            0 -1 81 8.9224074035882950e-03</internalNodes>
          <leafValues>
            9.6591979265213013e-02 -9.1399803757667542e-02</leafValues></_>
        <_>
          <internalNodes>
            0 -1 227 4.1399300098419189e-03</internalNodes>
          <leafValues>
            -2.6027017831802368e-01 3.4205455332994461e-02</leafValues></_>
        <_>
          <internalNodes>
            0 -1 268 1.4074653387069702e-02</internalNodes>
          <leafValues>
            6.2010653316974640e-02 -1.4146670699119568e-01</leafValues></_>
        <_>
          <internalNodes>
            0 -1 290 5.3889624774456024e-02</internalNodes>
          <leafValues>
            -2.7443071827292442e-02 3.2322692871093750e-01</leafValues></_>
        <_>
          <internalNodes>
            0 -1 20 8.1431247293949127e-02</internalNodes>
          <leafValues>
            -4.3834526091814041e-02 2.0027068257331848e-01</leafValues></_>
        <_>
          <internalNodes>
            0 -1 309 6.7510798573493958e-02</internalNodes>
          <leafValues>
            3.2769978046417236e-02 -3.0390533804893494e-01</leafValues></_>
        <_>
          <internalNodes>
            0 -1 77 8.1425920128822327e-02</internalNodes>
          <leafValues>
            -3.3406443893909454e-02 2.6388904452323914e-01</leafValues></_>
        <_>
          <internalNodes>
            0 -1 118 1.5677174925804138e-01</internalNodes>
          <leafValues>
            -4.4984698295593262e-02 1.8671081960201263e-01</leafValues></_>
        <_>
          <internalNodes>
            0 -1 273 1.7070861533284187e-02</internalNodes>
          <leafValues>
            -1.0456987470388412e-01 8.4834076464176178e-02</leafValues></_>
        <_>
          <internalNodes>
            0 -1 119 1.0895147919654846e-01</internalNodes>
          <leafValues>
            -2.3375825956463814e-02 4.3944582343101501e-01</leafValues></_>
        <_>
          <internalNodes>
            0 -1 345 4.4485135003924370e-03</internalNodes>
          <leafValues>
            -1.9594377279281616e-01 4.7371655702590942e-02</leafValues></_>
        <_>
          <internalNodes>
            0 -1 16 1.4639990404248238e-02</internalNodes>
          <leafValues>
            7.5118005275726318e-02 -1.1286301910877228e-01</leafValues></_>
        <_>
          <internalNodes>
            0 -1 6 3.9237879216670990e-02</internalNodes>
          <leafValues>
            2.0981693640351295e-02 -4.0799543261528015e-01</leafValues></_>
        <_>
          <internalNodes>
            0 -1 292 7.8839994966983795e-02</internalNodes>
          <leafValues>
            1.4456762932240963e-02 -5.1278942823410034e-01</leafValues></_>
        <_>
          <internalNodes>
            0 -1 334 5.7965036481618881e-02</internalNodes>
          <leafValues>
            -3.6113437265157700e-02 2.2463917732238770e-01</leafValues></_>
        <_>
          <internalNodes>
            0 -1 95 7.6471846550703049e-03</internalNodes>
          <leafValues>
            7.8149996697902679e-02 -9.4516701996326447e-02</leafValues></_>
        <_>
          <internalNodes>
            0 -1 50 5.9645471628755331e-04</internalNodes>
          <leafValues>
            -3.0371505022048950e-01 2.5804597884416580e-02</leafValues></_>
        <_>
          <internalNodes>
            0 -1 205 2.9332812875509262e-02</internalNodes>
          <leafValues>
            3.3483378589153290e-02 -2.1337442100048065e-01</leafValues></_>
        <_>
          <internalNodes>
            0 -1 87 4.0007252246141434e-03</internalNodes>
          <leafValues>
            1.4717218279838562e-01 -5.9533823281526566e-02</leafValues></_>
        <_>
          <internalNodes>
            0 -1 304 1.6243943572044373e-01</internalNodes>
          <leafValues>
            1.0626577772200108e-02 -6.7914962768554688e-01</leafValues></_>
        <_>
          <internalNodes>
            0 -1 21 6.1211436986923218e-02</internalNodes>
          <leafValues>
            -5.2736267447471619e-02 1.4850586652755737e-01</leafValues></_>
        <_>
          <internalNodes>
            0 -1 258 7.2502195835113525e-02</internalNodes>
          <leafValues>
            -2.9934406280517578e-02 2.6994973421096802e-01</leafValues></_>
        <_>
          <internalNodes>
            0 -1 308 8.5233181715011597e-02</internalNodes>
          <leafValues>
            1.1618709191679955e-02 -7.7114528417587280e-01</leafValues></_>
        <_>
          <internalNodes>
            0 -1 36 1.0541196388658136e-04</internalNodes>
          <leafValues>
            -3.7660893797874451e-01 1.7699649557471275e-02</leafValues></_>
        <_>
          <internalNodes>
            0 -1 318 2.9902598261833191e-01</internalNodes>
          <leafValues>
            -1.3541068881750107e-02 5.9724956750869751e-01</leafValues></_>
        <_>
          <internalNodes>
            0 -1 312 1.0543202050030231e-02</internalNodes>
          <leafValues>
            -1.2411760538816452e-01 6.2350373715162277e-02</leafValues></_>
        <_>
          <internalNodes>
            0 -1 174 1.2902060151100159e-01</internalNodes>
          <leafValues>
            2.7387565001845360e-02 -2.8797885775566101e-01</leafValues></_>
        <_>
          <internalNodes>
            0 -1 132 1.2536391615867615e-01</internalNodes>
          <leafValues>
            -3.5375352948904037e-02 2.1158778667449951e-01</leafValues></_>
        <_>
          <internalNodes>
            0 -1 60 2.0054124295711517e-02</internalNodes>
          <leafValues>
            1.0471016913652420e-01 -8.1114955246448517e-02</leafValues></_>
        <_>
          <internalNodes>
            0 -1 276 3.4376975148916245e-02</internalNodes>
          <leafValues>
            5.2654732018709183e-02 -1.4755102992057800e-01</leafValues></_>
        <_>
          <internalNodes>
            0 -1 110 2.9605920426547527e-03</internalNodes>
          <leafValues>
            1.2263757735490799e-01 -5.7604067027568817e-02</leafValues></_>
        <_>
          <internalNodes>
            0 -1 351 1.0674919933080673e-02</internalNodes>
          <leafValues>
            -7.1409620344638824e-02 1.1535918712615967e-01</leafValues></_>
        <_>
          <internalNodes>
            0 -1 267 1.3258653879165649e-01</internalNodes>
          <leafValues>
            1.1594640091061592e-02 -6.2232649326324463e-01</leafValues></_>
        <_>
          <internalNodes>
            0 -1 208 1.8233409523963928e-01</internalNodes>
          <leafValues>
            6.6551067866384983e-03 -8.4857469797134399e-01</leafValues></_>
        <_>
          <internalNodes>
            0 -1 296 6.6915382631123066e-03</internalNodes>
          <leafValues>
            -9.5266722142696381e-02 7.2218067944049835e-02</leafValues></_>
        <_>
          <internalNodes>
            0 -1 198 1.0144818574190140e-02</internalNodes>
          <leafValues>
            5.9274364262819290e-02 -1.4354848861694336e-01</leafValues></_>
        <_>
          <internalNodes>
            0 -1 367 6.2586933374404907e-02</internalNodes>
          <leafValues>
            1.8546629697084427e-02 -3.7744736671447754e-01</leafValues></_>
        <_>
          <internalNodes>
            0 -1 99 3.8981991820037365e-03</internalNodes>
          <leafValues>
            1.1010003089904785e-01 -6.7037202417850494e-02</leafValues></_>
        <_>
          <internalNodes>
            0 -1 54 1.1694271117448807e-02</internalNodes>
          <leafValues>
            5.3057614713907242e-02 -1.3410218060016632e-01</leafValues></_>
        <_>
          <internalNodes>
            0 -1 221 3.3041264861822128e-02</internalNodes>
          <leafValues>
            2.9719984158873558e-02 -2.3500137031078339e-01</leafValues></_>
        <_>
          <internalNodes>
            0 -1 180 3.9363183081150055e-02</internalNodes>
          <leafValues>
            -5.1883306354284286e-02 1.3932354748249054e-01</leafValues></_>
        <_>
          <internalNodes>
            0 -1 42 9.0040475130081177e-02</internalNodes>
          <leafValues>
            1.6374737024307251e-02 -3.8298815488815308e-01</leafValues></_>
        <_>
          <internalNodes>
            0 -1 237 1.0544941574335098e-01</internalNodes>
          <leafValues>
            8.7552843615412712e-03 -7.0875471830368042e-01</leafValues></_></weakClassifiers></_>
    <!-- stage 7 -->
    <_>
      <maxWeakCount>100</maxWeakCount>
      <stageThreshold>-1.9218730926513672e+00</stageThreshold>
      <weakClassifiers>
        <_>
          <internalNodes>
            0 -1 243 3.5907481797039509e-03</internalNodes>
          <leafValues>
            3.7583892699331045e-03 -5.0453335046768188e-01</leafValues></_>
        <_>
          <internalNodes>
            0 -1 310 9.6472036093473434e-03</internalNodes>
          <leafValues>
            1.4658831059932709e-01 -3.8116472959518433e-01</leafValues></_>
        <_>
          <internalNodes>
            0 -1 361 8.7598320096731186e-03</internalNodes>
          <leafValues>
            1.4692960679531097e-01 -2.8285160660743713e-01</leafValues></_>
        <_>
          <internalNodes>
            0 -1 214 4.8267215490341187e-02</internalNodes>
          <leafValues>
            -1.1518120765686035e-01 3.3505475521087646e-01</leafValues></_>
        <_>
          <internalNodes>
            0 -1 203 7.7366232872009277e-03</internalNodes>
          <leafValues>
            1.6271071135997772e-01 -2.4516944587230682e-01</leafValues></_>
        <_>
          <internalNodes>
            0 -1 89 1.5152296982705593e-02</internalNodes>
          <leafValues>
            1.3010403513908386e-01 -2.6499268412590027e-01</leafValues></_>
        <_>
          <internalNodes>
            0 -1 36 7.4262376874685287e-03</internalNodes>
          <leafValues>
            1.2475485354661942e-01 -2.2215615212917328e-01</leafValues></_>
        <_>
          <internalNodes>
            0 -1 344 6.0957539826631546e-03</internalNodes>
          <leafValues>
            -3.7513428926467896e-01 7.0678882300853729e-02</leafValues></_>
        <_>
          <internalNodes>
            0 -1 294 2.4238204583525658e-02</internalNodes>
          <leafValues>
            -2.0332963764667511e-01 1.1995336413383484e-01</leafValues></_>
        <_>
          <internalNodes>
            0 -1 223 4.0015652775764465e-02</internalNodes>
          <leafValues>
            8.7068818509578705e-02 -2.8256270289421082e-01</leafValues></_>
        <_>
          <internalNodes>
            0 -1 284 6.4608432352542877e-02</internalNodes>
          <leafValues>
            -1.1899808794260025e-01 1.9959180057048798e-01</leafValues></_>
        <_>
          <internalNodes>
            0 -1 38 9.6508497372269630e-03</internalNodes>
          <leafValues>
            1.2232048809528351e-01 -1.6692669689655304e-01</leafValues></_>
        <_>
          <internalNodes>
            0 -1 126 1.3627231237478554e-04</internalNodes>
          <leafValues>
            -4.4415146112442017e-01 3.7171855568885803e-02</leafValues></_>
        <_>
          <internalNodes>
            0 -1 8 1.5193934738636017e-01</internalNodes>
          <leafValues>
            2.3205738514661789e-02 -6.9526791572570801e-01</leafValues></_>
        <_>
          <internalNodes>
            0 -1 263 2.5169113650918007e-02</internalNodes>
          <leafValues>
            3.7584625184535980e-02 -3.8192811608314514e-01</leafValues></_>
        <_>
          <internalNodes>
            0 -1 14 1.6113972663879395e-01</internalNodes>
          <leafValues>
            -6.0920059680938721e-02 2.8229483962059021e-01</leafValues></_>
        <_>
          <internalNodes>
            0 -1 243 3.5933898761868477e-03</internalNodes>
          <leafValues>
            -1.8954658508300781e-01 1.0708447545766830e-01</leafValues></_>
        <_>
          <internalNodes>
            0 -1 320 9.1494604945182800e-02</internalNodes>
          <leafValues>
            -5.2544530481100082e-02 3.5092523694038391e-01</leafValues></_>
        <_>
          <internalNodes>
            0 -1 9 3.7907054647803307e-03</internalNodes>
          <leafValues>
            -4.5386186242103577e-01 3.5249378532171249e-02</leafValues></_>
        <_>
          <internalNodes>
            0 -1 298 8.3405850455164909e-03</internalNodes>
          <leafValues>
            1.2319760024547577e-01 -1.3416050374507904e-01</leafValues></_>
        <_>
          <internalNodes>
            0 -1 316 4.4692903757095337e-02</internalNodes>
          <leafValues>
            5.1624204963445663e-02 -3.2626834511756897e-01</leafValues></_>
        <_>
          <internalNodes>
            0 -1 283 4.7296205593738705e-05</internalNodes>
          <leafValues>
            -5.9443080425262451e-01 2.0929148420691490e-02</leafValues></_>
        <_>
          <internalNodes>
            0 -1 151 6.4573185518383980e-03</internalNodes>
          <leafValues>
            1.0508926212787628e-01 -1.5830977261066437e-01</leafValues></_>
        <_>
          <internalNodes>
            0 -1 160 6.2225623987615108e-03</internalNodes>
          <leafValues>
            1.5639129281044006e-01 -8.7527796626091003e-02</leafValues></_>
        <_>
          <internalNodes>
            0 -1 228 2.4622913450002670e-02</internalNodes>
          <leafValues>
            -2.5004923343658447e-01 7.4227280914783478e-02</leafValues></_>
        <_>
          <internalNodes>
            0 -1 172 1.8659275025129318e-02</internalNodes>
          <leafValues>
            4.8318732529878616e-02 -2.5910580158233643e-01</leafValues></_>
        <_>
          <internalNodes>
            0 -1 287 8.5777334868907928e-02</internalNodes>
          <leafValues>
            4.3551702052354813e-02 -2.9688480496406555e-01</leafValues></_>
        <_>
          <internalNodes>
            0 -1 174 3.1182691454887390e-03</internalNodes>
          <leafValues>
            -4.1993820667266846e-01 2.6372835040092468e-02</leafValues></_>
        <_>
          <internalNodes>
            0 -1 84 5.3081631660461426e-02</internalNodes>
          <leafValues>
            -3.9947181940078735e-02 3.0159687995910645e-01</leafValues></_>
        <_>
          <internalNodes>
            0 -1 340 1.2362051010131836e-01</internalNodes>
          <leafValues>
            -8.7002649903297424e-02 1.7127242684364319e-01</leafValues></_>
        <_>
          <internalNodes>
            0 -1 341 6.8749822676181793e-02</internalNodes>
          <leafValues>
            -4.5004282146692276e-02 2.8147783875465393e-01</leafValues></_>
        <_>
          <internalNodes>
            0 -1 371 5.4244333878159523e-03</internalNodes>
          <leafValues>
            -2.3426723480224609e-01 5.6744389235973358e-02</leafValues></_>
        <_>
          <internalNodes>
            0 -1 2 2.6011079899035394e-04</internalNodes>
          <leafValues>
            -4.4439136981964111e-01 2.3672310635447502e-02</leafValues></_>
        <_>
          <internalNodes>
            0 -1 190 8.9680235832929611e-03</internalNodes>
          <leafValues>
            8.9975982904434204e-02 -1.2793064117431641e-01</leafValues></_>
        <_>
          <internalNodes>
            0 -1 139 7.3403619229793549e-02</internalNodes>
          <leafValues>
            -2.6541499421000481e-02 4.8767238855361938e-01</leafValues></_>
        <_>
          <internalNodes>
            0 -1 1 2.6694379746913910e-02</internalNodes>
          <leafValues>
            5.1489278674125671e-02 -2.3602816462516785e-01</leafValues></_>
        <_>
          <internalNodes>
            0 -1 236 5.6051533669233322e-02</internalNodes>
          <leafValues>
            2.2654034197330475e-02 -4.9609518051147461e-01</leafValues></_>
        <_>
          <internalNodes>
            0 -1 286 1.4031729102134705e-01</internalNodes>
          <leafValues>
            1.2464874424040318e-02 -7.5342714786529541e-01</leafValues></_>
        <_>
          <internalNodes>
            0 -1 11 1.6852957010269165e-01</internalNodes>
          <leafValues>
            1.0463871993124485e-02 -8.0567747354507446e-01</leafValues></_>
        <_>
          <internalNodes>
            0 -1 67 1.0670535266399384e-02</internalNodes>
          <leafValues>
            5.7412471622228622e-02 -1.9103324413299561e-01</leafValues></_>
        <_>
          <internalNodes>
            0 -1 32 1.6273625078611076e-04</internalNodes>
          <leafValues>
            -2.8146627545356750e-01 4.2103499174118042e-02</leafValues></_>
        <_>
          <internalNodes>
            0 -1 54 7.3191560804843903e-03</internalNodes>
          <leafValues>
            8.8125899434089661e-02 -1.3609555363655090e-01</leafValues></_>
        <_>
          <internalNodes>
            0 -1 14 6.8949977867305279e-03</internalNodes>
          <leafValues>
            -2.6460936665534973e-01 4.4569820165634155e-02</leafValues></_>
        <_>
          <internalNodes>
            0 -1 342 4.6776928007602692e-02</internalNodes>
          <leafValues>
            -5.5325515568256378e-02 1.8817511200904846e-01</leafValues></_>
        <_>
          <internalNodes>
            0 -1 98 4.8250150866806507e-03</internalNodes>
          <leafValues>
            1.0509802401065826e-01 -1.0509880632162094e-01</leafValues></_>
        <_>
          <internalNodes>
            0 -1 252 1.9884290173649788e-02</internalNodes>
          <leafValues>
            -9.8852582275867462e-02 9.8652228713035583e-02</leafValues></_>
        <_>
          <internalNodes>
            0 -1 310 9.6256667748093605e-03</internalNodes>
          <leafValues>
            -7.9897157847881317e-02 1.3850738108158112e-01</leafValues></_>
        <_>
          <internalNodes>
            0 -1 326 4.3047733604907990e-02</internalNodes>
          <leafValues>
            -4.7599203884601593e-02 2.1438790857791901e-01</leafValues></_>
        <_>
          <internalNodes>
            0 -1 230 3.4045908600091934e-02</internalNodes>
          <leafValues>
            4.4296354055404663e-02 -2.0997194945812225e-01</leafValues></_>
        <_>
          <internalNodes>
            0 -1 143 8.0720111727714539e-03</internalNodes>
          <leafValues>
            8.2793526351451874e-02 -1.1406055092811584e-01</leafValues></_>
        <_>
          <internalNodes>
            0 -1 310 7.2482377290725708e-02</internalNodes>
          <leafValues>
            1.5586834400892258e-02 -7.0951092243194580e-01</leafValues></_>
        <_>
          <internalNodes>
            0 -1 103 7.5431585311889648e-02</internalNodes>
          <leafValues>
            -3.6184426397085190e-02 2.8704193234443665e-01</leafValues></_>
        <_>
          <internalNodes>
            0 -1 27 1.7182182637043297e-04</internalNodes>
          <leafValues>
            -2.5375086069107056e-01 3.6624856293201447e-02</leafValues></_>
        <_>
          <internalNodes>
            0 -1 218 6.0492935590445995e-03</internalNodes>
          <leafValues>
            9.7036227583885193e-02 -1.0000113397836685e-01</leafValues></_>
        <_>
          <internalNodes>
            0 -1 210 2.2289677872322500e-04</internalNodes>
          <leafValues>
            -4.5683777332305908e-01 2.1669426932930946e-02</leafValues></_>
        <_>
          <internalNodes>
            0 -1 140 1.1660124361515045e-01</internalNodes>
          <leafValues>
            -2.2198570892214775e-02 4.8070371150970459e-01</leafValues></_>
        <_>
          <internalNodes>
            0 -1 285 4.8860341310501099e-02</internalNodes>
          <leafValues>
            1.7797924578189850e-02 -5.1171284914016724e-01</leafValues></_>
        <_>
          <internalNodes>
            0 -1 215 3.6818176507949829e-02</internalNodes>
          <leafValues>
            -4.4739872217178345e-02 1.7984002828598022e-01</leafValues></_>
        <_>
          <internalNodes>
            0 -1 201 3.0159583687782288e-01</internalNodes>
          <leafValues>
            -2.2896492853760719e-02 3.8618460297584534e-01</leafValues></_>
        <_>
          <internalNodes>
            0 -1 77 8.0835908651351929e-02</internalNodes>
          <leafValues>
            -3.0848871916532516e-02 2.5198531150817871e-01</leafValues></_>
        <_>
          <internalNodes>
            0 -1 248 3.1441061291843653e-03</internalNodes>
          <leafValues>
            -1.8357166647911072e-01 4.7558337450027466e-02</leafValues></_>
        <_>
          <internalNodes>
            0 -1 25 5.1292264834046364e-03</internalNodes>
          <leafValues>
            9.8537907004356384e-02 -9.0755857527256012e-02</leafValues></_>
        <_>
          <internalNodes>
            0 -1 167 3.3714689314365387e-02</internalNodes>
          <leafValues>
            6.5184891223907471e-02 -1.1861469596624374e-01</leafValues></_>
        <_>
          <internalNodes>
            0 -1 39 1.6185843944549561e-01</internalNodes>
          <leafValues>
            -4.4578012079000473e-02 1.9367031753063202e-01</leafValues></_>
        <_>
          <internalNodes>
            0 -1 75 5.2691802382469177e-02</internalNodes>
          <leafValues>
            -4.2019881308078766e-02 1.9227519631385803e-01</leafValues></_>
        <_>
          <internalNodes>
            0 -1 174 2.2690522670745850e-01</internalNodes>
          <leafValues>
            1.0981124825775623e-02 -7.2442823648452759e-01</leafValues></_>
        <_>
          <internalNodes>
            0 -1 131 1.4008197188377380e-01</internalNodes>
          <leafValues>
            -2.0920418202877045e-02 4.1082218289375305e-01</leafValues></_>
        <_>
          <internalNodes>
            0 -1 110 1.1042711138725281e-01</internalNodes>
          <leafValues>
            -1.5927707776427269e-02 4.2064055800437927e-01</leafValues></_>
        <_>
          <internalNodes>
            0 -1 372 3.0757103115320206e-02</internalNodes>
          <leafValues>
            2.7453241869807243e-02 -2.9975244402885437e-01</leafValues></_>
        <_>
          <internalNodes>
            0 -1 274 1.2194593995809555e-01</internalNodes>
          <leafValues>
            8.6510693654417992e-03 -7.7564531564712524e-01</leafValues></_>
        <_>
          <internalNodes>
            0 -1 5 1.4901813119649887e-02</internalNodes>
          <leafValues>
            4.3209925293922424e-02 -1.6342911124229431e-01</leafValues></_>
        <_>
          <internalNodes>
            0 -1 53 1.3657590898219496e-04</internalNodes>
          <leafValues>
            -4.1261649131774902e-01 1.8463991582393646e-02</leafValues></_>
        <_>
          <internalNodes>
            0 -1 316 1.6116262972354889e-01</internalNodes>
          <leafValues>
            8.7486850097775459e-03 -7.3308420181274414e-01</leafValues></_>
        <_>
          <internalNodes>
            0 -1 2 1.0588703304529190e-01</internalNodes>
          <leafValues>
            8.1029050052165985e-03 -7.0479911565780640e-01</leafValues></_>
        <_>
          <internalNodes>
            0 -1 249 8.3803720772266388e-03</internalNodes>
          <leafValues>
            -1.3211683928966522e-01 5.1870744675397873e-02</leafValues></_>
        <_>
          <internalNodes>
            0 -1 363 1.6233636997640133e-03</internalNodes>
          <leafValues>
            -4.9209874868392944e-01 1.3140793889760971e-02</leafValues></_>
        <_>
          <internalNodes>
            0 -1 314 1.1033739149570465e-01</internalNodes>
          <leafValues>
            7.8153461217880249e-03 -7.5603848695755005e-01</leafValues></_>
        <_>
          <internalNodes>
            0 -1 172 6.2344111502170563e-03</internalNodes>
          <leafValues>
            7.4469320476055145e-02 -9.2341847717761993e-02</leafValues></_>
        <_>
          <internalNodes>
            0 -1 315 5.0088562071323395e-02</internalNodes>
          <leafValues>
            2.0859632641077042e-02 -3.2851284742355347e-01</leafValues></_>
        <_>
          <internalNodes>
            0 -1 321 1.3629138469696045e-01</internalNodes>
          <leafValues>
            -1.7891377210617065e-02 4.3766400218009949e-01</leafValues></_>
        <_>
          <internalNodes>
            0 -1 181 1.6206073760986328e-01</internalNodes>
          <leafValues>
            -2.6944480836391449e-02 2.3617424070835114e-01</leafValues></_>
        <_>
          <internalNodes>
            0 -1 120 1.4166912063956261e-02</internalNodes>
          <leafValues>
            9.6907652914524078e-02 -7.3829710483551025e-02</leafValues></_>
        <_>
          <internalNodes>
            0 -1 74 9.9142473191022873e-03</internalNodes>
          <leafValues>
            6.7170441150665283e-02 -1.1499560624361038e-01</leafValues></_>
        <_>
          <internalNodes>
            0 -1 238 6.3559547066688538e-02</internalNodes>
          <leafValues>
            -2.2490099072456360e-02 3.3927679061889648e-01</leafValues></_>
        <_>
          <internalNodes>
            0 -1 349 2.4852356873452663e-03</internalNodes>
          <leafValues>
            -3.8115829229354858e-01 2.0293841138482094e-02</leafValues></_>
        <_>
          <internalNodes>
            0 -1 345 5.5614807642996311e-03</internalNodes>
          <leafValues>
            -1.4967505633831024e-01 4.0505688637495041e-02</leafValues></_>
        <_>
          <internalNodes>
            0 -1 121 4.0938016027212143e-03</internalNodes>
          <leafValues>
            1.2301754951477051e-01 -6.2093257904052734e-02</leafValues></_>
        <_>
          <internalNodes>
            0 -1 270 2.1693754196166992e-01</internalNodes>
          <leafValues>
            1.6345592215657234e-02 -3.6927264928817749e-01</leafValues></_>
        <_>
          <internalNodes>
            0 -1 332 1.5839025378227234e-02</internalNodes>
          <leafValues>
            4.1882175952196121e-02 -1.5936191380023956e-01</leafValues></_>
        <_>
          <internalNodes>
            0 -1 7 6.0314130038022995e-02</internalNodes>
          <leafValues>
            1.4490027911961079e-02 -4.4102430343627930e-01</leafValues></_>
        <_>
          <internalNodes>
            0 -1 0 5.0104022026062012e-02</internalNodes>
          <leafValues>
            2.1191028878092766e-02 -2.8905293345451355e-01</leafValues></_>
        <_>
          <internalNodes>
            0 -1 208 2.6126068085432053e-02</internalNodes>
          <leafValues>
            4.4342163950204849e-02 -1.4537580311298370e-01</leafValues></_>
        <_>
          <internalNodes>
            0 -1 203 6.7480579018592834e-03</internalNodes>
          <leafValues>
            -9.9301181733608246e-02 1.0449385643005371e-01</leafValues></_>
        <_>
          <internalNodes>
            0 -1 96 4.3677040375769138e-03</internalNodes>
          <leafValues>
            1.1056688427925110e-01 -5.4120142012834549e-02</leafValues></_>
        <_>
          <internalNodes>
            0 -1 267 1.2580911815166473e-01</internalNodes>
          <leafValues>
            1.2908974662423134e-02 -5.7405078411102295e-01</leafValues></_>
        <_>
          <internalNodes>
            0 -1 272 2.3387618362903595e-01</internalNodes>
          <leafValues>
            1.3768134638667107e-02 -3.9028689265251160e-01</leafValues></_>
        <_>
          <internalNodes>
            0 -1 330 1.1882232129573822e-01</internalNodes>
          <leafValues>
            -4.6871602535247803e-02 1.4053888618946075e-01</leafValues></_>
        <_>
          <internalNodes>
            0 -1 288 2.7100618463009596e-03</internalNodes>
          <leafValues>
            -1.9488498568534851e-01 3.4042604267597198e-02</leafValues></_>
        <_>
          <internalNodes>
            0 -1 40 3.8399126380681992e-02</internalNodes>
          <leafValues>
            -4.7507107257843018e-02 1.3157302141189575e-01</leafValues></_>
        <_>
          <internalNodes>
            0 -1 136 1.1035606265068054e-02</internalNodes>
          <leafValues>
            1.0385197401046753e-01 -5.9669345617294312e-02</leafValues></_></weakClassifiers></_>
    <!-- stage 8 -->
    <_>
      <maxWeakCount>100</maxWeakCount>
      <stageThreshold>-1.9498733282089233e+00</stageThreshold>
      <weakClassifiers>
        <_>
          <internalNodes>
            0 -1 232 4.1870297864079475e-03</internalNodes>
          <leafValues>
            -5.4574273526668549e-02 -5.1875281333923340e-01</leafValues></_>
        <_>
          <internalNodes>
            0 -1 94 7.3124077171087265e-03</internalNodes>
          <leafValues>
            1.7691123485565186e-01 -3.3488145470619202e-01</leafValues></_>
        <_>
          <internalNodes>
            0 -1 352 1.0182920843362808e-02</internalNodes>
          <leafValues>
            1.7777982354164124e-01 -2.4054859578609467e-01</leafValues></_>
        <_>
          <internalNodes>
            0 -1 295 4.9438928253948689e-03</internalNodes>
          <leafValues>
            2.2787323594093323e-01 -1.4845146238803864e-01</leafValues></_>
        <_>
          <internalNodes>
            0 -1 347 9.9538825452327728e-03</internalNodes>
          <leafValues>
            -3.5288947820663452e-01 1.0579302161931992e-01</leafValues></_>
        <_>
          <internalNodes>
            0 -1 62 1.0522253811359406e-02</internalNodes>
          <leafValues>
            1.4452004432678223e-01 -2.1779368817806244e-01</leafValues></_>
        <_>
          <internalNodes>
            0 -1 89 3.0466500669717789e-02</internalNodes>
          <leafValues>
            7.6162584125995636e-02 -4.0553829073905945e-01</leafValues></_>
        <_>
          <internalNodes>
            0 -1 78 6.1843181028962135e-03</internalNodes>
          <leafValues>
            1.2135738134384155e-01 -2.2466050088405609e-01</leafValues></_>
        <_>
          <internalNodes>
            0 -1 369 7.6344478875398636e-03</internalNodes>
          <leafValues>
            -3.0104431509971619e-01 8.5703097283840179e-02</leafValues></_>
        <_>
          <internalNodes>
            0 -1 303 1.4687659218907356e-02</internalNodes>
          <leafValues>
            7.6895214617252350e-02 -3.0593720078468323e-01</leafValues></_>
        <_>
          <internalNodes>
            0 -1 31 7.9378671944141388e-03</internalNodes>
          <leafValues>
            8.1770285964012146e-02 -2.0827966928482056e-01</leafValues></_>
        <_>
          <internalNodes>
            0 -1 294 4.4803917407989502e-03</internalNodes>
          <leafValues>
            -3.7840950489044189e-01 5.6039307266473770e-02</leafValues></_>
        <_>
          <internalNodes>
            0 -1 322 8.1432156264781952e-02</internalNodes>
          <leafValues>
            -6.4260430634021759e-02 3.2913187146186829e-01</leafValues></_>
        <_>
          <internalNodes>
            0 -1 6 1.2852942571043968e-02</internalNodes>
          <leafValues>
            7.8842610120773315e-02 -2.5425243377685547e-01</leafValues></_>
        <_>
          <internalNodes>
            0 -1 15 9.9862227216362953e-04</internalNodes>
          <leafValues>
            -4.1360908746719360e-01 2.6807919144630432e-02</leafValues></_>
        <_>
          <internalNodes>
            0 -1 354 8.7466631084680557e-03</internalNodes>
          <leafValues>
            -3.9995810389518738e-01 4.0820810943841934e-02</leafValues></_>
        <_>
          <internalNodes>
            0 -1 153 7.2102472186088562e-03</internalNodes>
          <leafValues>
            1.1386327445507050e-01 -1.4350883662700653e-01</leafValues></_>
        <_>
          <internalNodes>
            0 -1 286 7.4906721711158752e-02</internalNodes>
          <leafValues>
            4.7720376402139664e-02 -4.1176506876945496e-01</leafValues></_>
        <_>
          <internalNodes>
            0 -1 246 8.8793458417057991e-05</internalNodes>
          <leafValues>
            -4.8077830672264099e-01 2.9097273945808411e-02</leafValues></_>
        <_>
          <internalNodes>
            0 -1 340 1.1089687794446945e-01</internalNodes>
          <leafValues>
            -1.1757812649011612e-01 1.5766316652297974e-01</leafValues></_>
        <_>
          <internalNodes>
            0 -1 215 6.3077241182327271e-02</internalNodes>
          <leafValues>
            -4.6547960489988327e-02 3.5715311765670776e-01</leafValues></_>
        <_>
          <internalNodes>
            0 -1 8 1.5801186859607697e-01</internalNodes>
          <leafValues>
            2.0221587270498276e-02 -6.5887475013732910e-01</leafValues></_>
        <_>
          <internalNodes>
            0 -1 275 1.9821153953671455e-02</internalNodes>
          <leafValues>
            5.5828746408224106e-02 -2.1335627138614655e-01</leafValues></_>
        <_>
          <internalNodes>
            0 -1 160 1.1966567486524582e-02</internalNodes>
          <leafValues>
            1.1981996148824692e-01 -1.1002149432897568e-01</leafValues></_>
        <_>
          <internalNodes>
            0 -1 106 4.5481598936021328e-03</internalNodes>
          <leafValues>
            1.4714819192886353e-01 -1.0324834287166595e-01</leafValues></_>
        <_>
          <internalNodes>
            0 -1 261 1.0037462925538421e-03</internalNodes>
          <leafValues>
            -3.8634955883026123e-01 3.9405845105648041e-02</leafValues></_>
        <_>
          <internalNodes>
            0 -1 247 9.3478843569755554e-02</internalNodes>
          <leafValues>
            1.4830442145466805e-02 -6.6754573583602905e-01</leafValues></_>
        <_>
          <internalNodes>
            0 -1 337 5.4221369326114655e-02</internalNodes>
          <leafValues>
            -5.0129160284996033e-02 2.6702094078063965e-01</leafValues></_>
        <_>
          <internalNodes>
            0 -1 88 1.0763030499219894e-02</internalNodes>
          <leafValues>
            8.3817526698112488e-02 -1.7999985814094543e-01</leafValues></_>
        <_>
          <internalNodes>
            0 -1 168 3.2126583391800523e-04</internalNodes>
          <leafValues>
            -4.4182285666465759e-01 2.7653167024254799e-02</leafValues></_>
        <_>
          <internalNodes>
            0 -1 260 2.9420513659715652e-02</internalNodes>
          <leafValues>
            -4.9987424165010452e-02 2.4772992730140686e-01</leafValues></_>
        <_>
          <internalNodes>
            0 -1 14 1.5996631979942322e-01</internalNodes>
          <leafValues>
            -5.3688518702983856e-02 2.5302964448928833e-01</leafValues></_>
        <_>
          <internalNodes>
            0 -1 339 4.5795794576406479e-02</internalNodes>
          <leafValues>
