<?xml version="1.0"?>
<opencv_storage>
<!-- Created using Computer Vision System Toolbox(tm) for MATLAB(R) -->
<!-- Version 9.5.0.1033004 (R2018b) Update 2 -->
<!-- Compatible with OpenCV 3.4 -->
<cascade>
  <stageType>BOOST</stageType>
  <featureType>HOG</featureType>
  <height>32</height>
  <width>111</width>
  <stageParams>
    <boostType>GAB</boostType>
    <minHitRate>9.9699997901916504e-01</minHitRate>
    <maxFalseAlarm>2.0000000298023224e-01</maxFalseAlarm>
    <weightTrimRate>9.4999999999999996e-01</weightTrimRate>
    <maxDepth>1</maxDepth>
    <maxWeakCount>100</maxWeakCount></stageParams>
  <featureParams>
    <maxCatCount>0</maxCatCount>
    <featSize>36</featSize></featureParams>
  <stageNum>20</stageNum>
  <stages>
    <!-- stage 0 -->
    <_>
      <maxWeakCount>38</maxWeakCount>
      <stageThreshold>-2.0289852619171143e+00</stageThreshold>
      <weakClassifiers>
        <_>
          <internalNodes>
            0 -1 762 4.6842880547046661e-02</internalNodes>
          <leafValues>
            -7.1515148878097534e-01 2.5062388181686401e-01</leafValues></_>
        <_>
          <internalNodes>
            0 -1 715 8.0374367535114288e-03</internalNodes>
          <leafValues>
            5.5061662197113037e-01 -4.7086340188980103e-01</leafValues></_>
        <_>
          <internalNodes>
            0 -1 36 1.8174260854721069e-02</internalNodes>
          <leafValues>
            4.1152375936508179e-01 -5.0766116380691528e-01</leafValues></_>
        <_>
          <internalNodes>
            0 -1 527 3.2597951591014862e-02</internalNodes>
          <leafValues>
            -4.9745401740074158e-01 3.3584937453269958e-01</leafValues></_>
        <_>
          <internalNodes>
            0 -1 764 2.2472947835922241e-02</internalNodes>
          <leafValues>
            4.0206608176231384e-01 -4.6941700577735901e-01</leafValues></_>
        <_>
          <internalNodes>
            0 -1 4 6.7304149270057678e-03</internalNodes>
          <leafValues>
            2.9608875513076782e-01 -4.4526341557502747e-01</leafValues></_>
        <_>
          <internalNodes>
            0 -1 665 2.1505963057279587e-02</internalNodes>
          <leafValues>
            -4.0379619598388672e-01 3.4663775563240051e-01</leafValues></_>
        <_>
          <internalNodes>
            0 -1 569 1.8818382173776627e-02</internalNodes>
          <leafValues>
            3.2994952797889709e-01 -3.6698818206787109e-01</leafValues></_>
        <_>
          <internalNodes>
            0 -1 1052 2.6526682078838348e-02</internalNodes>
          <leafValues>
            -4.1729646921157837e-01 2.6954096555709839e-01</leafValues></_>
        <_>
          <internalNodes>
            0 -1 1089 5.0284778699278831e-03</internalNodes>
          <leafValues>
            -6.5995675325393677e-01 1.2873370945453644e-01</leafValues></_>
        <_>
          <internalNodes>
            0 -1 386 4.4184401631355286e-03</internalNodes>
          <leafValues>
            3.6786040663719177e-01 -3.1667682528495789e-01</leafValues></_>
        <_>
          <internalNodes>
            0 -1 57 1.8477287143468857e-02</internalNodes>
          <leafValues>
            1.8283355236053467e-01 -4.4860705733299255e-01</leafValues></_>
        <_>
          <internalNodes>
            0 -1 627 2.7360910549759865e-02</internalNodes>
          <leafValues>
            -3.3359143137931824e-01 2.3543232679367065e-01</leafValues></_>
        <_>
          <internalNodes>
            0 -1 1183 5.1035871729254723e-03</internalNodes>
          <leafValues>
            -6.4012229442596436e-01 1.0984073579311371e-01</leafValues></_>
        <_>
          <internalNodes>
            0 -1 424 5.3685768507421017e-03</internalNodes>
          <leafValues>
            3.1912940740585327e-01 -2.4097329378128052e-01</leafValues></_>
        <_>
          <internalNodes>
            0 -1 615 2.3310922086238861e-02</internalNodes>
          <leafValues>
            -2.8113126754760742e-01 2.7149140834808350e-01</leafValues></_>
        <_>
          <internalNodes>
            0 -1 156 1.2450591661036015e-02</internalNodes>
          <leafValues>
            2.2258444130420685e-01 -3.3172705769538879e-01</leafValues></_>
        <_>
          <internalNodes>
            0 -1 628 6.0652736574411392e-03</internalNodes>
          <leafValues>
            3.3350768685340881e-01 -1.6219751536846161e-01</leafValues></_>
        <_>
          <internalNodes>
            0 -1 854 3.5129126161336899e-02</internalNodes>
          <leafValues>
            -1.6922716796398163e-01 3.6117196083068848e-01</leafValues></_>
        <_>
          <internalNodes>
            0 -1 1167 6.1028627678751945e-03</internalNodes>
          <leafValues>
            -5.8899319171905518e-01 1.0355789959430695e-01</leafValues></_>
        <_>
          <internalNodes>
            0 -1 293 4.3820589780807495e-03</internalNodes>
          <leafValues>
            2.8120309114456177e-01 -2.0043353736400604e-01</leafValues></_>
        <_>
          <internalNodes>
            0 -1 336 7.1078133769333363e-03</internalNodes>
          <leafValues>
            3.2844594120979309e-01 -1.3854214549064636e-01</leafValues></_>
        <_>
          <internalNodes>
            0 -1 167 3.7098079919815063e-02</internalNodes>
          <leafValues>
            1.4097324013710022e-01 -3.4738075733184814e-01</leafValues></_>
        <_>
          <internalNodes>
            0 -1 227 3.9332635700702667e-02</internalNodes>
          <leafValues>
            -2.0594389736652374e-01 2.3874977231025696e-01</leafValues></_>
        <_>
          <internalNodes>
            0 -1 794 4.1734028607606888e-02</internalNodes>
          <leafValues>
            7.7433489263057709e-02 -6.5180325508117676e-01</leafValues></_>
        <_>
          <internalNodes>
            0 -1 516 6.4042806625366211e-02</internalNodes>
          <leafValues>
            6.8107083439826965e-02 -5.6215602159500122e-01</leafValues></_>
        <_>
          <internalNodes>
            0 -1 1068 3.4938439726829529e-02</internalNodes>
          <leafValues>
            1.6695064306259155e-01 -2.9253798723220825e-01</leafValues></_>
        <_>
          <internalNodes>
            0 -1 1018 2.2308807820081711e-02</internalNodes>
          <leafValues>
            -2.6276138424873352e-01 1.6704043745994568e-01</leafValues></_>
        <_>
          <internalNodes>
            0 -1 41 5.6565366685390472e-03</internalNodes>
          <leafValues>
            2.6850441098213196e-01 -1.9074067473411560e-01</leafValues></_>
        <_>
          <internalNodes>
            0 -1 1001 1.0342024266719818e-01</internalNodes>
          <leafValues>
            6.7344389855861664e-02 -7.3059517145156860e-01</leafValues></_>
        <_>
          <internalNodes>
            0 -1 385 1.6088653355836868e-02</internalNodes>
          <leafValues>
            1.2747155129909515e-01 -3.2989561557769775e-01</leafValues></_>
        <_>
          <internalNodes>
            0 -1 760 7.7616572380065918e-02</internalNodes>
          <leafValues>
            -1.0744225978851318e-01 3.7175846099853516e-01</leafValues></_>
        <_>
          <internalNodes>
            0 -1 588 1.5372300520539284e-02</internalNodes>
          <leafValues>
            -2.3685947060585022e-01 1.9563256204128265e-01</leafValues></_>
        <_>
          <internalNodes>
            0 -1 427 3.3534079790115356e-02</internalNodes>
          <leafValues>
            7.9545892775058746e-02 -5.2116447687149048e-01</leafValues></_>
        <_>
          <internalNodes>
            0 -1 534 4.8722021281719208e-02</internalNodes>
          <leafValues>
            5.3595941513776779e-02 -6.5019667148590088e-01</leafValues></_>
        <_>
          <internalNodes>
            0 -1 670 7.7120885252952576e-02</internalNodes>
          <leafValues>
            5.2931372076272964e-02 -6.0167044401168823e-01</leafValues></_>
        <_>
          <internalNodes>
            0 -1 748 3.0711170285940170e-02</internalNodes>
          <leafValues>
            7.5565129518508911e-02 -4.6195665001869202e-01</leafValues></_>
        <_>
          <internalNodes>
            0 -1 766 3.4507401287555695e-02</internalNodes>
          <leafValues>
            6.3456550240516663e-02 -5.4989051818847656e-01</leafValues></_></weakClassifiers></_>
    <!-- stage 1 -->
    <_>
      <maxWeakCount>66</maxWeakCount>
      <stageThreshold>-1.7526234388351440e+00</stageThreshold>
      <weakClassifiers>
        <_>
          <internalNodes>
            0 -1 895 4.3203912675380707e-02</internalNodes>
          <leafValues>
            -5.4842442274093628e-01 2.5203251838684082e-01</leafValues></_>
        <_>
          <internalNodes>
            0 -1 638 1.0298380628228188e-02</internalNodes>
          <leafValues>
            3.7910726666450500e-01 -4.2867034673690796e-01</leafValues></_>
        <_>
          <internalNodes>
            0 -1 653 4.2531609535217285e-02</internalNodes>
          <leafValues>
            -4.6710351109504700e-01 3.3844780921936035e-01</leafValues></_>
        <_>
          <internalNodes>
            0 -1 682 2.4933259934186935e-02</internalNodes>
          <leafValues>
            2.8997007012367249e-01 -4.5777451992034912e-01</leafValues></_>
        <_>
          <internalNodes>
            0 -1 859 3.9568416774272919e-02</internalNodes>
          <leafValues>
            -3.9052087068557739e-01 2.7885946631431580e-01</leafValues></_>
        <_>
          <internalNodes>
            0 -1 852 3.6039289087057114e-02</internalNodes>
          <leafValues>
            2.6455152034759521e-01 -4.8583588004112244e-01</leafValues></_>
        <_>
          <internalNodes>
            0 -1 16 3.8064870983362198e-02</internalNodes>
          <leafValues>
            1.1707992106676102e-01 -6.4184439182281494e-01</leafValues></_>
        <_>
          <internalNodes>
            0 -1 5 6.7686499096453190e-03</internalNodes>
          <leafValues>
            2.3523356020450592e-01 -3.5622459650039673e-01</leafValues></_>
        <_>
          <internalNodes>
            0 -1 544 1.9581887871026993e-02</internalNodes>
          <leafValues>
            -3.4173732995986938e-01 2.5081658363342285e-01</leafValues></_>
        <_>
          <internalNodes>
            0 -1 762 6.9463789463043213e-02</internalNodes>
          <leafValues>
            -1.8921437859535217e-01 3.2335743308067322e-01</leafValues></_>
        <_>
          <internalNodes>
            0 -1 631 2.7210665866732597e-02</internalNodes>
          <leafValues>
            2.1575108170509338e-01 -3.5191616415977478e-01</leafValues></_>
        <_>
          <internalNodes>
            0 -1 527 4.5740537345409393e-02</internalNodes>
          <leafValues>
            -2.7041319012641907e-01 2.2045893967151642e-01</leafValues></_>
        <_>
          <internalNodes>
            0 -1 583 6.2015324831008911e-02</internalNodes>
          <leafValues>
            1.1714335530996323e-01 -6.2767070531845093e-01</leafValues></_>
        <_>
          <internalNodes>
            0 -1 425 1.0301822796463966e-02</internalNodes>
          <leafValues>
            1.8568745255470276e-01 -3.1310832500457764e-01</leafValues></_>
        <_>
          <internalNodes>
            0 -1 543 3.5462889820337296e-02</internalNodes>
          <leafValues>
            -1.8164996802806854e-01 3.3203011751174927e-01</leafValues></_>
        <_>
          <internalNodes>
            0 -1 1002 4.6394601464271545e-02</internalNodes>
          <leafValues>
            -1.0849957913160324e-01 4.8451200127601624e-01</leafValues></_>
        <_>
          <internalNodes>
            0 -1 942 6.5969258546829224e-02</internalNodes>
          <leafValues>
            -1.7467635869979858e-01 3.5276791453361511e-01</leafValues></_>
        <_>
          <internalNodes>
            0 -1 1173 7.5367111712694168e-03</internalNodes>
          <leafValues>
            -4.8049557209014893e-01 1.0284836590290070e-01</leafValues></_>
        <_>
          <internalNodes>
            0 -1 387 1.4785745879635215e-03</internalNodes>
          <leafValues>
            3.3830684423446655e-01 -1.8675115704536438e-01</leafValues></_>
        <_>
          <internalNodes>
            0 -1 42 2.2395638749003410e-02</internalNodes>
          <leafValues>
            1.2873320281505585e-01 -3.2442912459373474e-01</leafValues></_>
        <_>
          <internalNodes>
            0 -1 666 2.6188399642705917e-02</internalNodes>
          <leafValues>
            -1.7207254469394684e-01 2.8336659073829651e-01</leafValues></_>
        <_>
          <internalNodes>
            0 -1 897 3.7554275244474411e-02</internalNodes>
          <leafValues>
            7.6177731156349182e-02 -5.0720739364624023e-01</leafValues></_>
        <_>
          <internalNodes>
            0 -1 1043 1.2156926095485687e-02</internalNodes>
          <leafValues>
            -2.5980740785598755e-01 1.5112869441509247e-01</leafValues></_>
        <_>
          <internalNodes>
            0 -1 57 8.6983200162649155e-03</internalNodes>
          <leafValues>
            1.5637570619583130e-01 -2.4755018949508667e-01</leafValues></_>
        <_>
          <internalNodes>
            0 -1 787 4.1212305426597595e-02</internalNodes>
          <leafValues>
            -1.0951489210128784e-01 2.8704178333282471e-01</leafValues></_>
        <_>
          <internalNodes>
            0 -1 934 3.7309322506189346e-02</internalNodes>
          <leafValues>
            6.4999893307685852e-02 -5.0618165731430054e-01</leafValues></_>
        <_>
          <internalNodes>
            0 -1 82 1.0576669126749039e-02</internalNodes>
          <leafValues>
            2.2732536494731903e-01 -1.4656503498554230e-01</leafValues></_>
        <_>
          <internalNodes>
            0 -1 1157 1.9704785197973251e-02</internalNodes>
          <leafValues>
            -2.8739941120147705e-01 1.3002523779869080e-01</leafValues></_>
        <_>
          <internalNodes>
            0 -1 1065 4.0089555084705353e-02</internalNodes>
          <leafValues>
            -1.0533590614795685e-01 3.3133360743522644e-01</leafValues></_>
        <_>
          <internalNodes>
            0 -1 150 3.7115723825991154e-03</internalNodes>
          <leafValues>
            3.3060896396636963e-01 -9.2676356434822083e-02</leafValues></_>
        <_>
          <internalNodes>
            0 -1 1155 5.6747626513242722e-03</internalNodes>
          <leafValues>
            -4.2273655533790588e-01 8.0852866172790527e-02</leafValues></_>
        <_>
          <internalNodes>
            0 -1 849 1.1120140552520752e-03</internalNodes>
          <leafValues>
            4.1022264957427979e-01 -1.0138426721096039e-01</leafValues></_>
        <_>
          <internalNodes>
            0 -1 827 2.2744141519069672e-02</internalNodes>
          <leafValues>
            -2.4808861315250397e-01 1.1833433061838150e-01</leafValues></_>
        <_>
          <internalNodes>
            0 -1 314 4.8268929123878479e-02</internalNodes>
          <leafValues>
            -6.6987462341785431e-02 4.0498557686805725e-01</leafValues></_>
        <_>
          <internalNodes>
            0 -1 824 3.8842417299747467e-02</internalNodes>
          <leafValues>
            4.8259112983942032e-02 -5.7821446657180786e-01</leafValues></_>
        <_>
          <internalNodes>
            0 -1 1152 1.3098788913339376e-03</internalNodes>
          <leafValues>
            -7.0341610908508301e-01 3.3288441598415375e-02</leafValues></_>
        <_>
          <internalNodes>
            0 -1 1020 6.7845568992197514e-04</internalNodes>
          <leafValues>
            5.6381851434707642e-01 -7.1958906948566437e-02</leafValues></_>
        <_>
          <internalNodes>
            0 -1 596 5.6701693683862686e-02</internalNodes>
          <leafValues>
            -1.1853865534067154e-01 2.2683300077915192e-01</leafValues></_>
        <_>
          <internalNodes>
            0 -1 484 3.0623940750956535e-02</internalNodes>
          <leafValues>
            -8.9369624853134155e-02 3.1023278832435608e-01</leafValues></_>
        <_>
          <internalNodes>
            0 -1 374 4.5933788642287254e-03</internalNodes>
          <leafValues>
            3.0402821302413940e-01 -9.0488962829113007e-02</leafValues></_>
        <_>
          <internalNodes>
            0 -1 1108 4.9607530236244202e-03</internalNodes>
          <leafValues>
            -3.2040280103683472e-01 9.0267658233642578e-02</leafValues></_>
        <_>
          <internalNodes>
            0 -1 237 1.3349256478250027e-02</internalNodes>
          <leafValues>
            1.1925782263278961e-01 -2.1117521822452545e-01</leafValues></_>
        <_>
          <internalNodes>
            0 -1 435 5.9637144207954407e-02</internalNodes>
          <leafValues>
            5.1043130457401276e-02 -5.6533795595169067e-01</leafValues></_>
        <_>
          <internalNodes>
            0 -1 941 4.5512761920690536e-02</internalNodes>
          <leafValues>
            -9.2024676501750946e-02 2.8699749708175659e-01</leafValues></_>
        <_>
          <internalNodes>
            0 -1 987 2.9720850288867950e-02</internalNodes>
          <leafValues>
            -1.4521938562393188e-01 1.8695913255214691e-01</leafValues></_>
        <_>
          <internalNodes>
            0 -1 1027 4.4166660518385470e-04</internalNodes>
          <leafValues>
            4.3932697176933289e-01 -5.5968403816223145e-02</leafValues></_>
        <_>
          <internalNodes>
            0 -1 1132 3.7359187845140696e-03</internalNodes>
          <leafValues>
            -3.7365347146987915e-01 7.3210686445236206e-02</leafValues></_>
        <_>
          <internalNodes>
            0 -1 285 1.2404946610331535e-02</internalNodes>
          <leafValues>
            1.9168114662170410e-01 -1.3450632989406586e-01</leafValues></_>
        <_>
          <internalNodes>
            0 -1 794 3.3803574740886688e-02</internalNodes>
          <leafValues>
            5.9445947408676147e-02 -4.3192297220230103e-01</leafValues></_>
        <_>
          <internalNodes>
            0 -1 202 6.6651776432991028e-02</internalNodes>
          <leafValues>
            -5.2430298179388046e-02 4.7400256991386414e-01</leafValues></_>
        <_>
          <internalNodes>
            0 -1 766 4.0015906095504761e-02</internalNodes>
          <leafValues>
            4.5394733548164368e-02 -5.7497674226760864e-01</leafValues></_>
        <_>
          <internalNodes>
            0 -1 788 5.6320726871490479e-02</internalNodes>
          <leafValues>
            -6.1289962381124496e-02 4.2720589041709900e-01</leafValues></_>
        <_>
          <internalNodes>
            0 -1 140 3.2803378999233246e-02</internalNodes>
          <leafValues>
            6.2413182109594345e-02 -3.7830811738967896e-01</leafValues></_>
        <_>
          <internalNodes>
            0 -1 990 3.6457560956478119e-02</internalNodes>
          <leafValues>
            5.3393997251987457e-02 -3.8972732424736023e-01</leafValues></_>
        <_>
          <internalNodes>
            0 -1 1057 5.0895929336547852e-02</internalNodes>
          <leafValues>
            -6.9876283407211304e-02 3.7762373685836792e-01</leafValues></_>
        <_>
          <internalNodes>
            0 -1 1066 5.6901097297668457e-02</internalNodes>
          <leafValues>
            -4.5059286057949066e-02 4.7560042142868042e-01</leafValues></_>
        <_>
          <internalNodes>
            0 -1 18 3.3536151051521301e-02</internalNodes>
          <leafValues>
            5.2236512303352356e-02 -4.3105092644691467e-01</leafValues></_>
        <_>
          <internalNodes>
            0 -1 104 1.3746890425682068e-01</internalNodes>
          <leafValues>
            3.6178831011056900e-02 -5.6133735179901123e-01</leafValues></_>
        <_>
          <internalNodes>
            0 -1 35 5.0434647127985954e-03</internalNodes>
          <leafValues>
            1.4594525098800659e-01 -1.4327210187911987e-01</leafValues></_>
        <_>
          <internalNodes>
            0 -1 447 2.7400087565183640e-02</internalNodes>
          <leafValues>
            -7.5927704572677612e-02 2.8506880998611450e-01</leafValues></_>
        <_>
          <internalNodes>
            0 -1 590 5.3199030458927155e-02</internalNodes>
          <leafValues>
            3.4091081470251083e-02 -6.5860474109649658e-01</leafValues></_>
        <_>
          <internalNodes>
            0 -1 614 1.2193813920021057e-01</internalNodes>
          <leafValues>
            2.5643905624747276e-02 -6.8601483106613159e-01</leafValues></_>
        <_>
          <internalNodes>
            0 -1 852 3.7081029266119003e-02</internalNodes>
          <leafValues>
            -9.6216201782226563e-02 2.4991025030612946e-01</leafValues></_>
        <_>
          <internalNodes>
            0 -1 68 2.3954574018716812e-02</internalNodes>
          <leafValues>
            7.8635990619659424e-02 -2.7493992447853088e-01</leafValues></_>
        <_>
          <internalNodes>
            0 -1 522 1.0181831195950508e-02</internalNodes>
          <leafValues>
            -2.8068554401397705e-01 8.1220299005508423e-02</leafValues></_>
        <_>
          <internalNodes>
            0 -1 532 1.4333030581474304e-01</internalNodes>
          <leafValues>
            -4.6042528003454208e-02 5.9323531389236450e-01</leafValues></_></weakClassifiers></_>
    <!-- stage 2 -->
    <_>
      <maxWeakCount>100</maxWeakCount>
      <stageThreshold>-1.7896114587783813e+00</stageThreshold>
      <weakClassifiers>
        <_>
          <internalNodes>
            0 -1 814 3.5099349915981293e-02</internalNodes>
          <leafValues>
            -7.0879948139190674e-01 -5.9139128774404526e-02</leafValues></_>
        <_>
          <internalNodes>
            0 -1 616 3.2184064388275146e-02</internalNodes>
          <leafValues>
            -3.1170418858528137e-01 3.4704020619392395e-01</leafValues></_>
        <_>
          <internalNodes>
            0 -1 1001 3.0985491350293159e-02</internalNodes>
          <leafValues>
            1.7567041516304016e-01 -4.7339969873428345e-01</leafValues></_>
        <_>
          <internalNodes>
            0 -1 782 3.9573956280946732e-02</internalNodes>
          <leafValues>
            -3.6673790216445923e-01 2.6201552152633667e-01</leafValues></_>
        <_>
          <internalNodes>
            0 -1 956 1.6881156712770462e-02</internalNodes>
          <leafValues>
            2.6652649044990540e-01 -3.3268597722053528e-01</leafValues></_>
        <_>
          <internalNodes>
            0 -1 522 4.3883264064788818e-02</internalNodes>
          <leafValues>
            -1.7896671593189240e-01 3.8140264153480530e-01</leafValues></_>
        <_>
          <internalNodes>
            0 -1 1158 6.9558350369334221e-03</internalNodes>
          <leafValues>
            -6.9968515634536743e-01 8.3085119724273682e-02</leafValues></_>
        <_>
          <internalNodes>
            0 -1 58 5.8537311851978302e-03</internalNodes>
          <leafValues>
            2.2562645375728607e-01 -2.9203340411186218e-01</leafValues></_>
        <_>
          <internalNodes>
            0 -1 566 2.5149971246719360e-02</internalNodes>
          <leafValues>
            1.0213879495859146e-01 -5.1810616254806519e-01</leafValues></_>
        <_>
          <internalNodes>
            0 -1 429 4.0939025580883026e-02</internalNodes>
          <leafValues>
            1.0950522869825363e-01 -5.2931404113769531e-01</leafValues></_>
        <_>
          <internalNodes>
            0 -1 1097 4.4325310736894608e-03</internalNodes>
          <leafValues>
            -6.0075777769088745e-01 8.4741160273551941e-02</leafValues></_>
        <_>
          <internalNodes>
            0 -1 491 5.4368574172258377e-02</internalNodes>
          <leafValues>
            9.1605551540851593e-02 -4.7849798202514648e-01</leafValues></_>
        <_>
          <internalNodes>
            0 -1 926 5.9104762971401215e-02</internalNodes>
          <leafValues>
            -1.9266831874847412e-01 2.6675552129745483e-01</leafValues></_>
        <_>
          <internalNodes>
            0 -1 3 7.7925641089677811e-03</internalNodes>
          <leafValues>
            1.2751622498035431e-01 -3.2616195082664490e-01</leafValues></_>
        <_>
          <internalNodes>
            0 -1 717 3.0129389837384224e-02</internalNodes>
          <leafValues>
            -1.7384837567806244e-01 2.0335422456264496e-01</leafValues></_>
        <_>
          <internalNodes>
            0 -1 771 8.5756786575075239e-05</internalNodes>
          <leafValues>
            4.3740540742874146e-01 -8.5807748138904572e-02</leafValues></_>
        <_>
          <internalNodes>
            0 -1 1109 4.9776057712733746e-03</internalNodes>
          <leafValues>
            -5.1080071926116943e-01 7.0520140230655670e-02</leafValues></_>
        <_>
          <internalNodes>
            0 -1 152 5.6504835374653339e-03</internalNodes>
          <leafValues>
            1.8749174475669861e-01 -1.6461390256881714e-01</leafValues></_>
        <_>
          <internalNodes>
            0 -1 1005 2.7413241565227509e-02</internalNodes>
          <leafValues>
            -2.4283845722675323e-01 1.5624001622200012e-01</leafValues></_>
        <_>
          <internalNodes>
            0 -1 428 7.0326074957847595e-02</internalNodes>
          <leafValues>
            3.3554606139659882e-02 -7.4610054492950439e-01</leafValues></_>
        <_>
          <internalNodes>
            0 -1 426 6.7511066794395447e-02</internalNodes>
          <leafValues>
            5.5879972875118256e-02 -4.4080293178558350e-01</leafValues></_>
        <_>
          <internalNodes>
            0 -1 436 7.9507276415824890e-02</internalNodes>
          <leafValues>
            4.8956569284200668e-02 -5.2148038148880005e-01</leafValues></_>
        <_>
          <internalNodes>
            0 -1 423 2.5299997068941593e-03</internalNodes>
          <leafValues>
            2.0778879523277283e-01 -1.3410042226314545e-01</leafValues></_>
        <_>
          <internalNodes>
            0 -1 536 2.1757144480943680e-02</internalNodes>
          <leafValues>
            -1.6816553473472595e-01 1.8694210052490234e-01</leafValues></_>
        <_>
          <internalNodes>
            0 -1 664 9.6026964485645294e-02</internalNodes>
          <leafValues>
            -9.0077430009841919e-02 2.9778689146041870e-01</leafValues></_>
        <_>
          <internalNodes>
            0 -1 1157 1.5308912843465805e-02</internalNodes>
          <leafValues>
            -3.0296525359153748e-01 9.1119468212127686e-02</leafValues></_>
        <_>
          <internalNodes>
            0 -1 136 6.6000986844301224e-03</internalNodes>
          <leafValues>
            2.7244547009468079e-01 -1.1204449832439423e-01</leafValues></_>
        <_>
          <internalNodes>
            0 -1 789 5.6797064840793610e-02</internalNodes>
          <leafValues>
            -7.4563197791576385e-02 3.3082684874534607e-01</leafValues></_>
        <_>
          <internalNodes>
            0 -1 819 2.6614936068654060e-02</internalNodes>
          <leafValues>
            6.9157958030700684e-02 -3.8770961761474609e-01</leafValues></_>
        <_>
          <internalNodes>
            0 -1 413 1.2666803598403931e-01</internalNodes>
          <leafValues>
            2.7549158781766891e-02 -7.0135128498077393e-01</leafValues></_>
        <_>
          <internalNodes>
            0 -1 1040 5.3172789514064789e-02</internalNodes>
          <leafValues>
            -7.5549855828285217e-02 3.1890010833740234e-01</leafValues></_>
        <_>
          <internalNodes>
            0 -1 328 1.9787151366472244e-02</internalNodes>
          <leafValues>
            9.2922747135162354e-02 -2.4657326936721802e-01</leafValues></_>
        <_>
          <internalNodes>
            0 -1 587 5.5103681981563568e-02</internalNodes>
          <leafValues>
            -8.2104444503784180e-02 2.8018635511398315e-01</leafValues></_>
        <_>
          <internalNodes>
            0 -1 605 2.2572784125804901e-01</internalNodes>
          <leafValues>
            -3.2385285943746567e-02 6.6937690973281860e-01</leafValues></_>
        <_>
          <internalNodes>
            0 -1 1085 3.7417481653392315e-03</internalNodes>
          <leafValues>
            -3.8281923532485962e-01 6.0172691941261292e-02</leafValues></_>
        <_>
          <internalNodes>
            0 -1 50 3.4038245677947998e-02</internalNodes>
          <leafValues>
            6.0241326689720154e-02 -3.5492065548896790e-01</leafValues></_>
        <_>
          <internalNodes>
            0 -1 878 1.0504092276096344e-01</internalNodes>
          <leafValues>
            3.0739059671759605e-02 -5.8965760469436646e-01</leafValues></_>
        <_>
          <internalNodes>
            0 -1 807 1.4109832700341940e-03</internalNodes>
          <leafValues>
            4.2803192138671875e-01 -5.0222449004650116e-02</leafValues></_>
        <_>
          <internalNodes>
            0 -1 667 1.2773629277944565e-03</internalNodes>
          <leafValues>
            -3.5164114832878113e-01 6.7583568394184113e-02</leafValues></_>
        <_>
          <internalNodes>
            0 -1 568 2.5231094332411885e-04</internalNodes>
          <leafValues>
            4.8919096589088440e-01 -6.5899066627025604e-02</leafValues></_>
        <_>
          <internalNodes>
            0 -1 969 1.2106711510568857e-03</internalNodes>
          <leafValues>
            -4.2442822456359863e-01 5.4042372852563858e-02</leafValues></_>
        <_>
          <internalNodes>
            0 -1 384 9.4203476328402758e-04</internalNodes>
          <leafValues>
            2.1544376015663147e-01 -8.9270338416099548e-02</leafValues></_>
        <_>
          <internalNodes>
            0 -1 1137 7.4758641421794891e-03</internalNodes>
          <leafValues>
            -3.3406716585159302e-01 7.1802072227001190e-02</leafValues></_>
        <_>
          <internalNodes>
            0 -1 147 1.5781641006469727e-02</internalNodes>
          <leafValues>
            1.2747566401958466e-01 -1.6152988374233246e-01</leafValues></_>
        <_>
          <internalNodes>
            0 -1 803 6.1104600317776203e-03</internalNodes>
          <leafValues>
            -3.1506818532943726e-01 5.2041139453649521e-02</leafValues></_>
        <_>
          <internalNodes>
            0 -1 175 1.8314953893423080e-02</internalNodes>
          <leafValues>
            1.3181376457214355e-01 -1.4454695582389832e-01</leafValues></_>
        <_>
          <internalNodes>
            0 -1 570 4.2206153273582458e-02</internalNodes>
          <leafValues>
            -7.5891502201557159e-02 2.2277805209159851e-01</leafValues></_>
        <_>
          <internalNodes>
            0 -1 1134 3.1440950930118561e-02</internalNodes>
          <leafValues>
            -6.3935860991477966e-02 2.6175436377525330e-01</leafValues></_>
        <_>
          <internalNodes>
            0 -1 964 3.9133481681346893e-02</internalNodes>
          <leafValues>
            3.1713597476482391e-02 -5.6871861219406128e-01</leafValues></_>
        <_>
          <internalNodes>
            0 -1 218 2.2160129621624947e-02</internalNodes>
          <leafValues>
            9.2885091900825500e-02 -1.6446802020072937e-01</leafValues></_>
        <_>
          <internalNodes>
            0 -1 782 3.9376445114612579e-02</internalNodes>
          <leafValues>
            1.5286132693290710e-01 -1.0398997366428375e-01</leafValues></_>
        <_>
          <internalNodes>
            0 -1 172 5.9412430971860886e-02</internalNodes>
          <leafValues>
            -9.9742516875267029e-02 1.6176511347293854e-01</leafValues></_>
        <_>
          <internalNodes>
            0 -1 292 1.4385092072188854e-04</internalNodes>
          <leafValues>
            2.2670471668243408e-01 -6.6877961158752441e-02</leafValues></_>
        <_>
          <internalNodes>
            0 -1 692 8.6549989646300673e-04</internalNodes>
          <leafValues>
            -3.8020023703575134e-01 5.5189020931720734e-02</leafValues></_>
        <_>
          <internalNodes>
            0 -1 713 1.8441841530147940e-04</internalNodes>
          <leafValues>
            2.8641510009765625e-01 -5.4873462766408920e-02</leafValues></_>
        <_>
          <internalNodes>
            0 -1 7 7.0366854779422283e-03</internalNodes>
          <leafValues>
            -2.5076177716255188e-01 7.7436007559299469e-02</leafValues></_>
        <_>
          <internalNodes>
            0 -1 302 1.0307461954653263e-02</internalNodes>
          <leafValues>
            1.8327955901622772e-01 -8.6733654141426086e-02</leafValues></_>
        <_>
          <internalNodes>
            0 -1 1144 1.1910631321370602e-02</internalNodes>
          <leafValues>
            -2.8826138377189636e-01 5.3168796002864838e-02</leafValues></_>
        <_>
          <internalNodes>
            0 -1 405 1.7929680179804564e-03</internalNodes>
          <leafValues>
            3.4403222799301147e-01 -4.8951018601655960e-02</leafValues></_>
        <_>
          <internalNodes>
            0 -1 343 3.3949594944715500e-03</internalNodes>
          <leafValues>
            -3.0982145667076111e-01 5.1087375730276108e-02</leafValues></_>
        <_>
          <internalNodes>
            0 -1 708 6.7536041140556335e-02</internalNodes>
          <leafValues>
            5.1119875162839890e-02 -3.0929863452911377e-01</leafValues></_>
        <_>
          <internalNodes>
            0 -1 135 9.7955837845802307e-03</internalNodes>
          <leafValues>
            1.7241564393043518e-01 -1.0037406533956528e-01</leafValues></_>
        <_>
          <internalNodes>
            0 -1 926 1.3314580544829369e-02</internalNodes>
          <leafValues>
            -2.7351826429367065e-01 5.6634642183780670e-02</leafValues></_>
        <_>
          <internalNodes>
            0 -1 747 3.1728993635624647e-03</internalNodes>
          <leafValues>
            1.7380398511886597e-01 -9.9388808012008667e-02</leafValues></_>
        <_>
          <internalNodes>
            0 -1 1178 2.4419274181127548e-02</internalNodes>
          <leafValues>
            1.8695072829723358e-01 -8.8701039552688599e-02</leafValues></_>
        <_>
          <internalNodes>
            0 -1 893 1.7015491612255573e-03</internalNodes>
          <leafValues>
            -3.2851904630661011e-01 5.3634338080883026e-02</leafValues></_>
        <_>
          <internalNodes>
            0 -1 1195 1.4027296856511384e-05</internalNodes>
          <leafValues>
            7.4774193763732910e-01 -2.1592831239104271e-02</leafValues></_>
        <_>
          <internalNodes>
            0 -1 1083 5.6363185867667198e-03</internalNodes>
          <leafValues>
            -4.0933611989021301e-01 5.6623816490173340e-02</leafValues></_>
        <_>
          <internalNodes>
            0 -1 73 4.5751929283142090e-02</internalNodes>
          <leafValues>
            -6.1979141086339951e-02 3.0441293120384216e-01</leafValues></_>
        <_>
          <internalNodes>
            0 -1 488 7.8926280140876770e-02</internalNodes>
          <leafValues>
            2.0136538892984390e-02 -9.0134096145629883e-01</leafValues></_>
        <_>
          <internalNodes>
            0 -1 45 7.8172482550144196e-02</internalNodes>
          <leafValues>
            -4.9021452665328979e-02 3.8925930857658386e-01</leafValues></_>
        <_>
          <internalNodes>
            0 -1 909 6.3871423481032252e-04</internalNodes>
          <leafValues>
            -3.4362679719924927e-01 4.7354921698570251e-02</leafValues></_>
        <_>
          <internalNodes>
            0 -1 783 9.8447152413427830e-04</internalNodes>
          <leafValues>
            4.2955857515335083e-01 -5.1159642636775970e-02</leafValues></_>
        <_>
          <internalNodes>
            0 -1 462 9.6492221928201616e-05</internalNodes>
          <leafValues>
            -9.0010231733322144e-01 1.4140768907964230e-02</leafValues></_>
        <_>
          <internalNodes>
            0 -1 257 3.9801225066184998e-03</internalNodes>
          <leafValues>
            1.6285552084445953e-01 -1.0540030896663666e-01</leafValues></_>
        <_>
          <internalNodes>
            0 -1 686 2.7159256860613823e-02</internalNodes>
          <leafValues>
            4.0789104998111725e-02 -3.6508017778396606e-01</leafValues></_>
        <_>
          <internalNodes>
            0 -1 1079 1.2491588294506073e-01</internalNodes>
          <leafValues>
            1.4613261446356773e-02 -8.4870213270187378e-01</leafValues></_>
        <_>
          <internalNodes>
            0 -1 4 1.3199836015701294e-02</internalNodes>
          <leafValues>
            5.9165857732295990e-02 -2.3526610434055328e-01</leafValues></_>
        <_>
          <internalNodes>
            0 -1 483 1.5912532806396484e-01</internalNodes>
          <leafValues>
            2.2291786968708038e-02 -5.8038514852523804e-01</leafValues></_>
        <_>
          <internalNodes>
            0 -1 212 1.1223535984754562e-03</internalNodes>
          <leafValues>
            -2.6881799101829529e-01 5.0131566822528839e-02</leafValues></_>
        <_>
          <internalNodes>
            0 -1 42 8.8753635063767433e-03</internalNodes>
          <leafValues>
            1.0571483522653580e-01 -1.3324555754661560e-01</leafValues></_>
        <_>
          <internalNodes>
            0 -1 88 3.2392371445894241e-02</internalNodes>
          <leafValues>
            -7.6289676129817963e-02 2.2408896684646606e-01</leafValues></_>
        <_>
          <internalNodes>
            0 -1 422 9.9044837057590485e-02</internalNodes>
          <leafValues>
            3.3552110195159912e-02 -4.2194253206253052e-01</leafValues></_>
        <_>
          <internalNodes>
            0 -1 870 8.9071551337838173e-03</internalNodes>
          <leafValues>
            -2.5258758664131165e-01 5.9027649462223053e-02</leafValues></_>
        <_>
          <internalNodes>
            0 -1 700 1.8039175774902105e-03</internalNodes>
          <leafValues>
            5.0232762098312378e-01 -3.2031923532485962e-02</leafValues></_>
        <_>
          <internalNodes>
            0 -1 191 6.2134647741913795e-03</internalNodes>
          <leafValues>
            1.2131016701459885e-01 -1.0773092508316040e-01</leafValues></_>
        <_>
          <internalNodes>
            0 -1 1103 1.4628389850258827e-02</internalNodes>
          <leafValues>
            -1.6783921420574188e-01 8.2563541829586029e-02</leafValues></_>
        <_>
          <internalNodes>
            0 -1 815 6.4352832734584808e-02</internalNodes>
          <leafValues>
            2.2371446713805199e-02 -6.7577779293060303e-01</leafValues></_>
        <_>
          <internalNodes>
            0 -1 147 8.7070942390710115e-04</internalNodes>
          <leafValues>
            2.9757910966873169e-01 -5.0764691084623337e-02</leafValues></_>
        <_>
          <internalNodes>
            0 -1 1098 7.8063383698463440e-03</internalNodes>
          <leafValues>
            -4.2088127136230469e-01 3.5849940031766891e-02</leafValues></_>
        <_>
          <internalNodes>
            0 -1 48 9.0734660625457764e-03</internalNodes>
          <leafValues>
            9.9764920771121979e-02 -1.3463270664215088e-01</leafValues></_>
        <_>
          <internalNodes>
            0 -1 242 6.2449686229228973e-02</internalNodes>
          <leafValues>
            -4.3381582945585251e-02 3.2335615158081055e-01</leafValues></_>
        <_>
          <internalNodes>
            0 -1 479 3.9510160684585571e-02</internalNodes>
          <leafValues>
            -4.5697301626205444e-02 2.9324972629547119e-01</leafValues></_>
        <_>
          <internalNodes>
            0 -1 491 1.3704603910446167e-01</internalNodes>
          <leafValues>
            2.0634133368730545e-02 -6.4013457298278809e-01</leafValues></_>
        <_>
          <internalNodes>
            0 -1 259 1.8063825555145741e-03</internalNodes>
          <leafValues>
            1.9221730530261993e-01 -7.0726104080677032e-02</leafValues></_>
        <_>
          <internalNodes>
            0 -1 572 1.2976988218724728e-03</internalNodes>
          <leafValues>
            -3.1144300103187561e-01 4.7046393156051636e-02</leafValues></_>
        <_>
          <internalNodes>
            0 -1 562 4.0859414730221033e-04</internalNodes>
          <leafValues>
            3.4572258591651917e-01 -4.5066382735967636e-02</leafValues></_>
        <_>
          <internalNodes>
            0 -1 75 3.1065079383552074e-04</internalNodes>
          <leafValues>
            -2.7691504359245300e-01 5.3381424397230148e-02</leafValues></_>
        <_>
          <internalNodes>
            0 -1 34 9.4256559386849403e-03</internalNodes>
          <leafValues>
            1.0285906493663788e-01 -1.3828220963478088e-01</leafValues></_>
        <_>
          <internalNodes>
            0 -1 421 1.2947294116020203e-01</internalNodes>
          <leafValues>
            1.8079373985528946e-02 -6.9218194484710693e-01</leafValues></_></weakClassifiers></_>
    <!-- stage 3 -->
    <_>
      <maxWeakCount>100</maxWeakCount>
      <stageThreshold>-1.9085390567779541e+00</stageThreshold>
      <weakClassifiers>
        <_>
          <internalNodes>
            0 -1 735 4.6863473951816559e-02</internalNodes>
          <leafValues>
            -6.4059448242187500e-01 -6.1495549976825714e-02</leafValues></_>
        <_>
          <internalNodes>
            0 -1 799 3.7902038544416428e-02</internalNodes>
          <leafValues>
            -2.5966066122055054e-01 2.8508165478706360e-01</leafValues></_>
        <_>
          <internalNodes>
            0 -1 194 5.2371653728187084e-03</internalNodes>
          <leafValues>
            2.3861700296401978e-01 -3.1086054444313049e-01</leafValues></_>
        <_>
          <internalNodes>
            0 -1 738 2.5503678247332573e-02</internalNodes>
          <leafValues>
            1.7092232406139374e-01 -3.6779648065567017e-01</leafValues></_>
        <_>
          <internalNodes>
            0 -1 577 2.8007257729768753e-02</internalNodes>
          <leafValues>
            -3.8281235098838806e-01 1.4868503808975220e-01</leafValues></_>
        <_>
          <internalNodes>
            0 -1 586 3.9062835276126862e-02</internalNodes>
          <leafValues>
            1.3167326152324677e-01 -4.9914315342903137e-01</leafValues></_>
        <_>
          <internalNodes>
            0 -1 429 2.5602854788303375e-02</internalNodes>
          <leafValues>
            1.4428237080574036e-01 -3.4983986616134644e-01</leafValues></_>
        <_>
          <internalNodes>
            0 -1 677 6.1688877642154694e-02</internalNodes>
          <leafValues>
            -1.0997536033391953e-01 4.3485212326049805e-01</leafValues></_>
        <_>
          <internalNodes>
            0 -1 386 5.1208427175879478e-03</internalNodes>
          <leafValues>
            1.6176055371761322e-01 -2.3731245100498199e-01</leafValues></_>
        <_>
          <internalNodes>
            0 -1 801 1.8616282613947988e-03</internalNodes>
          <leafValues>
            -4.3389987945556641e-01 9.3859136104583740e-02</leafValues></_>
        <_>
          <internalNodes>
            0 -1 1068 2.5007579475641251e-02</internalNodes>
          <leafValues>
            1.2755525112152100e-01 -2.4929279088973999e-01</leafValues></_>
        <_>
          <internalNodes>
            0 -1 915 3.2250836491584778e-02</internalNodes>
          <leafValues>
            -2.9732653498649597e-01 1.3803812861442566e-01</leafValues></_>
        <_>
          <internalNodes>
            0 -1 58 1.9612371921539307e-02</internalNodes>
          <leafValues>
            7.2107553482055664e-02 -4.1695010662078857e-01</leafValues></_>
        <_>
          <internalNodes>
            0 -1 5 1.9095715135335922e-02</internalNodes>
          <leafValues>
            5.4038885980844498e-02 -3.8672810792922974e-01</leafValues></_>
        <_>
          <internalNodes>
            0 -1 560 6.7316092550754547e-02</internalNodes>
          <leafValues>
            6.6078096628189087e-02 -4.3029817938804626e-01</leafValues></_>
        <_>
          <internalNodes>
            0 -1 732 1.0230538994073868e-01</internalNodes>
          <leafValues>
            -9.9497333168983459e-02 2.8385433554649353e-01</leafValues></_>
        <_>
          <internalNodes>
            0 -1 388 1.1254847049713135e-01</internalNodes>
          <leafValues>
            3.6967154592275620e-02 -6.2438082695007324e-01</leafValues></_>
        <_>
          <internalNodes>
            0 -1 959 3.7857413291931152e-02</internalNodes>
          <leafValues>
            3.4767892211675644e-02 -5.5874884128570557e-01</leafValues></_>
        <_>
          <internalNodes>
            0 -1 615 3.9792574942111969e-02</internalNodes>
          <leafValues>
            -1.2234704941511154e-01 2.0592316985130310e-01</leafValues></_>
        <_>
          <internalNodes>
            0 -1 425 6.8352287635207176e-03</internalNodes>
          <leafValues>
            1.2953679263591766e-01 -1.7358317971229553e-01</leafValues></_>
        <_>
          <internalNodes>
            0 -1 436 4.8064794391393661e-02</internalNodes>
          <leafValues>
            6.9107331335544586e-02 -3.0635374784469604e-01</leafValues></_>
        <_>
          <internalNodes>
            0 -1 558 5.0421841442584991e-02</internalNodes>
          <leafValues>
            7.3017552495002747e-02 -3.0756521224975586e-01</leafValues></_>
        <_>
          <internalNodes>
            0 -1 1188 5.0715939141809940e-03</internalNodes>
          <leafValues>
            -4.5538458228111267e-01 3.7482351064682007e-02</leafValues></_>
        <_>
          <internalNodes>
            0 -1 1027 3.0420516850426793e-04</internalNodes>
          <leafValues>
            3.2922711968421936e-01 -6.0362748801708221e-02</leafValues></_>
        <_>
          <internalNodes>
            0 -1 851 1.4423748943954706e-03</internalNodes>
          <leafValues>
            -6.1679792404174805e-01 3.8957916200160980e-02</leafValues></_>
        <_>
          <internalNodes>
            0 -1 809 8.1397518515586853e-03</internalNodes>
          <leafValues>
            2.3004363477230072e-01 -9.1275937855243683e-02</leafValues></_>
        <_>
          <internalNodes>
            0 -1 428 3.6052122712135315e-02</internalNodes>
          <leafValues>
            6.0025572776794434e-02 -3.1030976772308350e-01</leafValues></_>
        <_>
          <internalNodes>
            0 -1 439 1.4564278535544872e-02</internalNodes>
          <leafValues>
            -1.4694744348526001e-01 1.4129133522510529e-01</leafValues></_>
        <_>
          <internalNodes>
            0 -1 488 9.4001850811764598e-05</internalNodes>
          <leafValues>
            2.8173357248306274e-01 -7.1046300232410431e-02</leafValues></_>
        <_>
          <internalNodes>
            0 -1 547 1.5204288065433502e-03</internalNodes>
          <leafValues>
            -3.8682663440704346e-01 5.1072660833597183e-02</leafValues></_>
        <_>
          <internalNodes>
            0 -1 659 4.0223475545644760e-02</internalNodes>
          <leafValues>
            2.8850907459855080e-02 -5.0211423635482788e-01</leafValues></_>
        <_>
          <internalNodes>
            0 -1 776 5.9365700930356979e-02</internalNodes>
          <leafValues>
            -5.6552767753601074e-02 3.1832224130630493e-01</leafValues></_>
        <_>
          <internalNodes>
            0 -1 243 1.0459152981638908e-02</internalNodes>
          <leafValues>
            1.8042491376399994e-01 -9.0815789997577667e-02</leafValues></_>
        <_>
          <internalNodes>
            0 -1 609 4.8400253057479858e-02</internalNodes>
          <leafValues>
            2.7205958962440491e-02 -6.4899080991744995e-01</leafValues></_>
        <_>
          <internalNodes>
            0 -1 1001 1.0345888137817383e-01</internalNodes>
          <leafValues>
            2.1483274176716805e-02 -5.7156741619110107e-01</leafValues></_>
        <_>
          <internalNodes>
            0 -1 340 4.1543930768966675e-02</internalNodes>
          <leafValues>
            -8.5806816816329956e-02 1.6859248280525208e-01</leafValues></_>
        <_>
          <internalNodes>
            0 -1 605 2.9216372966766357e-01</internalNodes>
          <leafValues>
            -2.0595557987689972e-02 7.5888663530349731e-01</leafValues></_>
        <_>
          <internalNodes>
            0 -1 1089 4.8147784546017647e-03</internalNodes>
          <leafValues>
            -3.8707977533340454e-01 5.2983921021223068e-02</leafValues></_>
        <_>
          <internalNodes>
            0 -1 813 2.6393800973892212e-02</internalNodes>
          <leafValues>
            -9.4351828098297119e-02 1.5860119462013245e-01</leafValues></_>
        <_>
          <internalNodes>
            0 -1 100 7.2340108454227448e-03</internalNodes>
          <leafValues>
            1.9188331067562103e-01 -8.5063643753528595e-02</leafValues></_>
        <_>
          <internalNodes>
            0 -1 795 4.4772010296583176e-02</internalNodes>
          <leafValues>
            2.6834473013877869e-02 -5.5571448802947998e-01</leafValues></_>
        <_>
          <internalNodes>
            0 -1 991 1.3919076323509216e-01</internalNodes>
          <leafValues>
            1.7830198630690575e-02 -6.1559236049652100e-01</leafValues></_>
        <_>
          <internalNodes>
            0 -1 553 5.6115515530109406e-02</internalNodes>
          <leafValues>
            -7.3808722198009491e-02 1.7960780858993530e-01</leafValues></_>
        <_>
          <internalNodes>
            0 -1 118 2.1978083997964859e-02</internalNodes>
          <leafValues>
            6.7245259881019592e-02 -2.1218761801719666e-01</leafValues></_>
        <_>
          <internalNodes>
            0 -1 495 5.1135249435901642e-02</internalNodes>
          <leafValues>
            -5.9827659279108047e-02 2.1259362995624542e-01</leafValues></_>
        <_>
          <internalNodes>
            0 -1 498 4.8904322087764740e-02</internalNodes>
          <leafValues>
            -5.8163344860076904e-02 2.0148336887359619e-01</leafValues></_>
        <_>
          <internalNodes>
            0 -1 54 7.1191608905792236e-02</internalNodes>
          <leafValues>
            1.8755644559860229e-02 -6.4807385206222534e-01</leafValues></_>
        <_>
          <internalNodes>
            0 -1 998 2.6638042181730270e-02</internalNodes>
          <leafValues>
            3.6185115575790405e-02 -3.1475672125816345e-01</leafValues></_>
        <_>
          <internalNodes>
            0 -1 394 5.4308414459228516e-02</internalNodes>
          <leafValues>
            -4.5544307678937912e-02 2.7564871311187744e-01</leafValues></_>
        <_>
          <internalNodes>
            0 -1 1049 1.7441883683204651e-03</internalNodes>
          <leafValues>
            -2.0431554317474365e-01 5.7920012623071671e-02</leafValues></_>
        <_>
          <internalNodes>
            0 -1 880 2.2537325276061893e-04</internalNodes>
          <leafValues>
            4.6660181879997253e-01 -3.2275538891553879e-02</leafValues></_>
        <_>
          <internalNodes>
            0 -1 1119 6.0372608713805676e-03</internalNodes>
          <leafValues>
            -3.2579293847084045e-01 4.6555764973163605e-02</leafValues></_>
        <_>
          <internalNodes>
            0 -1 260 3.8025568937882781e-04</internalNodes>
          <leafValues>
            2.2146819531917572e-01 -6.9471277296543121e-02</leafValues></_>
        <_>
          <internalNodes>
            0 -1 182 1.2600841000676155e-03</internalNodes>
          <leafValues>
            -4.1370970010757446e-01 3.7353765219449997e-02</leafValues></_>
        <_>
          <internalNodes>
            0 -1 134 1.4399494044482708e-02</internalNodes>
          <leafValues>
            1.3330732285976410e-01 -1.0799302905797958e-01</leafValues></_>
        <_>
          <internalNodes>
            0 -1 563 2.2423295304179192e-02</internalNodes>
          <leafValues>
            -1.0904157906770706e-01 1.0868187248706818e-01</leafValues></_>
        <_>
          <internalNodes>
            0 -1 109 7.3803924024105072e-03</internalNodes>
          <leafValues>
            1.2637501955032349e-01 -1.0695586353540421e-01</leafValues></_>
        <_>
          <internalNodes>
            0 -1 593 2.8709881007671356e-03</internalNodes>
          <leafValues>
            -2.0671622455120087e-01 5.8190237730741501e-02</leafValues></_>
        <_>
          <internalNodes>
            0 -1 30 3.6660164594650269e-02</internalNodes>
          <leafValues>
            5.1272232085466385e-02 -2.2668008506298065e-01</leafValues></_>
        <_>
          <internalNodes>
            0 -1 60 7.3803879320621490e-02</internalNodes>
          <leafValues>
            1.3431670144200325e-02 -8.0667233467102051e-01</leafValues></_>
        <_>
          <internalNodes>
            0 -1 435 4.8156563192605972e-02</internalNodes>
          <leafValues>
            3.1597785651683807e-02 -3.2901114225387573e-01</leafValues></_>
        <_>
          <internalNodes>
            0 -1 90 2.3289756849408150e-02</internalNodes>
          <leafValues>
            -7.3452323675155640e-02 1.7437990009784698e-01</leafValues></_>
        <_>
          <internalNodes>
            0 -1 613 1.2403170694597065e-04</internalNodes>
          <leafValues>
            2.3749765753746033e-01 -4.9388114362955093e-02</leafValues></_>
        <_>
          <internalNodes>
            0 -1 87 1.0886527597904205e-03</internalNodes>
          <leafValues>
            -2.3565250635147095e-01 5.1502522081136703e-02</leafValues></_>
        <_>
          <internalNodes>
            0 -1 528 5.0785117782652378e-03</internalNodes>
          <leafValues>
            1.3680635392665863e-01 -1.0115564614534378e-01</leafValues></_>
        <_>
          <internalNodes>
            0 -1 372 2.5082334876060486e-02</internalNodes>
          <leafValues>
            9.2244356870651245e-02 -1.2855651974678040e-01</leafValues></_>
        <_>
          <internalNodes>
            0 -1 1045 1.0269794147461653e-03</internalNodes>
          <leafValues>
            -2.7668309211730957e-01 4.3173681944608688e-02</leafValues></_>
        <_>
          <internalNodes>
            0 -1 216 8.4284273907542229e-04</internalNodes>
          <leafValues>
            2.6341959834098816e-01 -4.8032388091087341e-02</leafValues></_>
        <_>
          <internalNodes>
            0 -1 864 4.0326691232621670e-03</internalNodes>
          <leafValues>
            -2.1378302574157715e-01 5.9507716447114944e-02</leafValues></_>
        <_>
          <internalNodes>
            0 -1 823 3.9177946746349335e-02</internalNodes>
          <leafValues>
            2.3663017898797989e-02 -4.9081727862358093e-01</leafValues></_>
        <_>
          <internalNodes>
            0 -1 356 2.7488712221384048e-02</internalNodes>
          <leafValues>
            4.1885495185852051e-02 -2.6491734385490417e-01</leafValues></_>
        <_>
          <internalNodes>
            0 -1 948 1.9559583067893982e-01</internalNodes>
          <leafValues>
            2.0894827321171761e-02 -5.2002924680709839e-01</leafValues></_>
        <_>
          <internalNodes>
            0 -1 833 1.5360414981842041e-03</internalNodes>
          <leafValues>
            2.5608026981353760e-01 -4.7600753605365753e-02</leafValues></_>
        <_>
          <internalNodes>
            0 -1 1112 8.0723300925455987e-05</internalNodes>
          <leafValues>
            -6.0366880893707275e-01 2.0952124148607254e-02</leafValues></_>
        <_>
          <internalNodes>
            0 -1 272 4.3948478996753693e-03</internalNodes>
          <leafValues>
            1.2439975142478943e-01 -9.1970309615135193e-02</leafValues></_>
        <_>
          <internalNodes>
            0 -1 300 1.7887856811285019e-02</internalNodes>
          <leafValues>
            9.2340201139450073e-02 -1.1794354021549225e-01</leafValues></_>
        <_>
          <internalNodes>
            0 -1 417 3.6150626838207245e-02</internalNodes>
          <leafValues>
            3.9243176579475403e-02 -3.0314493179321289e-01</leafValues></_>
        <_>
          <internalNodes>
            0 -1 865 2.6212246157228947e-03</internalNodes>
          <leafValues>
            -2.5469961762428284e-01 4.7134250402450562e-02</leafValues></_>
        <_>
          <internalNodes>
            0 -1 735 4.6508532017469406e-02</internalNodes>
          <leafValues>
            1.2598299980163574e-01 -9.9296428263187408e-02</leafValues></_>
        <_>
          <internalNodes>
            0 -1 738 2.6274885982275009e-02</internalNodes>
          <leafValues>
            -7.6171904802322388e-02 1.6413681209087372e-01</leafValues></_>
        <_>
          <internalNodes>
            0 -1 929 6.2867323867976665e-03</internalNodes>
          <leafValues>
            1.3341048359870911e-01 -1.0721826553344727e-01</leafValues></_>
        <_>
          <internalNodes>
            0 -1 1162 7.1326028555631638e-03</internalNodes>
          <leafValues>
            -2.1399034559726715e-01 5.7568676769733429e-02</leafValues></_>
        <_>
          <internalNodes>
            0 -1 1055 5.3097261115908623e-04</internalNodes>
          <leafValues>
            3.7340375781059265e-01 -3.0138267204165459e-02</leafValues></_>
        <_>
          <internalNodes>
            0 -1 552 3.4782807342708111e-03</internalNodes>
          <leafValues>
            -2.6088172197341919e-01 4.8089876770973206e-02</leafValues></_>
        <_>
          <internalNodes>
            0 -1 403 7.7740713953971863e-02</internalNodes>
          <leafValues>
            -3.2108601182699203e-02 3.5099419951438904e-01</leafValues></_>
        <_>
          <internalNodes>
            0 -1 377 5.5630363523960114e-02</internalNodes>
          <leafValues>
            2.6818417012691498e-02 -4.6560043096542358e-01</leafValues></_>
        <_>
          <internalNodes>
            0 -1 413 1.1298518627882004e-02</internalNodes>
          <leafValues>
            1.3139952719211578e-01 -7.9158753156661987e-02</leafValues></_>
        <_>
          <internalNodes>
            0 -1 178 6.8076297640800476e-02</internalNodes>
          <leafValues>
            1.6499582678079605e-02 -6.1562365293502808e-01</leafValues></_>
        <_>
          <internalNodes>
            0 -1 464 6.5372124314308167e-02</internalNodes>
          <leafValues>
            -3.6259960383176804e-02 3.0591464042663574e-01</leafValues></_>
        <_>
          <internalNodes>
            0 -1 996 6.7214392125606537e-02</internalNodes>
          <leafValues>
            1.2621671892702579e-02 -8.5057061910629272e-01</leafValues></_>
        <_>
          <internalNodes>
            0 -1 1046 4.0503542870283127e-02</internalNodes>
          <leafValues>
            -7.3027774691581726e-02 1.4705465734004974e-01</leafValues></_>
        <_>
          <internalNodes>
            0 -1 187 2.5166049599647522e-01</internalNodes>
          <leafValues>
            1.8550893291831017e-02 -6.6408962011337280e-01</leafValues></_>
        <_>
          <internalNodes>
            0 -1 907 4.4935818761587143e-02</internalNodes>
          <leafValues>
            -4.7928374260663986e-02 2.2790664434432983e-01</leafValues></_>
        <_>
          <internalNodes>
            0 -1 1014 2.9651254415512085e-02</internalNodes>
          <leafValues>
            5.8433242142200470e-02 -1.8297110497951508e-01</leafValues></_>
        <_>
          <internalNodes>
            0 -1 1164 4.5288391411304474e-02</internalNodes>
          <leafValues>
            1.8893614411354065e-02 -4.7873905301094055e-01</leafValues></_>
        <_>
          <internalNodes>
            0 -1 273 3.9688475430011749e-02</internalNodes>
          <leafValues>
            2.9713746160268784e-02 -3.1119069457054138e-01</leafValues></_>
        <_>
          <internalNodes>
            0 -1 50 2.5531971827149391e-02</internalNodes>
          <leafValues>
            4.8600368201732635e-02 -2.0525231957435608e-01</leafValues></_>
        <_>
          <internalNodes>
            0 -1 62 2.1871206164360046e-01</internalNodes>
          <leafValues>
            1.4976754784584045e-02 -6.5188103914260864e-01</leafValues></_>
        <_>
          <internalNodes>
            0 -1 958 3.6783475428819656e-02</internalNodes>
          <leafValues>
            2.8054516762495041e-02 -3.2385468482971191e-01</leafValues></_>
        <_>
          <internalNodes>
            0 -1 868 2.5355041027069092e-02</internalNodes>
          <leafValues>
            -8.1180155277252197e-02 1.2744317948818207e-01</leafValues></_></weakClassifiers></_>
    <!-- stage 4 -->
    <_>
      <maxWeakCount>100</maxWeakCount>
      <stageThreshold>-1.9650241136550903e+00</stageThreshold>
      <weakClassifiers>
        <_>
          <internalNodes>
            0 -1 766 2.1402924321591854e-03</internalNodes>
          <leafValues>
            4.1812662035226822e-02 -4.9540820717811584e-01</leafValues></_>
        <_>
          <internalNodes>
            0 -1 627 4.0689826011657715e-02</internalNodes>
          <leafValues>
            -4.1550964117050171e-01 1.7349651455879211e-01</leafValues></_>
        <_>
          <internalNodes>
            0 -1 733 6.1516471207141876e-02</internalNodes>
          <leafValues>
            -1.3317969441413879e-01 4.1826188564300537e-01</leafValues></_>
        <_>
          <internalNodes>
            0 -1 542 3.0921593308448792e-02</internalNodes>
          <leafValues>
            1.1232893913984299e-01 -4.0118905901908875e-01</leafValues></_>
        <_>
          <internalNodes>
            0 -1 940 3.9988573640584946e-02</internalNodes>
          <leafValues>
            -2.2651889920234680e-01 1.6293983161449432e-01</leafValues></_>
        <_>
          <internalNodes>
            0 -1 657 3.4199431538581848e-02</internalNodes>
          <leafValues>
            1.1022508144378662e-01 -3.7364578247070313e-01</leafValues></_>
        <_>
          <internalNodes>
            0 -1 36 1.0879086330533028e-02</internalNodes>
          <leafValues>
            1.9477081298828125e-01 -2.1062402427196503e-01</leafValues></_>
        <_>
          <internalNodes>
            0 -1 802 4.0212040767073631e-03</internalNodes>
          <leafValues>
            -4.3723827600479126e-01 7.6549835503101349e-02</leafValues></_>
        <_>
          <internalNodes>
            0 -1 363 4.5744339004158974e-03</internalNodes>
          <leafValues>
            1.5017195045948029e-01 -2.0883843302726746e-01</leafValues></_>
        <_>
          <internalNodes>
            0 -1 527 3.2687574625015259e-02</internalNodes>
          <leafValues>
            -2.7917301654815674e-01 1.1869256198406219e-01</leafValues></_>
        <_>
          <internalNodes>
            0 -1 800 4.1591063141822815e-02</internalNodes>
          <leafValues>
            -1.0866175591945648e-01 2.8640830516815186e-01</leafValues></_>
        <_>
          <internalNodes>
            0 -1 1068 7.2633579373359680e-02</internalNodes>
          <leafValues>
            4.8621520400047302e-02 -4.5703518390655518e-01</leafValues></_>
        <_>
          <internalNodes>
            0 -1 896 5.4675057530403137e-02</internalNodes>
          <leafValues>
            -1.6335478425025940e-01 1.4923596382141113e-01</leafValues></_>
        <_>
          <internalNodes>
            0 -1 0 5.9836442233063281e-05</internalNodes>
          <leafValues>
            2.5068655610084534e-01 -9.9512577056884766e-02</leafValues></_>
        <_>
          <internalNodes>
            0 -1 543 2.6423756033182144e-02</internalNodes>
          <leafValues>
            -1.7306728661060333e-01 1.3549031317234039e-01</leafValues></_>
        <_>
          <internalNodes>
            0 -1 436 4.2486112564802170e-02</internalNodes>
          <leafValues>
            7.4119955301284790e-02 -2.7150973677635193e-01</leafValues></_>
        <_>
          <internalNodes>
            0 -1 1157 1.0154925286769867e-02</internalNodes>
          <leafValues>
            -4.4806209206581116e-01 3.8825612515211105e-02</leafValues></_>
        <_>
          <internalNodes>
            0 -1 424 4.8461006954312325e-03</internalNodes>
          <leafValues>
            1.1960931867361069e-01 -1.4048443734645844e-01</leafValues></_>
        <_>
          <internalNodes>
            0 -1 1120 1.2128052767366171e-03</internalNodes>
          <leafValues>
            -5.7584249973297119e-01 3.4282464534044266e-02</leafValues></_>
        <_>
          <internalNodes>
            0 -1 993 1.2647199037019163e-04</internalNodes>
          <leafValues>
            4.3446654081344604e-01 -5.8936264365911484e-02</leafValues></_>
        <_>
          <internalNodes>
            0 -1 752 2.0083310082554817e-03</internalNodes>
          <leafValues>
            -2.8217655420303345e-01 7.0167854428291321e-02</leafValues></_>
        <_>
          <internalNodes>
            0 -1 234 2.1287243813276291e-02</internalNodes>
          <leafValues>
            1.0582146793603897e-01 -1.5411096811294556e-01</leafValues></_>
        <_>
          <internalNodes>
            0 -1 57 1.2135216966271400e-02</internalNodes>
          <leafValues>
            6.9128006696701050e-02 -2.1260650455951691e-01</leafValues></_>
        <_>
          <internalNodes>
            0 -1 1072 9.9330559372901917e-02</internalNodes>
          <leafValues>
            2.7544517070055008e-02 -5.5225157737731934e-01</leafValues></_>
        <_>
          <internalNodes>
            0 -1 637 3.0145723372697830e-02</internalNodes>
          <leafValues>
            3.1389016658067703e-02 -4.3577724695205688e-01</leafValues></_>
        <_>
          <internalNodes>
            0 -1 971 2.1087464690208435e-01</internalNodes>
          <leafValues>
            -2.1559717133641243e-02 6.6992694139480591e-01</leafValues></_>
        <_>
          <internalNodes>
            0 -1 1008 1.1065383441746235e-03</internalNodes>
          <leafValues>
            -3.0955368280410767e-01 5.4806288331747055e-02</leafValues></_>
        <_>
          <internalNodes>
            0 -1 1031 1.0535180626902729e-04</internalNodes>
          <leafValues>
            2.7270254492759705e-01 -6.1613783240318298e-02</leafValues></_>
        <_>
          <internalNodes>
            0 -1 352 1.1985412565991282e-03</internalNodes>
          <leafValues>
            -2.7208644151687622e-01 5.5820230394601822e-02</leafValues></_>
        <_>
          <internalNodes>
            0 -1 3 9.1873230412602425e-03</internalNodes>
          <leafValues>
            6.1360292136669159e-02 -2.0451895892620087e-01</leafValues></_>
        <_>
          <internalNodes>
            0 -1 491 7.7387869358062744e-02</internalNodes>
          <leafValues>
            3.3138137310743332e-02 -4.0445438027381897e-01</leafValues></_>
        <_>
          <internalNodes>
            0 -1 983 7.3236256837844849e-02</internalNodes>
          <leafValues>
            -5.8661580085754395e-02 2.5412675738334656e-01</leafValues></_>
        <_>
          <internalNodes>
            0 -1 570 3.2479323446750641e-02</internalNodes>
          <leafValues>
            -9.1022163629531860e-02 1.4551405608654022e-01</leafValues></_>
        <_>
          <internalNodes>
            0 -1 150 1.3064891099929810e-02</internalNodes>
          <leafValues>
            1.2584221363067627e-01 -1.0884619504213333e-01</leafValues></_>
        <_>
          <internalNodes>
            0 -1 237 5.1696118898689747e-03</internalNodes>
          <leafValues>
            1.2129402905702591e-01 -1.1086191236972809e-01</leafValues></_>
        <_>
          <internalNodes>
            0 -1 282 1.1696221772581339e-03</internalNodes>
          <leafValues>
            -2.4573415517807007e-01 6.1198353767395020e-02</leafValues></_>
        <_>
          <internalNodes>
            0 -1 745 5.3352300077676773e-02</internalNodes>
          <leafValues>
            1.7939662560820580e-02 -6.5553551912307739e-01</leafValues></_>
        <_>
          <internalNodes>
            0 -1 50 4.6720825135707855e-02</internalNodes>
          <leafValues>
            2.8450585901737213e-02 -4.0183767676353455e-01</leafValues></_>
        <_>
          <internalNodes>
            0 -1 91 1.3603050261735916e-02</internalNodes>
          <leafValues>
            -1.3738878071308136e-01 1.0479831695556641e-01</leafValues></_>
        <_>
          <internalNodes>
            0 -1 794 2.5951494535547681e-05</internalNodes>
          <leafValues>
            2.6791837811470032e-01 -4.8704504966735840e-02</leafValues></_>
        <_>
          <internalNodes>
            0 -1 717 6.0642138123512268e-02</internalNodes>
          <leafValues>
            -5.7886749505996704e-02 2.2786815464496613e-01</leafValues></_>
        <_>
          <internalNodes>
            0 -1 398 8.3348080515861511e-02</internalNodes>
          <leafValues>
            -2.5707146152853966e-02 4.4590729475021362e-01</leafValues></_>
        <_>
          <internalNodes>
            0 -1 1049 5.9494348242878914e-03</internalNodes>
          <leafValues>
            -1.3803164660930634e-01 8.9199990034103394e-02</leafValues></_>
        <_>
          <internalNodes>
            0 -1 678 2.9370214790105820e-02</internalNodes>
          <leafValues>
            4.4912111014127731e-02 -2.5881338119506836e-01</leafValues></_>
        <_>
          <internalNodes>
            0 -1 99 6.0463431291282177e-03</internalNodes>
          <leafValues>
            1.7744354903697968e-01 -6.7859970033168793e-02</leafValues></_>
        <_>
          <internalNodes>
            0 -1 67 2.5836993008852005e-03</internalNodes>
          <leafValues>
            -2.3716986179351807e-01 4.9194596707820892e-02</leafValues></_>
        <_>
          <internalNodes>
            0 -1 318 3.9495648816227913e-03</internalNodes>
          <leafValues>
            1.2947590649127960e-01 -9.4360947608947754e-02</leafValues></_>
        <_>
          <internalNodes>
            0 -1 832 4.5546427369117737e-02</internalNodes>
          <leafValues>
            -6.0297437012195587e-02 2.0335668325424194e-01</leafValues></_>
        <_>
          <internalNodes>
            0 -1 41 6.5121599473059177e-03</internalNodes>
          <leafValues>
            1.0972166061401367e-01 -1.1000073701143265e-01</leafValues></_>
        <_>
          <internalNodes>
            0 -1 428 7.0333853363990784e-02</internalNodes>
          <leafValues>
            1.9318027421832085e-02 -5.8754730224609375e-01</leafValues></_>
        <_>
          <internalNodes>
            0 -1 106 8.2348257303237915e-02</internalNodes>
          <leafValues>
            1.1509010568261147e-02 -8.0177849531173706e-01</leafValues></_>
        <_>
          <internalNodes>
            0 -1 26 1.4215105329640210e-04</internalNodes>
          <leafValues>
            -1.8601632118225098e-01 5.3618524223566055e-02</leafValues></_>
        <_>
          <internalNodes>
            0 -1 267 1.0476508177816868e-03</internalNodes>
          <leafValues>
            2.5896352529525757e-01 -4.1282735764980316e-02</leafValues></_>
        <_>
          <internalNodes>
            0 -1 1126 5.2464241161942482e-03</internalNodes>
          <leafValues>
            -3.1954836845397949e-01 3.7423007190227509e-02</leafValues></_>
        <_>
          <internalNodes>
            0 -1 422 1.2241438031196594e-01</internalNodes>
          <leafValues>
            1.9672945141792297e-02 -4.9453133344650269e-01</leafValues></_>
        <_>
          <internalNodes>
            0 -1 627 3.9694480597972870e-02</internalNodes>
          <leafValues>
            1.4360328018665314e-01 -7.7306710183620453e-02</leafValues></_>
        <_>
          <internalNodes>
            0 -1 650 7.5706429779529572e-02</internalNodes>
          <leafValues>
            -5.9740014374256134e-02 2.5462609529495239e-01</leafValues></_>
        <_>
          <internalNodes>
            0 -1 531 1.6408592462539673e-01</internalNodes>
          <leafValues>
            1.7109822481870651e-02 -7.1622592210769653e-01</leafValues></_>
        <_>
          <internalNodes>
            0 -1 680 7.0001259446144104e-02</internalNodes>
          <leafValues>
            8.4068849682807922e-03 -8.6284983158111572e-01</leafValues></_>
        <_>
          <internalNodes>
            0 -1 968 5.3141534328460693e-02</internalNodes>
          <leafValues>
            -4.6676937490701675e-02 2.1688441932201385e-01</leafValues></_>
        <_>
          <internalNodes>
            0 -1 1019 3.7339888513088226e-02</internalNodes>
          <leafValues>
            3.0288925394415855e-02 -3.1982481479644775e-01</leafValues></_>
        <_>
          <internalNodes>
            0 -1 727 2.4946895428001881e-03</internalNodes>
          <leafValues>
            -2.3835729062557220e-01 3.9377342909574509e-02</leafValues></_>
        <_>
          <internalNodes>
            0 -1 126 4.6078143641352654e-03</internalNodes>
          <leafValues>
            1.2274301052093506e-01 -9.9092155694961548e-02</leafValues></_>
        <_>
          <internalNodes>
            0 -1 489 4.3071562686236575e-05</internalNodes>
          <leafValues>
            2.7881878614425659e-01 -3.7017166614532471e-02</leafValues></_>
        <_>
          <internalNodes>
            0 -1 694 7.1792677044868469e-04</internalNodes>
          <leafValues>
            -3.9027935266494751e-01 3.3424209803342819e-02</leafValues></_>
        <_>
          <internalNodes>
            0 -1 12 2.1966910362243652e-01</internalNodes>
          <leafValues>
            -1.9528068602085114e-02 5.2695739269256592e-01</leafValues></_>
        <_>
          <internalNodes>
            0 -1 1054 1.6376870870590210e-01</internalNodes>
          <leafValues>
            2.4209594354033470e-02 -3.8160941004753113e-01</leafValues></_>
        <_>
          <internalNodes>
            0 -1 374 1.2670154683291912e-02</internalNodes>
          <leafValues>
            1.2260326743125916e-01 -7.7920377254486084e-02</leafValues></_>
        <_>
          <internalNodes>
            0 -1 1196 4.8339892178773880e-02</internalNodes>
          <leafValues>
            2.6946797966957092e-02 -3.9500296115875244e-01</leafValues></_>
        <_>
          <internalNodes>
            0 -1 796 3.7058092653751373e-02</internalNodes>
          <leafValues>
            2.4172933772206306e-02 -3.5702726244926453e-01</leafValues></_>
        <_>
          <internalNodes>
            0 -1 241 6.1304617673158646e-02</internalNodes>
          <leafValues>
            1.1957390233874321e-02 -7.7774649858474731e-01</leafValues></_>
        <_>
          <internalNodes>
            0 -1 499 3.5168424248695374e-02</internalNodes>
          <leafValues>
            -5.1045462489128113e-02 1.9104725122451782e-01</leafValues></_>
        <_>
          <internalNodes>
            0 -1 566 4.5350141823291779e-02</internalNodes>
          <leafValues>
            1.9158611074090004e-02 -4.7454875707626343e-01</leafValues></_>
        <_>
          <internalNodes>
            0 -1 48 1.0346941649913788e-02</internalNodes>
          <leafValues>
            7.5534977018833160e-02 -1.3136005401611328e-01</leafValues></_>
        <_>
          <internalNodes>
            0 -1 460 1.2230448191985488e-04</internalNodes>
          <leafValues>
            -7.9830634593963623e-01 1.0476973839104176e-02</leafValues></_>
        <_>
          <internalNodes>
            0 -1 1106 2.0401614892762154e-04</internalNodes>
          <leafValues>
            5.2203667163848877e-01 -2.1575085818767548e-02</leafValues></_>
        <_>
          <internalNodes>
            0 -1 1088 5.4145090281963348e-02</internalNodes>
          <leafValues>
            4.8314325511455536e-02 -2.1803852915763855e-01</leafValues></_>
        <_>
          <internalNodes>
            0 -1 89 1.5847852826118469e-01</internalNodes>
          <leafValues>
            -2.2742198780179024e-02 4.4870626926422119e-01</leafValues></_>
        <_>
          <internalNodes>
            0 -1 179 1.8709534779191017e-03</internalNodes>
          <leafValues>
            -3.5742273926734924e-01 2.8397511690855026e-02</leafValues></_>
        <_>
          <internalNodes>
            0 -1 43 1.4855754375457764e-01</internalNodes>
          <leafValues>
            1.0882082395255566e-02 -7.3326176404953003e-01</leafValues></_>
        <_>
          <internalNodes>
            0 -1 307 2.1468698978424072e-03</internalNodes>
          <leafValues>
            1.4206138253211975e-01 -6.6420830786228180e-02</leafValues></_>
        <_>
          <internalNodes>
            0 -1 730 2.0984027534723282e-02</internalNodes>
          <leafValues>
            -6.4412452280521393e-02 1.6171538829803467e-01</leafValues></_>
        <_>
          <internalNodes>
            0 -1 861 1.9124893471598625e-02</internalNodes>
          <leafValues>
            9.0573012828826904e-02 -1.0529847443103790e-01</leafValues></_>
        <_>
          <internalNodes>
            0 -1 225 6.7162298364564776e-04</internalNodes>
          <leafValues>
            -4.2063874006271362e-01 2.1463105455040932e-02</leafValues></_>
        <_>
          <internalNodes>
            0 -1 612 7.8526005381718278e-05</internalNodes>
          <leafValues>
            3.3296287059783936e-01 -3.1887877732515335e-02</leafValues></_>
        <_>
          <internalNodes>
            0 -1 22 2.5436226278543472e-03</internalNodes>
          <leafValues>
            -1.5992368757724762e-01 5.9336431324481964e-02</leafValues></_>
        <_>
          <internalNodes>
            0 -1 937 2.3351462557911873e-02</internalNodes>
          <leafValues>
            3.5298503935337067e-02 -2.4325457215309143e-01</leafValues></_>
        <_>
          <internalNodes>
            0 -1 863 1.7922235652804375e-02</internalNodes>
          <leafValues>
            1.0284242779016495e-01 -8.4819674491882324e-02</leafValues></_>
        <_>
          <internalNodes>
            0 -1 878 9.8775118589401245e-02</internalNodes>
          <leafValues>
            1.7951736226677895e-02 -5.1353836059570313e-01</leafValues></_>
        <_>
          <internalNodes>
            0 -1 977 7.1591762825846672e-03</internalNodes>
          <leafValues>
            -3.0461847782135010e-01 3.0965151265263557e-02</leafValues></_>
        <_>
          <internalNodes>
            0 -1 477 7.3419730179011822e-03</internalNodes>
          <leafValues>
            2.2077685594558716e-01 -4.5601241290569305e-02</leafValues></_>
        <_>
          <internalNodes>
            0 -1 299 1.8259268254041672e-02</internalNodes>
          <leafValues>
            8.7487891316413879e-02 -1.0531917214393616e-01</leafValues></_>
        <_>
          <internalNodes>
            0 -1 962 5.1376305520534515e-02</internalNodes>
          <leafValues>
            1.7175704240798950e-02 -5.3222280740737915e-01</leafValues></_>
        <_>
          <internalNodes>
            0 -1 388 1.7131200432777405e-01</internalNodes>
          <leafValues>
            1.2059639208018780e-02 -6.1003065109252930e-01</leafValues></_>
        <_>
          <internalNodes>
            0 -1 274 8.4937557578086853e-02</internalNodes>
          <leafValues>
            8.8981967419385910e-03 -6.8626523017883301e-01</leafValues></_>
        <_>
          <internalNodes>
            0 -1 978 2.9431242495775223e-02</internalNodes>
          <leafValues>
            5.0572708249092102e-02 -1.5669852495193481e-01</leafValues></_>
        <_>
          <internalNodes>
            0 -1 1116 1.0092364624142647e-02</internalNodes>
          <leafValues>
            -1.2115595489740372e-01 6.5975561738014221e-02</leafValues></_>
        <_>
          <internalNodes>
            0 -1 1016 5.8406520634889603e-02</internalNodes>
          <leafValues>
            -3.2636020332574844e-02 2.6492732763290405e-01</leafValues></_>
        <_>
          <internalNodes>
            0 -1 300 2.0308736711740494e-02</internalNodes>
          <leafValues>
            7.9403981566429138e-02 -1.2072059512138367e-01</leafValues></_>
        <_>
          <internalNodes>
            0 -1 515 3.1874112784862518e-02</internalNodes>
          <leafValues>
            2.6812257245182991e-02 -3.0036804080009460e-01</leafValues></_></weakClassifiers></_>
    <!-- stage 5 -->
    <_>
      <maxWeakCount>100</maxWeakCount>
      <stageThreshold>-1.9726992845535278e+00</stageThreshold>
      <weakClassifiers>
        <_>
          <internalNodes>
            0 -1 867 5.3448103368282318e-02</internalNodes>
          <leafValues>
            -4.5534569025039673e-01 7.1863584220409393e-02</leafValues></_>
        <_>
          <internalNodes>
            0 -1 742 1.9212376791983843e-03</internalNodes>
          <leafValues>
            2.8541603684425354e-01 -2.0114147663116455e-01</leafValues></_>
        <_>
          <internalNodes>
            0 -1 842 3.9498090744018555e-02</internalNodes>
          <leafValues>
            -3.2873889803886414e-01 1.5074411034584045e-01</leafValues></_>
        <_>
          <internalNodes>
            0 -1 688 5.5119834840297699e-02</internalNodes>
          <leafValues>
            -1.1459498852491379e-01 3.3468064665794373e-01</leafValues></_>
        <_>
          <internalNodes>
            0 -1 847 2.4336807429790497e-02</internalNodes>
          <leafValues>
            1.2525555491447449e-01 -2.7918949723243713e-01</leafValues></_>
        <_>
          <internalNodes>
            0 -1 1042 2.7626544237136841e-02</internalNodes>
          <leafValues>
            -1.3183802366256714e-01 2.4297969043254852e-01</leafValues></_>
        <_>
          <internalNodes>
            0 -1 36 2.6308273896574974e-02</internalNodes>
          <leafValues>
            1.1779124289751053e-01 -3.2078170776367188e-01</leafValues></_>
        <_>
          <internalNodes>
            0 -1 1101 3.5601737909018993e-03</internalNodes>
          <leafValues>
            -5.6976974010467529e-01 2.5427866727113724e-02</leafValues></_>
        <_>
          <internalNodes>
            0 -1 566 9.1054680524393916e-05</internalNodes>
          <leafValues>
            3.6974278092384338e-01 -6.8587452173233032e-02</leafValues></_>
        <_>
          <internalNodes>
            0 -1 1041 1.3047231361269951e-02</internalNodes>
          <leafValues>
            -2.5449389219284058e-01 8.4965400397777557e-02</leafValues></_>
        <_>
          <internalNodes>
            0 -1 142 1.2449382338672876e-03</internalNodes>
          <leafValues>
            -4.7048321366310120e-01 5.0876613706350327e-02</leafValues></_>
        <_>
          <internalNodes>
            0 -1 1038 8.1769496318884194e-05</internalNodes>
          <leafValues>
            3.4343904256820679e-01 -8.2858070731163025e-02</leafValues></_>
        <_>
          <internalNodes>
            0 -1 646 2.5122538208961487e-02</internalNodes>
          <leafValues>
            1.0110575705766678e-01 -1.8941056728363037e-01</leafValues></_>
        <_>
          <internalNodes>
            0 -1 4 7.4705495499074459e-03</internalNodes>
          <leafValues>
            8.9669100940227509e-02 -2.2242283821105957e-01</leafValues></_>
        <_>
          <internalNodes>
            0 -1 944 1.0648770257830620e-03</internalNodes>
          <leafValues>
            -3.7555938959121704e-01 4.8379909247159958e-02</leafValues></_>
        <_>
          <internalNodes>
            0 -1 435 3.3035300672054291e-02</internalNodes>
          <leafValues>
            5.9973333030939102e-02 -3.0395084619522095e-01</leafValues></_>
        <_>
          <internalNodes>
            0 -1 538 3.1860210001468658e-02</internalNodes>
          <leafValues>
            6.7401126027107239e-02 -2.4338646233081818e-01</leafValues></_>
        <_>
          <internalNodes>
            0 -1 678 4.3661221861839294e-02</internalNodes>
          <leafValues>
            2.8108356520533562e-02 -5.1195907592773438e-01</leafValues></_>
        <_>
          <internalNodes>
            0 -1 879 5.6153576821088791e-02</internalNodes>
          <leafValues>
            -7.3320418596267700e-02 2.2201205790042877e-01</leafValues></_>
        <_>
          <internalNodes>
            0 -1 559 2.2345306351780891e-03</internalNodes>
          <leafValues>
            -5.0401633977890015e-01 3.2328154891729355e-02</leafValues></_>
        <_>
          <internalNodes>
            0 -1 425 3.3754250034689903e-03</internalNodes>
          <leafValues>
            1.3170902431011200e-01 -1.1946547031402588e-01</leafValues></_>
        <_>
          <internalNodes>
            0 -1 739 4.4194303452968597e-02</internalNodes>
          <leafValues>
            2.3584965616464615e-02 -5.5834281444549561e-01</leafValues></_>
        <_>
          <internalNodes>
            0 -1 402 1.3048747554421425e-02</internalNodes>
          <leafValues>
            1.3795499503612518e-01 -9.2789314687252045e-02</leafValues></_>
        <_>
          <internalNodes>
            0 -1 110 9.1117806732654572e-04</internalNodes>
          <leafValues>
            -2.3169507086277008e-01 6.0025703161954880e-02</leafValues></_>
        <_>
          <internalNodes>
            0 -1 995 1.4200441364664584e-04</internalNodes>
          <leafValues>
            3.6319366097450256e-01 -4.6648692339658737e-02</leafValues></_>
        <_>
          <internalNodes>
            0 -1 250 1.2736637145280838e-03</internalNodes>
          <leafValues>
            -4.5952361822128296e-01 3.3831734210252762e-02</leafValues></_>
        <_>
          <internalNodes>
            0 -1 2 4.6818636357784271e-02</internalNodes>
          <leafValues>
            3.0864251777529716e-02 -3.7430211901664734e-01</leafValues></_>
        <_>
          <internalNodes>
            0 -1 437 4.7110795974731445e-02</internalNodes>
          <leafValues>
            -6.6947393119335175e-02 1.9119526445865631e-01</leafValues></_>
        <_>
          <internalNodes>
            0 -1 600 5.3745776414871216e-02</internalNodes>
          <leafValues>
            -6.2216706573963165e-02 2.0840746164321899e-01</leafValues></_>
        <_>
          <internalNodes>
            0 -1 433 1.2969108298420906e-02</internalNodes>
          <leafValues>
            8.8513135910034180e-02 -1.4672136306762695e-01</leafValues></_>
        <_>
          <internalNodes>
            0 -1 151 5.9583835303783417e-02</internalNodes>
          <leafValues>
            -1.1043357849121094e-01 1.1401905864477158e-01</leafValues></_>
        <_>
          <internalNodes>
            0 -1 689 4.9715630710124969e-02</internalNodes>
          <leafValues>
            -5.7078495621681213e-02 2.1807178854942322e-01</leafValues></_>
        <_>
          <internalNodes>
            0 -1 536 2.2633600980043411e-02</internalNodes>
          <leafValues>
            -1.0680229216814041e-01 1.2674887478351593e-01</leafValues></_>
        <_>
          <internalNodes>
            0 -1 6 1.7714424757286906e-05</internalNodes>
          <leafValues>
            2.5650340318679810e-01 -4.2849078774452209e-02</leafValues></_>
        <_>
          <internalNodes>
            0 -1 228 5.8898777933791280e-04</internalNodes>
          <leafValues>
            -3.0957633256912231e-01 3.6620944738388062e-02</leafValues></_>
        <_>
          <internalNodes>
            0 -1 933 3.5594791173934937e-02</internalNodes>
          <leafValues>
            2.2527886554598808e-02 -4.7454071044921875e-01</leafValues></_>
        <_>
          <internalNodes>
            0 -1 59 1.0333884507417679e-01</internalNodes>
          <leafValues>
            2.0367244258522987e-02 -4.9441567063331604e-01</leafValues></_>
        <_>
          <internalNodes>
            0 -1 201 3.4105607774108648e-03</internalNodes>
          <leafValues>
            1.6234867274761200e-01 -6.7692257463932037e-02</leafValues></_>
        <_>
          <internalNodes>
            0 -1 1090 6.7271944135427475e-03</internalNodes>
          <leafValues>
            -3.4808862209320068e-01 4.0058184415102005e-02</leafValues></_>
        <_>
          <internalNodes>
            0 -1 1052 2.6385945081710815e-01</internalNodes>
          <leafValues>
            1.2625692412257195e-02 -7.0087689161300659e-01</leafValues></_>
        <_>
          <internalNodes>
            0 -1 457 9.9618955573532730e-05</internalNodes>
          <leafValues>
            6.1619615554809570e-01 -2.0489824935793877e-02</leafValues></_>
        <_>
          <internalNodes>
            0 -1 83 1.5743073076009750e-02</internalNodes>
          <leafValues>
            -8.4161706268787384e-02 1.3084766268730164e-01</leafValues></_>
        <_>
          <internalNodes>
            0 -1 834 1.0930159687995911e-01</internalNodes>
          <leafValues>
            -5.8601889759302139e-02 2.1808597445487976e-01</leafValues></_>
        <_>
          <internalNodes>
            0 -1 276 1.7910242080688477e-01</internalNodes>
          <leafValues>
            1.7813419923186302e-02 -7.9431462287902832e-01</leafValues></_>
        <_>
          <internalNodes>
            0 -1 1035 1.3325059413909912e-01</internalNodes>
          <leafValues>
            1.0628541931509972e-02 -6.2006157636642456e-01</leafValues></_>
        <_>
          <internalNodes>
            0 -1 986 8.6555346846580505e-02</internalNodes>
          <leafValues>
            7.6739308424293995e-03 -9.2698055505752563e-01</leafValues></_>
        <_>
          <internalNodes>
            0 -1 346 6.9467306137084961e-02</internalNodes>
          <leafValues>
            8.3096716552972794e-03 -7.6075947284698486e-01</leafValues></_>
        <_>
          <internalNodes>
            0 -1 418 1.2026457488536835e-01</internalNodes>
          <leafValues>
            1.9448939710855484e-02 -4.0288338065147400e-01</leafValues></_>
        <_>
          <internalNodes>
            0 -1 549 4.3355293571949005e-02</internalNodes>
          <leafValues>
            -5.4398611187934875e-02 1.7298699915409088e-01</leafValues></_>
        <_>
          <internalNodes>
            0 -1 867 5.3546648472547531e-02</internalNodes>
          <leafValues>
            5.2996437996625900e-02 -1.9154597818851471e-01</leafValues></_>
        <_>
          <internalNodes>
            0 -1 472 4.6866472810506821e-02</internalNodes>
          <leafValues>
            -4.0700983256101608e-02 2.1267165243625641e-01</leafValues></_>
        <_>
          <internalNodes>
            0 -1 327 8.1572318449616432e-03</internalNodes>
          <leafValues>
            8.5062913596630096e-02 -1.1544404178857803e-01</leafValues></_>
        <_>
          <internalNodes>
            0 -1 920 5.0081619992852211e-03</internalNodes>
          <leafValues>
            -1.9112718105316162e-01 6.1630401760339737e-02</leafValues></_>
        <_>
          <internalNodes>
            0 -1 373 2.1966476924717426e-03</internalNodes>
          <leafValues>
            2.0469920337200165e-01 -5.3105819970369339e-02</leafValues></_>
        <_>
          <internalNodes>
            0 -1 1192 8.6995158344507217e-03</internalNodes>
          <leafValues>
            -1.5857103466987610e-01 5.5462181568145752e-02</leafValues></_>
        <_>
          <internalNodes>
            0 -1 226 2.3764788638800383e-03</internalNodes>
          <leafValues>
            1.1432328075170517e-01 -8.4017030894756317e-02</leafValues></_>
        <_>
          <internalNodes>
            0 -1 592 3.0120112933218479e-03</internalNodes>
          <leafValues>
            -2.0089942216873169e-01 4.6802718192338943e-02</leafValues></_>
        <_>
          <internalNodes>
            0 -1 645 5.0723934546113014e-03</internalNodes>
          <leafValues>
            2.4109691381454468e-01 -3.7533465772867203e-02</leafValues></_>
        <_>
          <internalNodes>
            0 -1 687 1.1767927557229996e-01</internalNodes>
          <leafValues>
            1.4713347889482975e-02 -6.3424825668334961e-01</leafValues></_>
        <_>
          <internalNodes>
            0 -1 342 6.7142695188522339e-02</internalNodes>
          <leafValues>
            1.2294260784983635e-02 -6.0766488313674927e-01</leafValues></_>
        <_>
          <internalNodes>
            0 -1 946 4.7237135469913483e-02</internalNodes>
          <leafValues>
            -3.2109916210174561e-02 2.8407588601112366e-01</leafValues></_>
        <_>
          <internalNodes>
            0 -1 446 5.4785378277301788e-02</internalNodes>
          <leafValues>
            -3.0664198100566864e-02 2.7687612175941467e-01</leafValues></_>
        <_>
          <internalNodes>
            0 -1 1141 3.3013693988323212e-02</internalNodes>
          <leafValues>
            3.6527872085571289e-02 -2.2549667954444885e-01</leafValues></_>
        <_>
          <internalNodes>
            0 -1 1022 5.2988976240158081e-02</internalNodes>
          <leafValues>
            1.7516275867819786e-02 -4.1322320699691772e-01</leafValues></_>
        <_>
          <internalNodes>
            0 -1 17 9.9315186962485313e-03</internalNodes>
          <leafValues>
            5.3089756518602371e-02 -1.4575864374637604e-01</leafValues></_>
        <_>
          <internalNodes>
            0 -1 830 1.4876980567350984e-03</internalNodes>
          <leafValues>
            -2.4888317286968231e-01 3.5647466778755188e-02</leafValues></_>
        <_>
          <internalNodes>
            0 -1 262 1.4474917948246002e-01</internalNodes>
          <leafValues>
            -2.7562854811549187e-02 3.3552554249763489e-01</leafValues></_>
        <_>
          <internalNodes>
            0 -1 829 8.1445492804050446e-02</internalNodes>
          <leafValues>
            -3.0686913058161736e-02 2.6298236846923828e-01</leafValues></_>
        <_>
          <internalNodes>
            0 -1 6 1.3480104506015778e-01</internalNodes>
          <leafValues>
            1.8085831776261330e-02 -5.0472211837768555e-01</leafValues></_>
        <_>
          <internalNodes>
            0 -1 576 7.3223769664764404e-02</internalNodes>
          <leafValues>
            -2.2578390315175056e-02 3.8894844055175781e-01</leafValues></_>
        <_>
          <internalNodes>
            0 -1 554 2.0782337523996830e-03</internalNodes>
          <leafValues>
            -2.5324541330337524e-01 3.4898746758699417e-02</leafValues></_>
        <_>
          <internalNodes>
            0 -1 205 3.2076735515147448e-03</internalNodes>
          <leafValues>
            1.3840457797050476e-01 -7.7726006507873535e-02</leafValues></_>
        <_>
          <internalNodes>
            0 -1 816 6.6986111924052238e-03</internalNodes>
          <leafValues>
            -2.2766993939876556e-01 4.0532026439905167e-02</leafValues></_>
        <_>
          <internalNodes>
            0 -1 423 3.3977548591792583e-03</internalNodes>
          <leafValues>
            1.0625376552343369e-01 -8.8996872305870056e-02</leafValues></_>
        <_>
          <internalNodes>
            0 -1 39 9.3873530626296997e-02</internalNodes>
          <leafValues>
            -4.3653067201375961e-02 1.8626488745212555e-01</leafValues></_>
        <_>
          <internalNodes>
            0 -1 399 1.4564415812492371e-01</internalNodes>
          <leafValues>
            3.2313670963048935e-02 -2.8606638312339783e-01</leafValues></_>
        <_>
          <internalNodes>
            0 -1 906 5.9676133096218109e-02</internalNodes>
          <leafValues>
            -4.5321963727474213e-02 2.0359519124031067e-01</leafValues></_>
        <_>
          <internalNodes>
            0 -1 5 5.0909556448459625e-02</internalNodes>
          <leafValues>
            1.5367495827376842e-02 -5.7038468122482300e-01</leafValues></_>
        <_>
          <internalNodes>
            0 -1 2 1.3710582256317139e-01</internalNodes>
          <leafValues>
            6.7570530809462070e-03 -1.</leafValues></_>
        <_>
          <internalNodes>
            0 -1 1147 1.2018378823995590e-01</internalNodes>
          <leafValues>
            8.2418490201234818e-03 -7.0225399732589722e-01</leafValues></_>
        <_>
          <internalNodes>
            0 -1 924 5.5808783508837223e-04</internalNodes>
          <leafValues>
            3.4686946868896484e-01 -2.4960475042462349e-02</leafValues></_>
        <_>
          <internalNodes>
            0 -1 1104 6.2950076535344124e-03</internalNodes>
          <leafValues>
            -1.9179099798202515e-01 5.5195257067680359e-02</leafValues></_>
        <_>
          <internalNodes>
            0 -1 470 4.6137391473166645e-04</internalNodes>
          <leafValues>
            -6.6897815465927124e-01 1.0684256441891193e-02</leafValues></_>
        <_>
          <internalNodes>
            0 -1 1100 9.8349497420713305e-05</internalNodes>
          <leafValues>
            5.5544602870941162e-01 -1.9259024411439896e-02</leafValues></_>
        <_>
          <internalNodes>
            0 -1 649 2.5776070542633533e-03</internalNodes>
          <leafValues>
            -2.2991992533206940e-01 3.9260331541299820e-02</leafValues></_>
        <_>
          <internalNodes>
            0 -1 992 5.1710736006498337e-02</internalNodes>
          <leafValues>
            1.4136060141026974e-02 -5.3096526861190796e-01</leafValues></_>
        <_>
          <internalNodes>
            0 -1 808 1.7523320857435465e-03</internalNodes>
          <leafValues>
            2.3934611678123474e-01 -3.3737901598215103e-02</leafValues></_>
        <_>
          <internalNodes>
            0 -1 368 6.6658935975283384e-04</internalNodes>
          <leafValues>
            -2.7111345529556274e-01 3.1895399093627930e-02</leafValues></_>
        <_>
          <internalNodes>
            0 -1 386 1.7857510829344392e-04</internalNodes>
          <leafValues>
            1.6779722273349762e-01 -5.6426577270030975e-02</leafValues></_>
        <_>
          <internalNodes>
            0 -1 388 3.3701304346323013e-03</internalNodes>
          <leafValues>
            -2.1383836865425110e-01 4.0589816868305206e-02</leafValues></_>
        <_>
          <internalNodes>
            0 -1 76 2.5062072277069092e-01</internalNodes>
          <leafValues>
            1.7097638919949532e-02 -4.4660958647727966e-01</leafValues></_>
        <_>
          <internalNodes>
            0 -1 427 9.1029703617095947e-02</internalNodes>
          <leafValues>
            6.2153139151632786e-03 -9.7850292921066284e-01</leafValues></_>
        <_>
          <internalNodes>
            0 -1 131 6.5641492605209351e-02</internalNodes>
          <leafValues>
            -3.6669492721557617e-02 2.2600035369396210e-01</leafValues></_>
        <_>
          <internalNodes>
            0 -1 122 5.0442554056644440e-03</internalNodes>
          <leafValues>
            1.4681509137153625e-01 -5.3605746477842331e-02</leafValues></_>
        <_>
          <internalNodes>
            0 -1 153 3.4045100212097168e-02</internalNodes>
          <leafValues>
