<?xml version="1.0"?>
<opencv_storage>
<!-- Created using Computer Vision System Toolbox(tm) for MATLAB(R) -->
<!-- Version 9.5.0.1033004 (R2018b) Update 2 -->
<!-- Compatible with OpenCV 3.4 -->
<cascade>
  <stageType>BOOST</stageType>
  <featureType>HOG</featureType>
  <height>24</height>
  <width>24</width>
  <stageParams>
    <boostType>GAB</boostType>
    <minHitRate>8.9999997615814209e-01</minHitRate>
    <maxFalseAlarm>5.0000000000000000e-01</maxFalseAlarm>
    <weightTrimRate>9.4999999999999996e-01</weightTrimRate>
    <maxDepth>1</maxDepth>
    <maxWeakCount>100</maxWeakCount></stageParams>
  <featureParams>
    <maxCatCount>0</maxCatCount>
    <featSize>36</featSize></featureParams>
  <stageNum>4</stageNum>
  <stages>
    <!-- stage 0 -->
    <_>
      <maxWeakCount>2</maxWeakCount>
      <stageThreshold>-4.6287655830383301e-02</stageThreshold>
      <weakClassifiers>
        <_>
          <internalNodes>
            0 -1 2 4.3401326984167099e-03</internalNodes>
          <leafValues>
            8.7790697813034058e-01 -8.3662992715835571e-01</leafValues></_>
        <_>
          <internalNodes>
            0 -1 6 8.3987042307853699e-03</internalNodes>
          <leafValues>
            7.9034227132797241e-01 -7.1699589490890503e-01</leafValues></_></weakClassifiers></_>
    <!-- stage 1 -->
    <_>
      <maxWeakCount>2</maxWeakCount>
      <stageThreshold>-1.5498147904872894e-01</stageThreshold>
      <weakClassifiers>
        <_>
          <internalNodes>
            0 -1 7 7.9219353210646659e-05</internalNodes>
          <leafValues>
            7.2777014970779419e-01 -8.1429237127304077e-01</leafValues></_>
        <_>
          <internalNodes>
            0 -1 3 7.6673575676977634e-05</internalNodes>
          <leafValues>
            6.5931087732315063e-01 -6.7104643583297729e-01</leafValues></_></weakClassifiers></_>
    <!-- stage 2 -->
    <_>
      <maxWeakCount>2</maxWeakCount>
      <stageThreshold>-4.3332183361053467e-01</stageThreshold>
      <weakClassifiers>
        <_>
          <internalNodes>
            0 -1 4 8.8181076571345329e-03</internalNodes>
          <leafValues>
            -8.4683758020401001e-01 5.1886522769927979e-01</leafValues></_>
        <_>
          <internalNodes>
            0 -1 1 8.7518263608217239e-03</internalNodes>
          <leafValues>
            -7.4705618619918823e-01 4.1351577639579773e-01</leafValues></_></weakClassifiers></_>
    <!-- stage 3 -->
    <_>
      <maxWeakCount>2</maxWeakCount>
      <stageThreshold>-2.0389485359191895e-01</stageThreshold>
      <weakClassifiers>
        <_>
          <internalNodes>
            0 -1 5 3.1585583928972483e-04</internalNodes>
          <leafValues>
            4.9018257856369019e-01 -7.0271939039230347e-01</leafValues></_>
        <_>
          <internalNodes>
            0 -1 0 4.2859810491790995e-05</internalNodes>
          <leafValues>
            5.1841920614242554e-01 -6.9407743215560913e-01</leafValues></_></weakClassifiers></_></stages>
  <features>
    <_>
      <rect>
        0 0 8 8 6</rect></_>
    <_>
      <rect>
        0 0 8 8 12</rect></_>
    <_>
      <rect>
        0 0 8 8 22</rect></_>
    <_>
      <rect>
        0 8 8 8 6</rect></_>
    <_>
      <rect>
        0 8 8 8 30</rect></_>
    <_>
      <rect>
        8 0 8 8 31</rect></_>
    <_>
      <rect>
        8 4 8 8 31</rect></_>
    <_>
      <rect>
        8 8 8 8 34</rect></_></features></cascade>
</opencv_storage>
