<?xml version="1.0"?>
<opencv_storage>
<!-- Created using Computer Vision System Toolbox(tm) for MATLAB(R) -->
<!-- Version 9.5.0.1033004 (R2018b) Update 2 -->
<!-- Compatible with OpenCV 3.4 -->
<cascade>
  <stageType>BOOST</stageType>
  <featureType>HOG</featureType>
  <height>32</height>
  <width>32</width>
  <stageParams>
    <boostType>GAB</boostType>
    <minHitRate>8.9999997615814209e-01</minHitRate>
    <maxFalseAlarm>3.0000001192092896e-01</maxFalseAlarm>
    <weightTrimRate>9.4999999999999996e-01</weightTrimRate>
    <maxDepth>1</maxDepth>
    <maxWeakCount>100</maxWeakCount></stageParams>
  <featureParams>
    <maxCatCount>0</maxCatCount>
    <featSize>36</featSize></featureParams>
  <stageNum>3</stageNum>
  <stages>
    <!-- stage 0 -->
    <_>
      <maxWeakCount>1</maxWeakCount>
      <stageThreshold>9.3579071760177612e-01</stageThreshold>
      <weakClassifiers>
        <_>
          <internalNodes>
            0 -1 2 3.2515314524061978e-04</internalNodes>
          <leafValues>
            9.3579071760177612e-01 -9.1427403688430786e-01</leafValues></_></weakClassifiers></_>
    <!-- stage 1 -->
    <_>
      <maxWeakCount>3</maxWeakCount>
      <stageThreshold>3.0502474308013916e-01</stageThreshold>
      <weakClassifiers>
        <_>
          <internalNodes>
            0 -1 0 1.3965466059744358e-02</internalNodes>
          <leafValues>
            -7.3624235391616821e-01 4.9104350805282593e-01</leafValues></_>
        <_>
          <internalNodes>
            0 -1 5 2.6300374884158373e-05</internalNodes>
          <leafValues>
            5.3294873237609863e-01 -7.7058595418930054e-01</leafValues></_>
        <_>
          <internalNodes>
            0 -1 4 6.4547425135970116e-03</internalNodes>
          <leafValues>
            -7.1896749734878540e-01 5.9303116798400879e-01</leafValues></_></weakClassifiers></_>
    <!-- stage 2 -->
    <_>
      <maxWeakCount>2</maxWeakCount>
      <stageThreshold>1.4306324720382690e+00</stageThreshold>
      <weakClassifiers>
        <_>
          <internalNodes>
            0 -1 1 8.8755710748955607e-05</internalNodes>
          <leafValues>
            8.1567299365997314e-01 -7.9661017656326294e-01</leafValues></_>
        <_>
          <internalNodes>
            0 -1 3 2.4479785934090614e-03</internalNodes>
          <leafValues>
            6.1495947837829590e-01 -7.0805257558822632e-01</leafValues></_></weakClassifiers></_></stages>
  <features>
    <_>
      <rect>
        0 0 8 8 12</rect></_>
    <_>
      <rect>
        0 0 8 8 20</rect></_>
    <_>
      <rect>
        0 12 8 8 4</rect></_>
    <_>
      <rect>
        16 4 8 8 31</rect></_>
    <_>
      <rect>
        0 0 8 16 30</rect></_>
    <_>
      <rect>
        16 0 8 16 33</rect></_></features></cascade>
</opencv_storage>
