<?xml version="1.0"?>
<opencv_storage>
<!-- Created using Computer Vision System Toolbox(tm) for MATLAB(R) -->
<!-- Version 9.5.0.1033004 (R2018b) Update 2 -->
<!-- Compatible with OpenCV 3.4 -->
<cascade>
  <stageType>BOOST</stageType>
  <featureType>LBP</featureType>
  <height>16</height>
  <width>16</width>
  <stageParams>
    <boostType>GAB</boostType>
    <minHitRate>9.4999998807907104e-01</minHitRate>
    <maxFalseAlarm>5.0000000000000000e-01</maxFalseAlarm>
    <weightTrimRate>9.4999999999999996e-01</weightTrimRate>
    <maxDepth>1</maxDepth>
    <maxWeakCount>100</maxWeakCount></stageParams>
  <featureParams>
    <maxCatCount>256</maxCatCount>
    <featSize>1</featSize></featureParams>
  <stageNum>3</stageNum>
  <stages>
    <!-- stage 0 -->
    <_>
      <maxWeakCount>2</maxWeakCount>
      <stageThreshold>-2.4171984195709229e-01</stageThreshold>
      <weakClassifiers>
        <_>
          <internalNodes>
            0 -1 1 -1 -8193 -67108865 -1057 -2097153 -4198401 -1
            -193659036</internalNodes>
          <leafValues>
            -9.0653300285339355e-01 7.9226940870285034e-01</leafValues></_>
        <_>
          <internalNodes>
            0 -1 2 -1 -3146849 -707803681 -527873 2137482087 -1055089
            2138535799 2138537847</internalNodes>
          <leafValues>
            -9.9763381481170654e-01 6.6481316089630127e-01</leafValues></_></weakClassifiers></_>
    <!-- stage 1 -->
    <_>
      <maxWeakCount>1</maxWeakCount>
      <stageThreshold>6.5461850166320801e-01</stageThreshold>
      <weakClassifiers>
        <_>
          <internalNodes>
            0 -1 0 -1 -2097153 -4202497 -1025 -262145 -513 -67108865
            2138570623</internalNodes>
          <leafValues>
            -9.8776268959045410e-01 6.5461850166320801e-01</leafValues></_></weakClassifiers></_>
    <!-- stage 2 -->
    <_>
      <maxWeakCount>2</maxWeakCount>
      <stageThreshold>-1.5405246615409851e-01</stageThreshold>
      <weakClassifiers>
        <_>
          <internalNodes>
            0 -1 4 1071587327 1071633883 -646193665 1071619547 -41222145
            2141973467 -1146356737 -1025</internalNodes>
          <leafValues>
            -9.0261453390121460e-01 8.0769228935241699e-01</leafValues></_>
        <_>
          <internalNodes>
            0 -1 3 -1 -8705 -148649473 -10488833 1879015423 2142206379
            2141159231 -34193</internalNodes>
          <leafValues>
            -8.2129091024398804e-01 7.4856203794479370e-01</leafValues></_></weakClassifiers></_></stages>
  <features>
    <_>
      <rect>
        0 0 1 1</rect></_>
    <_>
      <rect>
        0 0 5 1</rect></_>
    <_>
      <rect>
        0 1 1 5</rect></_>
    <_>
      <rect>
        0 10 2 2</rect></_>
    <_>
      <rect>
        4 13 4 1</rect></_></features></cascade>
</opencv_storage>
