<?xml version="1.0"?>
<opencv_storage>
<!-- Created using Computer Vision System Toolbox(tm) for MATLAB(R) -->
<!-- Version 9.5.0.1033004 (R2018b) Update 2 -->
<!-- Compatible with OpenCV 3.4 -->
<cascade>
  <stageType>BOOST</stageType>
  <featureType>LBP</featureType>
  <height>16</height>
  <width>16</width>
  <stageParams>
    <boostType>GAB</boostType>
    <minHitRate>9.4999998807907104e-01</minHitRate>
    <maxFalseAlarm>5.0000000000000000e-01</maxFalseAlarm>
    <weightTrimRate>9.4999999999999996e-01</weightTrimRate>
    <maxDepth>1</maxDepth>
    <maxWeakCount>100</maxWeakCount></stageParams>
  <featureParams>
    <maxCatCount>256</maxCatCount>
    <featSize>1</featSize></featureParams>
  <stageNum>3</stageNum>
  <stages>
    <!-- stage 0 -->
    <_>
      <maxWeakCount>1</maxWeakCount>
      <stageThreshold>8.3102309703826904e-01</stageThreshold>
      <weakClassifiers>
        <_>
          <internalNodes>
            0 -1 0 -1 -205523553 -201334193 -3415097 2070379095
            -666645497 2004317815 2138537847</internalNodes>
          <leafValues>
            -9.9735939502716064e-01 8.3102309703826904e-01</leafValues></_></weakClassifiers></_>
    <!-- stage 1 -->
    <_>
      <maxWeakCount>1</maxWeakCount>
      <stageThreshold>7.3384028673171997e-01</stageThreshold>
      <weakClassifiers>
        <_>
          <internalNodes>
            0 -1 3 -2097153 234880863 -996934705 150468543 -68157489
            -23340033 -67109889 1308622847</internalNodes>
          <leafValues>
            -9.6553641557693481e-01 7.3384028673171997e-01</leafValues></_></weakClassifiers></_>
    <!-- stage 2 -->
    <_>
      <maxWeakCount>2</maxWeakCount>
      <stageThreshold>-1.1237560957670212e-01</stageThreshold>
      <weakClassifiers>
        <_>
          <internalNodes>
            0 -1 2 1071595519 1073205727 1537187327 1071634911
            2144066559 2142943963 -1148462081 -4194405</internalNodes>
          <leafValues>
            -8.1882518529891968e-01 8.4803324937820435e-01</leafValues></_>
        <_>
          <internalNodes>
            0 -1 1 2147481599 -2105345 -136622113 -263169 2124381183
            2075871675 2079293311 -32897</internalNodes>
          <leafValues>
            -7.8728097677230835e-01 7.0644956827163696e-01</leafValues></_></weakClassifiers></_></stages>
  <features>
    <_>
      <rect>
        0 0 1 5</rect></_>
    <_>
      <rect>
        0 10 2 2</rect></_>
    <_>
      <rect>
        3 13 4 1</rect></_>
    <_>
      <rect>
        13 3 1 4</rect></_></features></cascade>
</opencv_storage>
