<?xml version="1.0"?>
<opencv_storage>
<!-- Created using Computer Vision System Toolbox(tm) for MATLAB(R) -->
<!-- Version 9.5.0.1033004 (R2018b) Update 2 -->
<!-- Compatible with OpenCV 3.4 -->
<cascade>
  <stageType>BOOST</stageType>
  <featureType>HOG</featureType>
  <height>32</height>
  <width>32</width>
  <stageParams>
    <boostType>GAB</boostType>
    <minHitRate>9.4999998807907104e-01</minHitRate>
    <maxFalseAlarm>5.0000000000000000e-01</maxFalseAlarm>
    <weightTrimRate>9.4999999999999996e-01</weightTrimRate>
    <maxDepth>1</maxDepth>
    <maxWeakCount>100</maxWeakCount></stageParams>
  <featureParams>
    <maxCatCount>0</maxCatCount>
    <featSize>36</featSize></featureParams>
  <stageNum>2</stageNum>
  <stages>
    <!-- stage 0 -->
    <_>
      <maxWeakCount>2</maxWeakCount>
      <stageThreshold>-4.6586081385612488e-02</stageThreshold>
      <weakClassifiers>
        <_>
          <internalNodes>
            0 -1 1 9.4751489814370871e-04</internalNodes>
          <leafValues>
            9.5543175935745239e-01 -8.6082589626312256e-01</leafValues></_>
        <_>
          <internalNodes>
            0 -1 3 7.6998032454866916e-05</internalNodes>
          <leafValues>
            8.1423985958099365e-01 -8.5727399587631226e-01</leafValues></_></weakClassifiers></_>
    <!-- stage 1 -->
    <_>
      <maxWeakCount>3</maxWeakCount>
      <stageThreshold>5.3260598331689835e-02</stageThreshold>
      <weakClassifiers>
        <_>
          <internalNodes>
            0 -1 2 7.3394592618569732e-05</internalNodes>
          <leafValues>
            4.5969581604003906e-01 -7.8710937500000000e-01</leafValues></_>
        <_>
          <internalNodes>
            0 -1 4 4.7907568514347076e-03</internalNodes>
          <leafValues>
            -7.9780930280685425e-01 5.1095014810562134e-01</leafValues></_>
        <_>
          <internalNodes>
            0 -1 0 2.0365128875710070e-04</internalNodes>
          <leafValues>
            3.9137408137321472e-01 -7.0994162559509277e-01</leafValues></_></weakClassifiers></_></stages>
  <features>
    <_>
      <rect>
        0 8 8 8 4</rect></_>
    <_>
      <rect>
        0 12 8 8 4</rect></_>
    <_>
      <rect>
        16 4 8 8 33</rect></_>
    <_>
      <rect>
        16 16 8 8 33</rect></_>
    <_>
      <rect>
        4 0 8 16 12</rect></_></features></cascade>
</opencv_storage>
