<?xml version="1.0"?>
<opencv_storage>
<!-- Created using Computer Vision System Toolbox(tm) for MATLAB(R) -->
<!-- Version 9.5.0.1033004 (R2018b) Update 2 -->
<!-- Compatible with OpenCV 3.4 -->
<cascade>
  <stageType>BOOST</stageType>
  <featureType>LBP</featureType>
  <height>16</height>
  <width>16</width>
  <stageParams>
    <boostType>GAB</boostType>
    <minHitRate>8.9999997615814209e-01</minHitRate>
    <maxFalseAlarm>3.0000001192092896e-01</maxFalseAlarm>
    <weightTrimRate>9.4999999999999996e-01</weightTrimRate>
    <maxDepth>1</maxDepth>
    <maxWeakCount>100</maxWeakCount></stageParams>
  <featureParams>
    <maxCatCount>256</maxCatCount>
    <featSize>1</featSize></featureParams>
  <stageNum>6</stageNum>
  <stages>
    <!-- stage 0 -->
    <_>
      <maxWeakCount>1</maxWeakCount>
      <stageThreshold>8.2937556505203247e-01</stageThreshold>
      <weakClassifiers>
        <_>
          <internalNodes>
            0 -1 0 -1 -474483309 -203701681 -3415097 1533508183
            -666776569 1735882359 2138537847</internalNodes>
          <leafValues>
            -9.9647760391235352e-01 8.2937556505203247e-01</leafValues></_></weakClassifiers></_>
    <!-- stage 1 -->
    <_>
      <maxWeakCount>1</maxWeakCount>
      <stageThreshold>7.6491022109985352e-01</stageThreshold>
      <weakClassifiers>
        <_>
          <internalNodes>
            0 -1 5 -1 234355603 -1038642529 203420063 -738201601
            -349192061 -1067718417 1308622847</internalNodes>
          <leafValues>
            -9.4492131471633911e-01 7.6491022109985352e-01</leafValues></_></weakClassifiers></_>
    <!-- stage 2 -->
    <_>
      <maxWeakCount>1</maxWeakCount>
      <stageThreshold>6.9445204734802246e-01</stageThreshold>
      <weakClassifiers>
        <_>
          <internalNodes>
            0 -1 1 -69206017 -532481 -125307393 -35654657 2143256575
            -1336113 2147445759 2147482623</internalNodes>
          <leafValues>
            -9.8070245981216431e-01 6.9445204734802246e-01</leafValues></_></weakClassifiers></_>
    <!-- stage 3 -->
    <_>
      <maxWeakCount>1</maxWeakCount>
      <stageThreshold>9.7382020950317383e-01</stageThreshold>
      <weakClassifiers>
        <_>
          <internalNodes>
            0 -1 4 1073692671 1073741823 2147467263 285278297 344524929
            1493172287 -1736408919 -7628151</internalNodes>
          <leafValues>
            -8.4463697671890259e-01 9.7382020950317383e-01</leafValues></_></weakClassifiers></_>
    <!-- stage 4 -->
    <_>
      <maxWeakCount>1</maxWeakCount>
      <stageThreshold>8.1748145818710327e-01</stageThreshold>
      <weakClassifiers>
        <_>
          <internalNodes>
            0 -1 3 -33562625 -138439817 -781131777 -538995745 -89330945
            -89417541 -826544129 -184161472</internalNodes>
          <leafValues>
            -9.5711642503738403e-01 8.1748145818710327e-01</leafValues></_></weakClassifiers></_>
    <!-- stage 5 -->
    <_>
      <maxWeakCount>2</maxWeakCount>
      <stageThreshold>1.8123778104782104e+00</stageThreshold>
      <weakClassifiers>
        <_>
          <internalNodes>
            0 -1 6 -238300973 286261505 1090519241 823332889 -2147413886
            -511639536 -2053078901 865845451</internalNodes>
          <leafValues>
            -1. 9.3498450517654419e-01</leafValues></_>
        <_>
          <internalNodes>
            0 -1 2 272634335 473 1073813713 -738115583 1350582429 34824
            -850048871 -657948536</internalNodes>
          <leafValues>
            -8.3538556098937988e-01 8.7739336490631104e-01</leafValues></_></weakClassifiers></_></stages>
  <features>
    <_>
      <rect>
        0 0 1 5</rect></_>
    <_>
      <rect>
        0 13 1 1</rect></_>
    <_>
      <rect>
        0 13 3 1</rect></_>
    <_>
      <rect>
        1 0 4 1</rect></_>
    <_>
      <rect>
        1 13 5 1</rect></_>
    <_>
      <rect>
        13 1 1 5</rect></_>
    <_>
      <rect>
        13 13 1 1</rect></_></features></cascade>
</opencv_storage>
