<?xml version="1.0"?>
<opencv_storage>
<!-- Created using Computer Vision System Toolbox(tm) for MATLAB(R) -->
<!-- Version 9.5.0.1033004 (R2018b) Update 2 -->
<!-- Compatible with OpenCV 3.4 -->
<cascade>
  <stageType>BOOST</stageType>
  <featureType>HOG</featureType>
  <height>24</height>
  <width>24</width>
  <stageParams>
    <boostType>GAB</boostType>
    <minHitRate>8.9999997615814209e-01</minHitRate>
    <maxFalseAlarm>5.0000000000000000e-01</maxFalseAlarm>
    <weightTrimRate>9.4999999999999996e-01</weightTrimRate>
    <maxDepth>1</maxDepth>
    <maxWeakCount>100</maxWeakCount></stageParams>
  <featureParams>
    <maxCatCount>0</maxCatCount>
    <featSize>36</featSize></featureParams>
  <stageNum>4</stageNum>
  <stages>
    <!-- stage 0 -->
    <_>
      <maxWeakCount>2</maxWeakCount>
      <stageThreshold>5.7833507657051086e-02</stageThreshold>
      <weakClassifiers>
        <_>
          <internalNodes>
            0 -1 1 1.0690025985240936e-02</internalNodes>
          <leafValues>
            8.8661324977874756e-01 -7.9167771339416504e-01</leafValues></_>
        <_>
          <internalNodes>
            0 -1 5 1.0303503833711147e-02</internalNodes>
          <leafValues>
            8.4951120615005493e-01 -6.5554261207580566e-01</leafValues></_></weakClassifiers></_>
    <!-- stage 1 -->
    <_>
      <maxWeakCount>2</maxWeakCount>
      <stageThreshold>6.7719869315624237e-02</stageThreshold>
      <weakClassifiers>
        <_>
          <internalNodes>
            0 -1 7 6.5034000726882368e-05</internalNodes>
          <leafValues>
            8.7015444040298462e-01 -6.9564121961593628e-01</leafValues></_>
        <_>
          <internalNodes>
            0 -1 2 2.1595583530142903e-04</internalNodes>
          <leafValues>
            7.6336109638214111e-01 -7.2596549987792969e-01</leafValues></_></weakClassifiers></_>
    <!-- stage 2 -->
    <_>
      <maxWeakCount>2</maxWeakCount>
      <stageThreshold>-3.0111098289489746e-01</stageThreshold>
      <weakClassifiers>
        <_>
          <internalNodes>
            0 -1 0 8.7528210133314133e-03</internalNodes>
          <leafValues>
            -7.5294119119644165e-01 6.8412613868713379e-01</leafValues></_>
        <_>
          <internalNodes>
            0 -1 3 1.0511270724236965e-02</internalNodes>
          <leafValues>
            -8.1228250265121460e-01 4.5183020830154419e-01</leafValues></_></weakClassifiers></_>
    <!-- stage 3 -->
    <_>
      <maxWeakCount>2</maxWeakCount>
      <stageThreshold>-6.0321111232042313e-02</stageThreshold>
      <weakClassifiers>
        <_>
          <internalNodes>
            0 -1 6 9.9569465965032578e-03</internalNodes>
          <leafValues>
            -6.7032235860824585e-01 4.8802322149276733e-01</leafValues></_>
        <_>
          <internalNodes>
            0 -1 4 8.4676389815285802e-04</internalNodes>
          <leafValues>
            6.1000126600265503e-01 -5.3899693489074707e-01</leafValues></_></weakClassifiers></_></stages>
  <features>
    <_>
      <rect>
        0 0 8 8 12</rect></_>
    <_>
      <rect>
        0 0 8 8 22</rect></_>
    <_>
      <rect>
        0 0 8 8 23</rect></_>
    <_>
      <rect>
        4 8 8 8 22</rect></_>
    <_>
      <rect>
        8 0 8 8 31</rect></_>
    <_>
      <rect>
        8 4 8 8 31</rect></_>
    <_>
      <rect>
        8 8 8 8 21</rect></_>
    <_>
      <rect>
        8 8 8 8 33</rect></_></features></cascade>
</opencv_storage>
