<?xml version="1.0"?>
<opencv_storage>
<!-- Created using Computer Vision System Toolbox(tm) for MATLAB(R) -->
<!-- Version 9.5.0.1033004 (R2018b) Update 2 -->
<!-- Compatible with OpenCV 3.4 -->
<cascade>
  <stageType>BOOST</stageType>
  <featureType>HOG</featureType>
  <height>24</height>
  <width>24</width>
  <stageParams>
    <boostType>GAB</boostType>
    <minHitRate>9.4999998807907104e-01</minHitRate>
    <maxFalseAlarm>3.0000001192092896e-01</maxFalseAlarm>
    <weightTrimRate>9.4999999999999996e-01</weightTrimRate>
    <maxDepth>1</maxDepth>
    <maxWeakCount>100</maxWeakCount></stageParams>
  <featureParams>
    <maxCatCount>0</maxCatCount>
    <featSize>36</featSize></featureParams>
  <stageNum>5</stageNum>
  <stages>
    <!-- stage 0 -->
    <_>
      <maxWeakCount>2</maxWeakCount>
      <stageThreshold>-9.3203112483024597e-02</stageThreshold>
      <weakClassifiers>
        <_>
          <internalNodes>
            0 -1 3 2.0570883061736822e-03</internalNodes>
          <leafValues>
            8.6964619159698486e-01 -7.9942280054092407e-01</leafValues></_>
        <_>
          <internalNodes>
            0 -1 16 6.5034000726882368e-05</internalNodes>
          <leafValues>
            7.0621967315673828e-01 -7.5141948461532593e-01</leafValues></_></weakClassifiers></_>
    <!-- stage 1 -->
    <_>
      <maxWeakCount>2</maxWeakCount>
      <stageThreshold>-2.1097713708877563e-01</stageThreshold>
      <weakClassifiers>
        <_>
          <internalNodes>
            0 -1 1 9.8873712122440338e-03</internalNodes>
          <leafValues>
            -8.4521955251693726e-01 3.0922594666481018e-01</leafValues></_>
        <_>
          <internalNodes>
            0 -1 4 5.3342647850513458e-02</internalNodes>
          <leafValues>
            -4.7744649648666382e-01 6.3424241542816162e-01</leafValues></_></weakClassifiers></_>
    <!-- stage 2 -->
    <_>
      <maxWeakCount>2</maxWeakCount>
      <stageThreshold>-1.5875539183616638e-01</stageThreshold>
      <weakClassifiers>
        <_>
          <internalNodes>
            0 -1 10 3.7564733065664768e-04</internalNodes>
          <leafValues>
            6.1969649791717529e-01 -7.0369476079940796e-01</leafValues></_>
        <_>
          <internalNodes>
            0 -1 0 1.1019445082638413e-04</internalNodes>
          <leafValues>
            5.4493939876556396e-01 -7.0642733573913574e-01</leafValues></_></weakClassifiers></_>
    <!-- stage 3 -->
    <_>
      <maxWeakCount>5</maxWeakCount>
      <stageThreshold>-3.9373672008514404e-01</stageThreshold>
      <weakClassifiers>
        <_>
          <internalNodes>
            0 -1 14 1.0156385600566864e-02</internalNodes>
          <leafValues>
            -8.1232684850692749e-01 2.5080445408821106e-01</leafValues></_>
        <_>
          <internalNodes>
            0 -1 13 9.5813017105683684e-04</internalNodes>
          <leafValues>
            4.1758683323860168e-01 -5.7020306587219238e-01</leafValues></_>
        <_>
          <internalNodes>
            0 -1 5 5.8073614491149783e-04</internalNodes>
          <leafValues>
            4.1761589050292969e-01 -5.0629037618637085e-01</leafValues></_>
        <_>
          <internalNodes>
            0 -1 8 9.6528669819235802e-03</internalNodes>
          <leafValues>
            -7.1903771162033081e-01 2.9122486710548401e-01</leafValues></_>
        <_>
          <internalNodes>
            0 -1 11 7.6081138104200363e-03</internalNodes>
          <leafValues>
            -6.2424087524414063e-01 2.7995243668556213e-01</leafValues></_></weakClassifiers></_>
    <!-- stage 4 -->
    <_>
      <maxWeakCount>6</maxWeakCount>
      <stageThreshold>5.4068809747695923e-01</stageThreshold>
      <weakClassifiers>
        <_>
          <internalNodes>
            0 -1 2 9.1594265541061759e-05</internalNodes>
          <leafValues>
            7.8501808643341064e-01 -1.5099337697029114e-01</leafValues></_>
        <_>
          <internalNodes>
            0 -1 9 9.0465201064944267e-03</internalNodes>
          <leafValues>
            -5.6861448287963867e-01 4.2761689424514771e-01</leafValues></_>
        <_>
          <internalNodes>
            0 -1 15 8.7565407739020884e-05</internalNodes>
          <leafValues>
            3.0079853534698486e-01 -6.5414452552795410e-01</leafValues></_>
        <_>
          <internalNodes>
            0 -1 6 8.6525663733482361e-02</internalNodes>
          <leafValues>
            -2.6762241125106812e-01 5.8689057826995850e-01</leafValues></_>
        <_>
          <internalNodes>
            0 -1 7 1.1467372998595238e-02</internalNodes>
          <leafValues>
            -6.8247336149215698e-01 1.9720397889614105e-01</leafValues></_>
        <_>
          <internalNodes>
            0 -1 12 5.0208687782287598e-02</internalNodes>
          <leafValues>
            1.7540283501148224e-01 -7.9640316963195801e-01</leafValues></_></weakClassifiers></_></stages>
  <features>
    <_>
      <rect>
        0 0 8 8 6</rect></_>
    <_>
      <rect>
        0 0 8 8 12</rect></_>
    <_>
      <rect>
        0 0 8 8 20</rect></_>
    <_>
      <rect>
        0 0 8 8 22</rect></_>
    <_>
      <rect>
        0 0 8 8 28</rect></_>
    <_>
      <rect>
        0 8 8 8 4</rect></_>
    <_>
      <rect>
        0 8 8 8 10</rect></_>
    <_>
      <rect>
        4 0 8 8 13</rect></_>
    <_>
      <rect>
        4 8 8 8 22</rect></_>
    <_>
      <rect>
        8 0 8 8 3</rect></_>
    <_>
      <rect>
        8 0 8 8 31</rect></_>
    <_>
      <rect>
        8 4 8 8 0</rect></_>
    <_>
      <rect>
        8 4 8 8 13</rect></_>
    <_>
      <rect>
        8 4 8 8 31</rect></_>
    <_>
      <rect>
        8 8 8 8 21</rect></_>
    <_>
      <rect>
        8 8 8 8 32</rect></_>
    <_>
      <rect>
        8 8 8 8 33</rect></_></features></cascade>
</opencv_storage>
