<?xml version="1.0"?>
<opencv_storage>
<!-- Created using Computer Vision System Toolbox(tm) for MATLAB(R) -->
<!-- Version 9.5.0.1033004 (R2018b) Update 2 -->
<!-- Compatible with OpenCV 3.4 -->
<cascade>
  <stageType>BOOST</stageType>
  <featureType>HOG</featureType>
  <height>24</height>
  <width>24</width>
  <stageParams>
    <boostType>GAB</boostType>
    <minHitRate>9.4999998807907104e-01</minHitRate>
    <maxFalseAlarm>5.0000000000000000e-01</maxFalseAlarm>
    <weightTrimRate>9.4999999999999996e-01</weightTrimRate>
    <maxDepth>1</maxDepth>
    <maxWeakCount>100</maxWeakCount></stageParams>
  <featureParams>
    <maxCatCount>0</maxCatCount>
    <featSize>36</featSize></featureParams>
  <stageNum>4</stageNum>
  <stages>
    <!-- stage 0 -->
    <_>
      <maxWeakCount>2</maxWeakCount>
      <stageThreshold>5.3748231381177902e-02</stageThreshold>
      <weakClassifiers>
        <_>
          <internalNodes>
            0 -1 1 9.6951257437467575e-03</internalNodes>
          <leafValues>
            8.9460152387619019e-01 -7.8343087434768677e-01</leafValues></_>
        <_>
          <internalNodes>
            0 -1 5 1.0937497019767761e-02</internalNodes>
          <leafValues>
            8.3717912435531616e-01 -6.6052097082138062e-01</leafValues></_></weakClassifiers></_>
    <!-- stage 1 -->
    <_>
      <maxWeakCount>2</maxWeakCount>
      <stageThreshold>1.1283198744058609e-01</stageThreshold>
      <weakClassifiers>
        <_>
          <internalNodes>
            0 -1 7 6.5034000726882368e-05</internalNodes>
          <leafValues>
            8.9258450269699097e-01 -7.0197254419326782e-01</leafValues></_>
        <_>
          <internalNodes>
            0 -1 2 2.0474684424698353e-04</internalNodes>
          <leafValues>
            8.1480455398559570e-01 -7.3128736019134521e-01</leafValues></_></weakClassifiers></_>
    <!-- stage 2 -->
    <_>
      <maxWeakCount>2</maxWeakCount>
      <stageThreshold>-2.7862009406089783e-01</stageThreshold>
      <weakClassifiers>
        <_>
          <internalNodes>
            0 -1 0 8.2749417051672935e-03</internalNodes>
          <leafValues>
            -7.6013761758804321e-01 7.2554540634155273e-01</leafValues></_>
        <_>
          <internalNodes>
            0 -1 3 1.0247944854199886e-02</internalNodes>
          <leafValues>
            -8.1806969642639160e-01 4.8151752352714539e-01</leafValues></_></weakClassifiers></_>
    <!-- stage 3 -->
    <_>
      <maxWeakCount>2</maxWeakCount>
      <stageThreshold>-8.8882185518741608e-02</stageThreshold>
      <weakClassifiers>
        <_>
          <internalNodes>
            0 -1 6 9.9319089204072952e-03</internalNodes>
          <leafValues>
            -6.6965788602828979e-01 5.0104910135269165e-01</leafValues></_>
        <_>
          <internalNodes>
            0 -1 4 8.4676389815285802e-04</internalNodes>
          <leafValues>
            5.8077567815780640e-01 -5.2555680274963379e-01</leafValues></_></weakClassifiers></_></stages>
  <features>
    <_>
      <rect>
        0 0 8 8 12</rect></_>
    <_>
      <rect>
        0 0 8 8 22</rect></_>
    <_>
      <rect>
        0 0 8 8 23</rect></_>
    <_>
      <rect>
        4 8 8 8 22</rect></_>
    <_>
      <rect>
        8 0 8 8 31</rect></_>
    <_>
      <rect>
        8 4 8 8 31</rect></_>
    <_>
      <rect>
        8 8 8 8 21</rect></_>
    <_>
      <rect>
        8 8 8 8 33</rect></_></features></cascade>
</opencv_storage>
