<?xml version="1.0"?>
<opencv_storage>
<!-- Created using Computer Vision System Toolbox(tm) for MATLAB(R) -->
<!-- Version 9.5.0.1033004 (R2018b) Update 2 -->
<!-- Compatible with OpenCV 3.4 -->
<cascade>
  <stageType>BOOST</stageType>
  <featureType>LBP</featureType>
  <height>32</height>
  <width>32</width>
  <stageParams>
    <boostType>GAB</boostType>
    <minHitRate>8.9999997615814209e-01</minHitRate>
    <maxFalseAlarm>3.0000001192092896e-01</maxFalseAlarm>
    <weightTrimRate>9.4999999999999996e-01</weightTrimRate>
    <maxDepth>1</maxDepth>
    <maxWeakCount>100</maxWeakCount></stageParams>
  <featureParams>
    <maxCatCount>256</maxCatCount>
    <featSize>1</featSize></featureParams>
  <stageNum>3</stageNum>
  <stages>
    <!-- stage 0 -->
    <_>
      <maxWeakCount>1</maxWeakCount>
      <stageThreshold>9.2084008455276489e-01</stageThreshold>
      <weakClassifiers>
        <_>
          <internalNodes>
            0 -1 2 -1 -77606937 -213657533 -674245937 -208942869
            -397708921 -274727973 2080374783</internalNodes>
          <leafValues>
            -9.9766629934310913e-01 9.2084008455276489e-01</leafValues></_></weakClassifiers></_>
    <!-- stage 1 -->
    <_>
      <maxWeakCount>1</maxWeakCount>
      <stageThreshold>8.7146091461181641e-01</stageThreshold>
      <weakClassifiers>
        <_>
          <internalNodes>
            0 -1 1 1073725439 1073741823 2147483647 1073741823 -3407873
            1072431099 -1 -1073741825</internalNodes>
          <leafValues>
            -8.5263156890869141e-01 8.7146091461181641e-01</leafValues></_></weakClassifiers></_>
    <!-- stage 2 -->
    <_>
      <maxWeakCount>1</maxWeakCount>
      <stageThreshold>8.1157946586608887e-01</stageThreshold>
      <weakClassifiers>
        <_>
          <internalNodes>
            0 -1 0 -12582913 -10618441 -2368003 -2666343 -4588545
            -39216964 -50741313 2141823978</internalNodes>
          <leafValues>
            -9.9718010425567627e-01 8.1157946586608887e-01</leafValues></_></weakClassifiers></_></stages>
  <features>
    <_>
      <rect>
        2 29 8 1</rect></_>
    <_>
      <rect>
        11 23 7 3</rect></_>
    <_>
      <rect>
        29 1 1 8</rect></_></features></cascade>
</opencv_storage>
