<?xml version="1.0"?>
<opencv_storage>
<!-- Created using Computer Vision System Toolbox(tm) for MATLAB(R) -->
<!-- Version 9.5.0.1033004 (R2018b) Update 2 -->
<!-- Compatible with OpenCV 3.4 -->
<cascade>
  <stageType>BOOST</stageType>
  <featureType>LBP</featureType>
  <height>24</height>
  <width>24</width>
  <stageParams>
    <boostType>GAB</boostType>
    <minHitRate>9.4999998807907104e-01</minHitRate>
    <maxFalseAlarm>3.0000001192092896e-01</maxFalseAlarm>
    <weightTrimRate>9.4999999999999996e-01</weightTrimRate>
    <maxDepth>1</maxDepth>
    <maxWeakCount>100</maxWeakCount></stageParams>
  <featureParams>
    <maxCatCount>256</maxCatCount>
    <featSize>1</featSize></featureParams>
  <stageNum>4</stageNum>
  <stages>
    <!-- stage 0 -->
    <_>
      <maxWeakCount>1</maxWeakCount>
      <stageThreshold>8.5325604677200317e-01</stageThreshold>
      <weakClassifiers>
        <_>
          <internalNodes>
            0 -1 0 -1 -653794353 -1056194517 -140259025 -773589273
            -805060397 1129019679 2138537855</internalNodes>
          <leafValues>
            -9.9428272247314453e-01 8.5325604677200317e-01</leafValues></_></weakClassifiers></_>
    <!-- stage 1 -->
    <_>
      <maxWeakCount>1</maxWeakCount>
      <stageThreshold>8.4499555826187134e-01</stageThreshold>
      <weakClassifiers>
        <_>
          <internalNodes>
            0 -1 5 -1025 -2108421 -610795521 2147473375 -1025 -2104069
            -71304193 2147483647</internalNodes>
          <leafValues>
            -1. 8.4499555826187134e-01</leafValues></_></weakClassifiers></_>
    <!-- stage 2 -->
    <_>
      <maxWeakCount>2</maxWeakCount>
      <stageThreshold>-7.8437365591526031e-02</stageThreshold>
      <weakClassifiers>
        <_>
          <internalNodes>
            0 -1 3 1040137215 1067254623 -782502433 536809695 -87307009
            1002178719 -1177830661 -1074012417</internalNodes>
          <leafValues>
            -8.8929527997970581e-01 8.6197113990783691e-01</leafValues></_>
        <_>
          <internalNodes>
            0 -1 1 -740566017 -134753893 -753198113 -2633121 -72680705
            -4224785 -269553665 -176856457</internalNodes>
          <leafValues>
            -7.0798027515411377e-01 8.1085795164108276e-01</leafValues></_></weakClassifiers></_>
    <!-- stage 3 -->
    <_>
      <maxWeakCount>2</maxWeakCount>
      <stageThreshold>-3.4375198185443878e-02</stageThreshold>
      <weakClassifiers>
        <_>
          <internalNodes>
            0 -1 4 -4195329 -35938345 -10625537 -3109 -7357441 -10561
            -4194305 -1594490881</internalNodes>
          <leafValues>
            -7.9198056459426880e-01 7.7282428741455078e-01</leafValues></_>
        <_>
          <internalNodes>
            0 -1 2 1066483711 1070718933 1505172991 2134758715
            2078620415 1069514906 -72713217 -5518597</internalNodes>
          <leafValues>
            -7.8669607639312744e-01 7.5760537385940552e-01</leafValues></_></weakClassifiers></_></stages>
  <features>
    <_>
      <rect>
        0 0 1 8</rect></_>
    <_>
      <rect>
        0 0 5 2</rect></_>
    <_>
      <rect>
        0 20 6 1</rect></_>
    <_>
      <rect>
        6 18 6 2</rect></_>
    <_>
      <rect>
        12 0 4 2</rect></_>
    <_>
      <rect>
        21 21 1 1</rect></_></features></cascade>
</opencv_storage>
