<?xml version="1.0"?>
<opencv_storage>
<!-- Created using Computer Vision System Toolbox(tm) for MATLAB(R) -->
<!-- Version 9.5.0.1033004 (R2018b) Update 2 -->
<!-- Compatible with OpenCV 3.4 -->
<cascade>
  <stageType>BOOST</stageType>
  <featureType>HOG</featureType>
  <height>16</height>
  <width>16</width>
  <stageParams>
    <boostType>GAB</boostType>
    <minHitRate>9.4999998807907104e-01</minHitRate>
    <maxFalseAlarm>5.0000000000000000e-01</maxFalseAlarm>
    <weightTrimRate>9.4999999999999996e-01</weightTrimRate>
    <maxDepth>1</maxDepth>
    <maxWeakCount>100</maxWeakCount></stageParams>
  <featureParams>
    <maxCatCount>0</maxCatCount>
    <featSize>36</featSize></featureParams>
  <stageNum>5</stageNum>
  <stages>
    <!-- stage 0 -->
    <_>
      <maxWeakCount>4</maxWeakCount>
      <stageThreshold>-6.3211548328399658e-01</stageThreshold>
      <weakClassifiers>
        <_>
          <internalNodes>
            0 -1 10 7.3141730390489101e-03</internalNodes>
          <leafValues>
            6.5504753589630127e-01 -5.4553407430648804e-01</leafValues></_>
        <_>
          <internalNodes>
            0 -1 9 3.1040566042065620e-02</internalNodes>
          <leafValues>
            -5.4119747877120972e-01 3.4047085046768188e-01</leafValues></_>
        <_>
          <internalNodes>
            0 -1 1 7.8792087733745575e-02</internalNodes>
          <leafValues>
            2.0781764388084412e-01 -8.5878348350524902e-01</leafValues></_>
        <_>
          <internalNodes>
            0 -1 7 2.0376594737172127e-02</internalNodes>
          <leafValues>
            -5.6183737516403198e-01 2.4679841101169586e-01</leafValues></_></weakClassifiers></_>
    <!-- stage 1 -->
    <_>
      <maxWeakCount>6</maxWeakCount>
      <stageThreshold>-6.9770580530166626e-01</stageThreshold>
      <weakClassifiers>
        <_>
          <internalNodes>
            0 -1 11 1.6708098701201379e-04</internalNodes>
          <leafValues>
            6.1254489421844482e-01 -6.4013987779617310e-01</leafValues></_>
        <_>
          <internalNodes>
            0 -1 2 2.4413759820163250e-04</internalNodes>
          <leafValues>
            6.4658200740814209e-01 -3.7687003612518311e-01</leafValues></_>
        <_>
          <internalNodes>
            0 -1 8 1.1249290779232979e-02</internalNodes>
          <leafValues>
            -6.7001605033874512e-01 2.2595164179801941e-01</leafValues></_>
        <_>
          <internalNodes>
            0 -1 12 8.5962557932361960e-05</internalNodes>
          <leafValues>
            5.8625853061676025e-01 -2.1968962252140045e-01</leafValues></_>
        <_>
          <internalNodes>
            0 -1 9 1.7255008220672607e-02</internalNodes>
          <leafValues>
            -7.0653283596038818e-01 1.3937522470951080e-01</leafValues></_>
        <_>
          <internalNodes>
            0 -1 6 1.2897856533527374e-02</internalNodes>
          <leafValues>
            -5.6984359025955200e-01 1.7366689443588257e-01</leafValues></_></weakClassifiers></_>
    <!-- stage 2 -->
    <_>
      <maxWeakCount>5</maxWeakCount>
      <stageThreshold>-1.2462906837463379e+00</stageThreshold>
      <weakClassifiers>
        <_>
          <internalNodes>
            0 -1 3 7.3344315751455724e-05</internalNodes>
          <leafValues>
            7.8070896863937378e-01 -6.0166800022125244e-01</leafValues></_>
        <_>
          <internalNodes>
            0 -1 13 6.0686794313369319e-05</internalNodes>
          <leafValues>
            8.3324503898620605e-01 -2.9340192675590515e-01</leafValues></_>
        <_>
          <internalNodes>
            0 -1 2 1.6008749604225159e-02</internalNodes>
          <leafValues>
            2.6242020726203918e-01 -5.1664876937866211e-01</leafValues></_>
        <_>
          <internalNodes>
            0 -1 8 2.1627426147460938e-02</internalNodes>
          <leafValues>
            -4.3856862187385559e-01 2.4713008105754852e-01</leafValues></_>
        <_>
          <internalNodes>
            0 -1 12 3.7999041524017230e-05</internalNodes>
          <leafValues>
            5.8572536706924438e-01 -1.7507240176200867e-01</leafValues></_></weakClassifiers></_>
    <!-- stage 3 -->
    <_>
      <maxWeakCount>5</maxWeakCount>
      <stageThreshold>-9.1091835498809814e-01</stageThreshold>
      <weakClassifiers>
        <_>
          <internalNodes>
            0 -1 12 3.6021247069584206e-05</internalNodes>
          <leafValues>
            4.5560318231582642e-01 -6.1243498325347900e-01</leafValues></_>
        <_>
          <internalNodes>
            0 -1 3 7.6470001658890396e-05</internalNodes>
          <leafValues>
            5.5607712268829346e-01 -3.3095869421958923e-01</leafValues></_>
        <_>
          <internalNodes>
            0 -1 0 3.0842660926282406e-03</internalNodes>
          <leafValues>
            -6.4457494020462036e-01 3.1209334731101990e-01</leafValues></_>
        <_>
          <internalNodes>
            0 -1 11 1.6770495101809502e-02</internalNodes>
          <leafValues>
            2.5703692436218262e-01 -5.2420479059219360e-01</leafValues></_>
        <_>
          <internalNodes>
            0 -1 4 4.4457331299781799e-02</internalNodes>
          <leafValues>
            -2.5989076495170593e-01 4.2001336812973022e-01</leafValues></_></weakClassifiers></_>
    <!-- stage 4 -->
    <_>
      <maxWeakCount>2</maxWeakCount>
      <stageThreshold>-6.1403065919876099e-01</stageThreshold>
      <weakClassifiers>
        <_>
          <internalNodes>
            0 -1 5 7.7634630724787712e-03</internalNodes>
          <leafValues>
            -7.4855619668960571e-01 1.5474325418472290e-01</leafValues></_>
        <_>
          <internalNodes>
            0 -1 7 1.2733526527881622e-02</internalNodes>
          <leafValues>
            -8.0490761995315552e-01 1.3452550768852234e-01</leafValues></_></weakClassifiers></_></stages>
  <features>
    <_>
      <rect>
        0 0 8 8 3</rect></_>
    <_>
      <rect>
        0 0 8 8 4</rect></_>
    <_>
      <rect>
        0 0 8 8 5</rect></_>
    <_>
      <rect>
        0 0 8 8 6</rect></_>
    <_>
      <rect>
        0 0 8 8 10</rect></_>
    <_>
      <rect>
        0 0 8 8 12</rect></_>
    <_>
      <rect>
        0 0 8 8 13</rect></_>
    <_>
      <rect>
        0 0 8 8 17</rect></_>
    <_>
      <rect>
        0 0 8 8 22</rect></_>
    <_>
      <rect>
        0 0 8 8 26</rect></_>
    <_>
      <rect>
        0 0 8 8 31</rect></_>
    <_>
      <rect>
        0 0 8 8 32</rect></_>
    <_>
      <rect>
        0 0 8 8 33</rect></_>
    <_>
      <rect>
        0 0 8 8 34</rect></_></features></cascade>
</opencv_storage>
