<?xml version="1.0"?>
<opencv_storage>
<!-- Created using Computer Vision System Toolbox(tm) for MATLAB(R) -->
<!-- Version 9.5.0.1033004 (R2018b) Update 2 -->
<!-- Compatible with OpenCV 3.4 -->
<cascade>
  <stageType>BOOST</stageType>
  <featureType>HOG</featureType>
  <height>32</height>
  <width>32</width>
  <stageParams>
    <boostType>GAB</boostType>
    <minHitRate>9.4999998807907104e-01</minHitRate>
    <maxFalseAlarm>6.9999998807907104e-01</maxFalseAlarm>
    <weightTrimRate>9.4999999999999996e-01</weightTrimRate>
    <maxDepth>1</maxDepth>
    <maxWeakCount>100</maxWeakCount></stageParams>
  <featureParams>
    <maxCatCount>0</maxCatCount>
    <featSize>36</featSize></featureParams>
  <stageNum>2</stageNum>
  <stages>
    <!-- stage 0 -->
    <_>
      <maxWeakCount>2</maxWeakCount>
      <stageThreshold>-1.2807218730449677e-01</stageThreshold>
      <weakClassifiers>
        <_>
          <internalNodes>
            0 -1 0 3.2515314524061978e-04</internalNodes>
          <leafValues>
            9.3875861167907715e-01 -9.1608744859695435e-01</leafValues></_>
        <_>
          <internalNodes>
            0 -1 2 5.4028248996473849e-05</internalNodes>
          <leafValues>
            7.8801524639129639e-01 -9.1996049880981445e-01</leafValues></_></weakClassifiers></_>
    <!-- stage 1 -->
    <_>
      <maxWeakCount>2</maxWeakCount>
      <stageThreshold>-5.2595341205596924e-01</stageThreshold>
      <weakClassifiers>
        <_>
          <internalNodes>
            0 -1 1 1.3725328608416021e-04</internalNodes>
          <leafValues>
            2.9903790354728699e-01 -8.3304888010025024e-01</leafValues></_>
        <_>
          <internalNodes>
            0 -1 3 4.7907568514347076e-03</internalNodes>
          <leafValues>
            -8.2499128580093384e-01 3.8818052411079407e-01</leafValues></_></weakClassifiers></_></stages>
  <features>
    <_>
      <rect>
        0 12 8 8 4</rect></_>
    <_>
      <rect>
        16 4 8 8 31</rect></_>
    <_>
      <rect>
        16 16 8 8 33</rect></_>
    <_>
      <rect>
        4 0 8 16 12</rect></_></features></cascade>
</opencv_storage>
