<?xml version="1.0"?>
<opencv_storage>
<!-- Created using Computer Vision System Toolbox(tm) for MATLAB(R) -->
<!-- Version 9.5.0.1033004 (R2018b) Update 2 -->
<!-- Compatible with OpenCV 3.4 -->
<cascade>
  <stageType>BOOST</stageType>
  <featureType>HOG</featureType>
  <height>16</height>
  <width>16</width>
  <stageParams>
    <boostType>GAB</boostType>
    <minHitRate>9.4999998807907104e-01</minHitRate>
    <maxFalseAlarm>6.9999998807907104e-01</maxFalseAlarm>
    <weightTrimRate>9.4999999999999996e-01</weightTrimRate>
    <maxDepth>1</maxDepth>
    <maxWeakCount>100</maxWeakCount></stageParams>
  <featureParams>
    <maxCatCount>0</maxCatCount>
    <featSize>36</featSize></featureParams>
  <stageNum>5</stageNum>
  <stages>
    <!-- stage 0 -->
    <_>
      <maxWeakCount>3</maxWeakCount>
      <stageThreshold>-5.1428323984146118e-01</stageThreshold>
      <weakClassifiers>
        <_>
          <internalNodes>
            0 -1 5 1.5194851905107498e-02</internalNodes>
          <leafValues>
            7.1058315038681030e-01 -3.5541951656341553e-01</leafValues></_>
        <_>
          <internalNodes>
            0 -1 4 4.3491221964359283e-02</internalNodes>
          <leafValues>
            -3.5710743069648743e-01 5.4559999704360962e-01</leafValues></_>
        <_>
          <internalNodes>
            0 -1 3 1.1033989489078522e-01</internalNodes>
          <leafValues>
            1.9824373722076416e-01 -9.3516975641250610e-01</leafValues></_></weakClassifiers></_>
    <!-- stage 1 -->
    <_>
      <maxWeakCount>2</maxWeakCount>
      <stageThreshold>-2.1839162707328796e-01</stageThreshold>
      <weakClassifiers>
        <_>
          <internalNodes>
            0 -1 4 3.7712305784225464e-02</internalNodes>
          <leafValues>
            -4.9641948938369751e-01 5.3684735298156738e-01</leafValues></_>
        <_>
          <internalNodes>
            0 -1 0 1.5580661594867706e-02</internalNodes>
          <leafValues>
            2.7802786231040955e-01 -5.9020280838012695e-01</leafValues></_></weakClassifiers></_>
    <!-- stage 2 -->
    <_>
      <maxWeakCount>4</maxWeakCount>
      <stageThreshold>-6.3694208860397339e-01</stageThreshold>
      <weakClassifiers>
        <_>
          <internalNodes>
            0 -1 6 1.7266083159483969e-04</internalNodes>
          <leafValues>
            8.4086662530899048e-01 -3.9805480837821960e-01</leafValues></_>
        <_>
          <internalNodes>
            0 -1 0 2.5259971152991056e-04</internalNodes>
          <leafValues>
            7.8055095672607422e-01 -2.8996676206588745e-01</leafValues></_>
        <_>
          <internalNodes>
            0 -1 7 8.5962557932361960e-05</internalNodes>
          <leafValues>
            7.8084152936935425e-01 -1.6874359548091888e-01</leafValues></_>
        <_>
          <internalNodes>
            0 -1 3 1.1939805001020432e-02</internalNodes>
          <leafValues>
            -6.6657459735870361e-01 2.1982306241989136e-01</leafValues></_></weakClassifiers></_>
    <!-- stage 3 -->
    <_>
      <maxWeakCount>3</maxWeakCount>
      <stageThreshold>-3.0147060751914978e-01</stageThreshold>
      <weakClassifiers>
        <_>
          <internalNodes>
            0 -1 7 1.0635612125042826e-04</internalNodes>
          <leafValues>
            7.2369414567947388e-01 -3.3602812886238098e-01</leafValues></_>
        <_>
          <internalNodes>
            0 -1 1 1.0148476576432586e-04</internalNodes>
          <leafValues>
            7.1077376604080200e-01 -2.3477017879486084e-01</leafValues></_>
        <_>
          <internalNodes>
            0 -1 2 1.3274585828185081e-02</internalNodes>
          <leafValues>
            -6.0357868671417236e-01 2.6932767033576965e-01</leafValues></_></weakClassifiers></_>
    <!-- stage 4 -->
    <_>
      <maxWeakCount>5</maxWeakCount>
      <stageThreshold>-8.2878762483596802e-01</stageThreshold>
      <weakClassifiers>
        <_>
          <internalNodes>
            0 -1 6 1.2849716586060822e-04</internalNodes>
          <leafValues>
            9.2742550373077393e-01 -4.2492124438285828e-01</leafValues></_>
        <_>
          <internalNodes>
            0 -1 0 4.9212342128157616e-04</internalNodes>
          <leafValues>
            8.7975209951400757e-01 -2.9629278182983398e-01</leafValues></_>
        <_>
          <internalNodes>
            0 -1 1 1.4805802493356168e-04</internalNodes>
          <leafValues>
            8.0333703756332397e-01 -1.5359373390674591e-01</leafValues></_>
        <_>
          <internalNodes>
            0 -1 7 8.4924708062317222e-05</internalNodes>
          <leafValues>
            6.9253975152969360e-01 -1.7488259077072144e-01</leafValues></_>
        <_>
          <internalNodes>
            0 -1 3 2.1609947085380554e-02</internalNodes>
          <leafValues>
            -4.2049610614776611e-01 2.2090268135070801e-01</leafValues></_></weakClassifiers></_></stages>
  <features>
    <_>
      <rect>
        0 0 8 8 5</rect></_>
    <_>
      <rect>
        0 0 8 8 6</rect></_>
    <_>
      <rect>
        0 0 8 8 13</rect></_>
    <_>
      <rect>
        0 0 8 8 22</rect></_>
    <_>
      <rect>
        0 0 8 8 26</rect></_>
    <_>
      <rect>
        0 0 8 8 31</rect></_>
    <_>
      <rect>
        0 0 8 8 32</rect></_>
    <_>
      <rect>
        0 0 8 8 33</rect></_></features></cascade>
</opencv_storage>
