<?xml version="1.0"?>
<opencv_storage>
<!-- Created using Computer Vision System Toolbox(tm) for MATLAB(R) -->
<!-- Version 9.5.0.1033004 (R2018b) Update 2 -->
<!-- Compatible with OpenCV 3.4 -->
<cascade>
  <stageType>BOOST</stageType>
  <featureType>HOG</featureType>
  <height>24</height>
  <width>24</width>
  <stageParams>
    <boostType>GAB</boostType>
    <minHitRate>9.4999998807907104e-01</minHitRate>
    <maxFalseAlarm>5.0000000000000000e-01</maxFalseAlarm>
    <weightTrimRate>9.4999999999999996e-01</weightTrimRate>
    <maxDepth>1</maxDepth>
    <maxWeakCount>100</maxWeakCount></stageParams>
  <featureParams>
    <maxCatCount>0</maxCatCount>
    <featSize>36</featSize></featureParams>
  <stageNum>5</stageNum>
  <stages>
    <!-- stage 0 -->
    <_>
      <maxWeakCount>2</maxWeakCount>
      <stageThreshold>4.2675387114286423e-02</stageThreshold>
      <weakClassifiers>
        <_>
          <internalNodes>
            0 -1 2 1.0690025985240936e-02</internalNodes>
          <leafValues>
            8.8442486524581909e-01 -7.9201579093933105e-01</leafValues></_>
        <_>
          <internalNodes>
            0 -1 6 1.0937497019767761e-02</internalNodes>
          <leafValues>
            8.3469116687774658e-01 -6.6959774494171143e-01</leafValues></_></weakClassifiers></_>
    <!-- stage 1 -->
    <_>
      <maxWeakCount>2</maxWeakCount>
      <stageThreshold>9.7988367080688477e-02</stageThreshold>
      <weakClassifiers>
        <_>
          <internalNodes>
            0 -1 8 6.5034000726882368e-05</internalNodes>
          <leafValues>
            8.8463801145553589e-01 -7.0004659891128540e-01</leafValues></_>
        <_>
          <internalNodes>
            0 -1 3 2.1595583530142903e-04</internalNodes>
          <leafValues>
            7.9803496599197388e-01 -7.2858637571334839e-01</leafValues></_></weakClassifiers></_>
    <!-- stage 2 -->
    <_>
      <maxWeakCount>2</maxWeakCount>
      <stageThreshold>-2.9220455884933472e-01</stageThreshold>
      <weakClassifiers>
        <_>
          <internalNodes>
            0 -1 1 8.7528210133314133e-03</internalNodes>
          <leafValues>
            -7.5445222854614258e-01 7.0145511627197266e-01</leafValues></_>
        <_>
          <internalNodes>
            0 -1 4 1.0247944854199886e-02</internalNodes>
          <leafValues>
            -8.1933760643005371e-01 4.6224766969680786e-01</leafValues></_></weakClassifiers></_>
    <!-- stage 3 -->
    <_>
      <maxWeakCount>2</maxWeakCount>
      <stageThreshold>-7.3437936604022980e-02</stageThreshold>
      <weakClassifiers>
        <_>
          <internalNodes>
            0 -1 7 9.9522527307271957e-03</internalNodes>
          <leafValues>
            -6.7193198204040527e-01 5.0272727012634277e-01</leafValues></_>
        <_>
          <internalNodes>
            0 -1 5 8.4676389815285802e-04</internalNodes>
          <leafValues>
            5.9849399328231812e-01 -5.3241372108459473e-01</leafValues></_></weakClassifiers></_>
    <!-- stage 4 -->
    <_>
      <maxWeakCount>3</maxWeakCount>
      <stageThreshold>-6.8376111984252930e-01</stageThreshold>
      <weakClassifiers>
        <_>
          <internalNodes>
            0 -1 2 7.1049330290406942e-04</internalNodes>
          <leafValues>
            5.7124185562133789e-01 -5.6503748893737793e-01</leafValues></_>
        <_>
          <internalNodes>
            0 -1 1 9.9166901782155037e-03</internalNodes>
          <leafValues>
            -6.9155824184417725e-01 3.7904581427574158e-01</leafValues></_>
        <_>
          <internalNodes>
            0 -1 0 3.6157314752927050e-05</internalNodes>
          <leafValues>
            4.9393406510353088e-01 -5.6344473361968994e-01</leafValues></_></weakClassifiers></_></stages>
  <features>
    <_>
      <rect>
        0 0 8 8 6</rect></_>
    <_>
      <rect>
        0 0 8 8 12</rect></_>
    <_>
      <rect>
        0 0 8 8 22</rect></_>
    <_>
      <rect>
        0 0 8 8 23</rect></_>
    <_>
      <rect>
        4 8 8 8 22</rect></_>
    <_>
      <rect>
        8 0 8 8 31</rect></_>
    <_>
      <rect>
        8 4 8 8 31</rect></_>
    <_>
      <rect>
        8 8 8 8 21</rect></_>
    <_>
      <rect>
        8 8 8 8 33</rect></_></features></cascade>
</opencv_storage>
