<?xml version="1.0"?>
<opencv_storage>
<!-- Created using Computer Vision System Toolbox(tm) for MATLAB(R) -->
<!-- Version 9.5.0.1033004 (R2018b) Update 2 -->
<!-- Compatible with OpenCV 3.4 -->
<cascade>
  <stageType>BOOST</stageType>
  <featureType>HOG</featureType>
  <height>24</height>
  <width>24</width>
  <stageParams>
    <boostType>GAB</boostType>
    <minHitRate>9.4999998807907104e-01</minHitRate>
    <maxFalseAlarm>5.0000000000000000e-01</maxFalseAlarm>
    <weightTrimRate>9.4999999999999996e-01</weightTrimRate>
    <maxDepth>1</maxDepth>
    <maxWeakCount>100</maxWeakCount></stageParams>
  <featureParams>
    <maxCatCount>0</maxCatCount>
    <featSize>36</featSize></featureParams>
  <stageNum>3</stageNum>
  <stages>
    <!-- stage 0 -->
    <_>
      <maxWeakCount>2</maxWeakCount>
      <stageThreshold>-8.5394524037837982e-02</stageThreshold>
      <weakClassifiers>
        <_>
          <internalNodes>
            0 -1 2 1.7397694755345583e-03</internalNodes>
          <leafValues>
            8.5796105861663818e-01 -7.9524761438369751e-01</leafValues></_>
        <_>
          <internalNodes>
            0 -1 5 6.5034000726882368e-05</internalNodes>
          <leafValues>
            7.0985311269760132e-01 -7.5380438566207886e-01</leafValues></_></weakClassifiers></_>
    <!-- stage 1 -->
    <_>
      <maxWeakCount>3</maxWeakCount>
      <stageThreshold>-8.1783854961395264e-01</stageThreshold>
      <weakClassifiers>
        <_>
          <internalNodes>
            0 -1 1 9.8910368978977203e-03</internalNodes>
          <leafValues>
            -8.3863371610641479e-01 2.6813879609107971e-01</leafValues></_>
        <_>
          <internalNodes>
            0 -1 4 6.0192553792148829e-04</internalNodes>
          <leafValues>
            4.3723312020301819e-01 -5.7989495992660522e-01</leafValues></_>
        <_>
          <internalNodes>
            0 -1 3 3.1548850238323212e-02</internalNodes>
          <leafValues>
            -5.0608235597610474e-01 6.0669434070587158e-01</leafValues></_></weakClassifiers></_>
    <!-- stage 2 -->
    <_>
      <maxWeakCount>2</maxWeakCount>
      <stageThreshold>-2.0253866910934448e-01</stageThreshold>
      <weakClassifiers>
        <_>
          <internalNodes>
            0 -1 4 7.1374536491930485e-04</internalNodes>
          <leafValues>
            5.2861249446868896e-01 -7.1375852823257446e-01</leafValues></_>
        <_>
          <internalNodes>
            0 -1 0 1.1019445082638413e-04</internalNodes>
          <leafValues>
            5.1121985912322998e-01 -7.0406186580657959e-01</leafValues></_></weakClassifiers></_></stages>
  <features>
    <_>
      <rect>
        0 0 8 8 6</rect></_>
    <_>
      <rect>
        0 0 8 8 12</rect></_>
    <_>
      <rect>
        0 0 8 8 22</rect></_>
    <_>
      <rect>
        0 4 8 8 10</rect></_>
    <_>
      <rect>
        8 0 8 8 31</rect></_>
    <_>
      <rect>
        8 8 8 8 33</rect></_></features></cascade>
</opencv_storage>
