<?xml version="1.0"?>
<opencv_storage>
<!-- Created using Computer Vision System Toolbox(tm) for MATLAB(R) -->
<!-- Version 9.5.0.1033004 (R2018b) Update 2 -->
<!-- Compatible with OpenCV 3.4 -->
<cascade>
  <stageType>BOOST</stageType>
  <featureType>LBP</featureType>
  <height>24</height>
  <width>24</width>
  <stageParams>
    <boostType>GAB</boostType>
    <minHitRate>9.4999998807907104e-01</minHitRate>
    <maxFalseAlarm>3.0000001192092896e-01</maxFalseAlarm>
    <weightTrimRate>9.4999999999999996e-01</weightTrimRate>
    <maxDepth>1</maxDepth>
    <maxWeakCount>100</maxWeakCount></stageParams>
  <featureParams>
    <maxCatCount>256</maxCatCount>
    <featSize>1</featSize></featureParams>
  <stageNum>4</stageNum>
  <stages>
    <!-- stage 0 -->
    <_>
      <maxWeakCount>1</maxWeakCount>
      <stageThreshold>7.6663029193878174e-01</stageThreshold>
      <weakClassifiers>
        <_>
          <internalNodes>
            0 -1 0 -1 -1050709 -205273265 -67108897 -70781457 -67114805
            2139091071 2139094911</internalNodes>
          <leafValues>
            -9.7068113088607788e-01 7.6663029193878174e-01</leafValues></_></weakClassifiers></_>
    <!-- stage 1 -->
    <_>
      <maxWeakCount>2</maxWeakCount>
      <stageThreshold>-2.1237893402576447e-01</stageThreshold>
      <weakClassifiers>
        <_>
          <internalNodes>
            0 -1 4 1073725439 1073725439 -536870913 1073741823 -2102273
            1069546495 -262145 -1073741825</internalNodes>
          <leafValues>
            -9.3656343221664429e-01 7.4253898859024048e-01</leafValues></_>
        <_>
          <internalNodes>
            0 -1 1 -1 -26657 -2098689 -1025 -4194305 -4476993 -1048577
            -176818313</internalNodes>
          <leafValues>
            -8.2797420024871826e-01 7.2418451309204102e-01</leafValues></_></weakClassifiers></_>
    <!-- stage 2 -->
    <_>
      <maxWeakCount>2</maxWeakCount>
      <stageThreshold>-3.6244213581085205e-01</stageThreshold>
      <weakClassifiers>
        <_>
          <internalNodes>
            0 -1 5 -1 -2097153 -10485761 -8193 -71304193 -1025 -71303169
            -1594490881</internalNodes>
          <leafValues>
            -8.8964283466339111e-01 5.9377002716064453e-01</leafValues></_>
        <_>
          <internalNodes>
            0 -1 7 -1 -2099201 -175384609 266336255 -69209105 -69217817
            -3073 1610612735</internalNodes>
          <leafValues>
            -9.7805470228195190e-01 5.2720063924789429e-01</leafValues></_></weakClassifiers></_>
    <!-- stage 3 -->
    <_>
      <maxWeakCount>3</maxWeakCount>
      <stageThreshold>7.2272503376007080e-01</stageThreshold>
      <weakClassifiers>
        <_>
          <internalNodes>
            0 -1 6 -7347233 -45119473 -587135985 1063241743 -913323125
            -125616089 -385099761 268425199</internalNodes>
          <leafValues>
            -9.9196141958236694e-01 7.3447269201278687e-01</leafValues></_>
        <_>
          <internalNodes>
            0 -1 3 -741091873 -40171245 -1185820259 -44592811 -652019205
            -1146449782 -7603457 -460281184</internalNodes>
          <leafValues>
            -7.7401405572891235e-01 8.0930399894714355e-01</leafValues></_>
        <_>
          <internalNodes>
            0 -1 2 -1 -45352059 -267267841 -6686578 2060089983
            2074753194 2005613179 -4494821</internalNodes>
          <leafValues>
            -7.6651489734649658e-01 7.6226633787155151e-01</leafValues></_></weakClassifiers></_></stages>
  <features>
    <_>
      <rect>
        0 0 1 7</rect></_>
    <_>
      <rect>
        0 0 5 2</rect></_>
    <_>
      <rect>
        0 15 3 3</rect></_>
    <_>
      <rect>
        6 1 6 1</rect></_>
    <_>
      <rect>
        6 18 6 2</rect></_>
    <_>
      <rect>
        12 0 4 2</rect></_>
    <_>
      <rect>
        21 0 1 4</rect></_>
    <_>
      <rect>
        21 3 1 7</rect></_></features></cascade>
</opencv_storage>
