<?xml version="1.0"?>
<opencv_storage>
<!-- Created using Computer Vision System Toolbox(tm) for MATLAB(R) -->
<!-- Version 9.5.0.1033004 (R2018b) Update 2 -->
<!-- Compatible with OpenCV 3.4 -->
<cascade>
  <stageType>BOOST</stageType>
  <featureType>HOG</featureType>
  <height>24</height>
  <width>24</width>
  <stageParams>
    <boostType>GAB</boostType>
    <minHitRate>9.4999998807907104e-01</minHitRate>
    <maxFalseAlarm>3.0000001192092896e-01</maxFalseAlarm>
    <weightTrimRate>9.4999999999999996e-01</weightTrimRate>
    <maxDepth>1</maxDepth>
    <maxWeakCount>100</maxWeakCount></stageParams>
  <featureParams>
    <maxCatCount>0</maxCatCount>
    <featSize>36</featSize></featureParams>
  <stageNum>6</stageNum>
  <stages>
    <!-- stage 0 -->
    <_>
      <maxWeakCount>2</maxWeakCount>
      <stageThreshold>4.2675387114286423e-02</stageThreshold>
      <weakClassifiers>
        <_>
          <internalNodes>
            0 -1 3 1.0690025985240936e-02</internalNodes>
          <leafValues>
            8.8442486524581909e-01 -7.9201579093933105e-01</leafValues></_>
        <_>
          <internalNodes>
            0 -1 18 1.0937497019767761e-02</internalNodes>
          <leafValues>
            8.3469116687774658e-01 -6.6959774494171143e-01</leafValues></_></weakClassifiers></_>
    <!-- stage 1 -->
    <_>
      <maxWeakCount>2</maxWeakCount>
      <stageThreshold>9.7988367080688477e-02</stageThreshold>
      <weakClassifiers>
        <_>
          <internalNodes>
            0 -1 23 6.5034000726882368e-05</internalNodes>
          <leafValues>
            8.8463801145553589e-01 -7.0004659891128540e-01</leafValues></_>
        <_>
          <internalNodes>
            0 -1 4 2.1595583530142903e-04</internalNodes>
          <leafValues>
            7.9803496599197388e-01 -7.2858637571334839e-01</leafValues></_></weakClassifiers></_>
    <!-- stage 2 -->
    <_>
      <maxWeakCount>4</maxWeakCount>
      <stageThreshold>-2.5543609261512756e-01</stageThreshold>
      <weakClassifiers>
        <_>
          <internalNodes>
            0 -1 1 8.7528210133314133e-03</internalNodes>
          <leafValues>
            -7.5445222854614258e-01 7.0145511627197266e-01</leafValues></_>
        <_>
          <internalNodes>
            0 -1 14 1.0247944854199886e-02</internalNodes>
          <leafValues>
            -8.1933760643005371e-01 4.6224766969680786e-01</leafValues></_>
        <_>
          <internalNodes>
            0 -1 16 3.6514021456241608e-02</internalNodes>
          <leafValues>
            -4.9081993103027344e-01 5.6952583789825439e-01</leafValues></_>
        <_>
          <internalNodes>
            0 -1 20 3.7950288970023394e-04</internalNodes>
          <leafValues>
            5.2758836746215820e-01 -4.8150408267974854e-01</leafValues></_></weakClassifiers></_>
    <!-- stage 3 -->
    <_>
      <maxWeakCount>5</maxWeakCount>
      <stageThreshold>1.1735812760889530e-02</stageThreshold>
      <weakClassifiers>
        <_>
          <internalNodes>
            0 -1 9 6.2424899078905582e-04</internalNodes>
          <leafValues>
            5.6305599212646484e-01 -5.5607235431671143e-01</leafValues></_>
        <_>
          <internalNodes>
            0 -1 21 1.0159045457839966e-02</internalNodes>
          <leafValues>
            -6.6946452856063843e-01 4.7224554419517517e-01</leafValues></_>
        <_>
          <internalNodes>
            0 -1 0 1.1786360846599564e-04</internalNodes>
          <leafValues>
            4.0559649467468262e-01 -5.5407047271728516e-01</leafValues></_>
        <_>
          <internalNodes>
            0 -1 19 2.4053053930401802e-02</internalNodes>
          <leafValues>
            -5.8416390419006348e-01 3.3245024085044861e-01</leafValues></_>
        <_>
          <internalNodes>
            0 -1 11 6.9574094377458096e-03</internalNodes>
          <leafValues>
            -5.6539869308471680e-01 3.3976453542709351e-01</leafValues></_></weakClassifiers></_>
    <!-- stage 4 -->
    <_>
      <maxWeakCount>6</maxWeakCount>
      <stageThreshold>-2.4617980420589447e-01</stageThreshold>
      <weakClassifiers>
        <_>
          <internalNodes>
            0 -1 18 8.6713099153712392e-04</internalNodes>
          <leafValues>
            6.0457611083984375e-01 -4.1248017549514771e-01</leafValues></_>
        <_>
          <internalNodes>
            0 -1 2 6.0714915889548138e-05</internalNodes>
          <leafValues>
            3.6150538921356201e-01 -5.2857762575149536e-01</leafValues></_>
        <_>
          <internalNodes>
            0 -1 1 1.1203423142433167e-02</internalNodes>
          <leafValues>
            -6.2783479690551758e-01 2.8982493281364441e-01</leafValues></_>
        <_>
          <internalNodes>
            0 -1 6 8.9367821812629700e-02</internalNodes>
          <leafValues>
            -2.3401552438735962e-01 6.8521147966384888e-01</leafValues></_>
        <_>
          <internalNodes>
            0 -1 15 6.8444665521383286e-03</internalNodes>
          <leafValues>
            -5.4050910472869873e-01 2.7514085173606873e-01</leafValues></_>
        <_>
          <internalNodes>
            0 -1 22 6.0092217609053478e-05</internalNodes>
          <leafValues>
            3.6236044764518738e-01 -5.1392346620559692e-01</leafValues></_></weakClassifiers></_>
    <!-- stage 5 -->
    <_>
      <maxWeakCount>8</maxWeakCount>
      <stageThreshold>2.6530998945236206e-01</stageThreshold>
      <weakClassifiers>
        <_>
          <internalNodes>
            0 -1 10 1.0381927341222763e-01</internalNodes>
          <leafValues>
            7.2200947999954224e-01 -7.8571426868438721e-01</leafValues></_>
        <_>
          <internalNodes>
            0 -1 23 2.7688967747963034e-05</internalNodes>
          <leafValues>
            4.3300879001617432e-01 -4.1446709632873535e-01</leafValues></_>
        <_>
          <internalNodes>
            0 -1 12 1.2142870575189590e-02</internalNodes>
          <leafValues>
            -6.6799080371856689e-01 2.1390883624553680e-01</leafValues></_>
        <_>
          <internalNodes>
            0 -1 13 6.8394346162676811e-03</internalNodes>
          <leafValues>
            -5.4262638092041016e-01 2.4915598332881927e-01</leafValues></_>
        <_>
          <internalNodes>
            0 -1 7 7.7901408076286316e-04</internalNodes>
          <leafValues>
            3.3908620476722717e-01 -4.3894398212432861e-01</leafValues></_>
        <_>
          <internalNodes>
            0 -1 17 4.8365749418735504e-02</internalNodes>
          <leafValues>
            1.4432746171951294e-01 -7.8626006841659546e-01</leafValues></_>
        <_>
          <internalNodes>
            0 -1 8 6.4238170161843300e-03</internalNodes>
          <leafValues>
            -4.9157246947288513e-01 1.8892782926559448e-01</leafValues></_>
        <_>
          <internalNodes>
            0 -1 5 7.9581230238545686e-05</internalNodes>
          <leafValues>
            2.6063933968544006e-01 -4.5159149169921875e-01</leafValues></_></weakClassifiers></_></stages>
  <features>
    <_>
      <rect>
        0 0 8 8 6</rect></_>
    <_>
      <rect>
        0 0 8 8 12</rect></_>
    <_>
      <rect>
        0 0 8 8 20</rect></_>
    <_>
      <rect>
        0 0 8 8 22</rect></_>
    <_>
      <rect>
        0 0 8 8 23</rect></_>
    <_>
      <rect>
        0 0 8 8 24</rect></_>
    <_>
      <rect>
        0 0 8 8 28</rect></_>
    <_>
      <rect>
        0 4 8 8 4</rect></_>
    <_>
      <rect>
        0 4 8 8 8</rect></_>
    <_>
      <rect>
        0 8 8 8 4</rect></_>
    <_>
      <rect>
        0 8 8 8 22</rect></_>
    <_>
      <rect>
        4 0 8 8 3</rect></_>
    <_>
      <rect>
        4 0 8 8 13</rect></_>
    <_>
      <rect>
        4 8 8 8 21</rect></_>
    <_>
      <rect>
        4 8 8 8 22</rect></_>
    <_>
      <rect>
        4 8 8 8 30</rect></_>
    <_>
      <rect>
        8 4 8 8 1</rect></_>
    <_>
      <rect>
        8 4 8 8 13</rect></_>
    <_>
      <rect>
        8 4 8 8 31</rect></_>
    <_>
      <rect>
        8 8 8 8 8</rect></_>
    <_>
      <rect>
        8 8 8 8 13</rect></_>
    <_>
      <rect>
        8 8 8 8 21</rect></_>
    <_>
      <rect>
        8 8 8 8 32</rect></_>
    <_>
      <rect>
        8 8 8 8 33</rect></_></features></cascade>
</opencv_storage>
