<?xml version="1.0"?>
<opencv_storage>
<!-- Created using Computer Vision System Toolbox(tm) for MATLAB(R) -->
<!-- Version 9.5.0.1033004 (R2018b) Update 2 -->
<!-- Compatible with OpenCV 3.4 -->
<cascade>
  <stageType>BOOST</stageType>
  <featureType>LBP</featureType>
  <height>24</height>
  <width>24</width>
  <stageParams>
    <boostType>GAB</boostType>
    <minHitRate>9.4999998807907104e-01</minHitRate>
    <maxFalseAlarm>5.0000000000000000e-01</maxFalseAlarm>
    <weightTrimRate>9.4999999999999996e-01</weightTrimRate>
    <maxDepth>1</maxDepth>
    <maxWeakCount>100</maxWeakCount></stageParams>
  <featureParams>
    <maxCatCount>256</maxCatCount>
    <featSize>1</featSize></featureParams>
  <stageNum>3</stageNum>
  <stages>
    <!-- stage 0 -->
    <_>
      <maxWeakCount>1</maxWeakCount>
      <stageThreshold>7.6868498325347900e-01</stageThreshold>
      <weakClassifiers>
        <_>
          <internalNodes>
            0 -1 0 -1 -1050709 -205273265 -67108897 -70781457 -67114805
            2139091071 2139094911</internalNodes>
          <leafValues>
            -9.7072505950927734e-01 7.6868498325347900e-01</leafValues></_></weakClassifiers></_>
    <!-- stage 1 -->
    <_>
      <maxWeakCount>2</maxWeakCount>
      <stageThreshold>-1.7844051122665405e-01</stageThreshold>
      <weakClassifiers>
        <_>
          <internalNodes>
            0 -1 2 1073725439 1073723391 -546324993 1073723391 -67108865
            1073720063 -4194305 -1073741825</internalNodes>
          <leafValues>
            -9.3071037530899048e-01 7.5409436225891113e-01</leafValues></_>
        <_>
          <internalNodes>
            0 -1 1 -1 -26657 -2098689 -1025 -4194305 -4477253 -1064961
            -143263881</internalNodes>
          <leafValues>
            -8.1579887866973877e-01 7.5226986408233643e-01</leafValues></_></weakClassifiers></_>
    <!-- stage 2 -->
    <_>
      <maxWeakCount>2</maxWeakCount>
      <stageThreshold>-3.5499981045722961e-01</stageThreshold>
      <weakClassifiers>
        <_>
          <internalNodes>
            0 -1 3 -1 -2621441 -11018241 -9729 -67109953 -1025 -4194305
            -1594490881</internalNodes>
          <leafValues>
            -8.9190685749053955e-01 5.9925961494445801e-01</leafValues></_>
        <_>
          <internalNodes>
            0 -1 4 -1 -2099713 -443824641 266335231 -371198977 -67120665
            -67112193 1610612735</internalNodes>
          <leafValues>
            -9.7793573141098022e-01 5.3690707683563232e-01</leafValues></_></weakClassifiers></_></stages>
  <features>
    <_>
      <rect>
        0 0 1 7</rect></_>
    <_>
      <rect>
        0 0 5 2</rect></_>
    <_>
      <rect>
        5 18 6 2</rect></_>
    <_>
      <rect>
        12 0 4 2</rect></_>
    <_>
      <rect>
        21 3 1 7</rect></_></features></cascade>
</opencv_storage>
