<?xml version="1.0"?>
<opencv_storage>
<!-- Created using Computer Vision System Toolbox(tm) for MATLAB(R) -->
<!-- Version 9.5.0.1033004 (R2018b) Update 2 -->
<!-- Compatible with OpenCV 3.4 -->
<cascade>
  <stageType>BOOST</stageType>
  <featureType>HOG</featureType>
  <height>24</height>
  <width>24</width>
  <stageParams>
    <boostType>GAB</boostType>
    <minHitRate>8.9999997615814209e-01</minHitRate>
    <maxFalseAlarm>5.0000000000000000e-01</maxFalseAlarm>
    <weightTrimRate>9.4999999999999996e-01</weightTrimRate>
    <maxDepth>1</maxDepth>
    <maxWeakCount>100</maxWeakCount></stageParams>
  <featureParams>
    <maxCatCount>0</maxCatCount>
    <featSize>36</featSize></featureParams>
  <stageNum>3</stageNum>
  <stages>
    <!-- stage 0 -->
    <_>
      <maxWeakCount>2</maxWeakCount>
      <stageThreshold>-1.4317433536052704e-01</stageThreshold>
      <weakClassifiers>
        <_>
          <internalNodes>
            0 -1 2 3.8708578795194626e-03</internalNodes>
          <leafValues>
            8.2684522867202759e-01 -8.2991200685501099e-01</leafValues></_>
        <_>
          <internalNodes>
            0 -1 6 7.5090443715453148e-05</internalNodes>
          <leafValues>
            6.8673771619796753e-01 -7.6195412874221802e-01</leafValues></_></weakClassifiers></_>
    <!-- stage 1 -->
    <_>
      <maxWeakCount>2</maxWeakCount>
      <stageThreshold>-3.5765647888183594e-01</stageThreshold>
      <weakClassifiers>
        <_>
          <internalNodes>
            0 -1 1 9.8873712122440338e-03</internalNodes>
          <leafValues>
            -8.3670544624328613e-01 2.1489860117435455e-01</leafValues></_>
        <_>
          <internalNodes>
            0 -1 4 2.6212946977466345e-04</internalNodes>
          <leafValues>
            6.1033684015274048e-01 -5.7255506515502930e-01</leafValues></_></weakClassifiers></_>
    <!-- stage 2 -->
    <_>
      <maxWeakCount>3</maxWeakCount>
      <stageThreshold>-1.1230099201202393e-01</stageThreshold>
      <weakClassifiers>
        <_>
          <internalNodes>
            0 -1 5 1.0152686387300491e-02</internalNodes>
          <leafValues>
            -8.1216090917587280e-01 1.4344261586666107e-01</leafValues></_>
        <_>
          <internalNodes>
            0 -1 0 1.1786360846599564e-04</internalNodes>
          <leafValues>
            4.0576535463333130e-01 -6.1567831039428711e-01</leafValues></_>
        <_>
          <internalNodes>
            0 -1 3 2.5846036151051521e-02</internalNodes>
          <leafValues>
            -6.6150897741317749e-01 3.7974211573600769e-01</leafValues></_></weakClassifiers></_></stages>
  <features>
    <_>
      <rect>
        0 0 8 8 6</rect></_>
    <_>
      <rect>
        0 0 8 8 12</rect></_>
    <_>
      <rect>
        0 8 8 8 4</rect></_>
    <_>
      <rect>
        8 8 8 8 8</rect></_>
    <_>
      <rect>
        8 8 8 8 13</rect></_>
    <_>
      <rect>
        8 8 8 8 21</rect></_>
    <_>
      <rect>
        8 8 8 8 33</rect></_></features></cascade>
</opencv_storage>
