<?xml version="1.0"?>
<opencv_storage>
<!-- Created using Computer Vision System Toolbox(tm) for MATLAB(R) -->
<!-- Version 9.5.0.1033004 (R2018b) Update 2 -->
<!-- Compatible with OpenCV 3.4 -->
<cascade>
  <stageType>BOOST</stageType>
  <featureType>LBP</featureType>
  <height>32</height>
  <width>32</width>
  <stageParams>
    <boostType>GAB</boostType>
    <minHitRate>8.9999997615814209e-01</minHitRate>
    <maxFalseAlarm>3.0000001192092896e-01</maxFalseAlarm>
    <weightTrimRate>9.4999999999999996e-01</weightTrimRate>
    <maxDepth>1</maxDepth>
    <maxWeakCount>100</maxWeakCount></stageParams>
  <featureParams>
    <maxCatCount>256</maxCatCount>
    <featSize>1</featSize></featureParams>
  <stageNum>4</stageNum>
  <stages>
    <!-- stage 0 -->
    <_>
      <maxWeakCount>1</maxWeakCount>
      <stageThreshold>9.1595089435577393e-01</stageThreshold>
      <weakClassifiers>
        <_>
          <internalNodes>
            0 -1 4 -1 -77869721 -213657533 -1009790257 -477378325
            -397708921 -274727973 2080374783</internalNodes>
          <leafValues>
            -9.9866223335266113e-01 9.1595089435577393e-01</leafValues></_></weakClassifiers></_>
    <!-- stage 1 -->
    <_>
      <maxWeakCount>1</maxWeakCount>
      <stageThreshold>8.8024729490280151e-01</stageThreshold>
      <weakClassifiers>
        <_>
          <internalNodes>
            0 -1 3 1073741823 1073741823 2147483647 1073741823 -1
            1073741823 -1 -1073741825</internalNodes>
          <leafValues>
            -8.5143214464187622e-01 8.8024729490280151e-01</leafValues></_></weakClassifiers></_>
    <!-- stage 2 -->
    <_>
      <maxWeakCount>1</maxWeakCount>
      <stageThreshold>7.9316288232803345e-01</stageThreshold>
      <weakClassifiers>
        <_>
          <internalNodes>
            0 -1 1 -6291457 -35819045 -38021633 -40414823 -88491521
            -1079469928 -100926721 2143010522</internalNodes>
          <leafValues>
            -9.9701380729675293e-01 7.9316288232803345e-01</leafValues></_></weakClassifiers></_>
    <!-- stage 3 -->
    <_>
      <maxWeakCount>2</maxWeakCount>
      <stageThreshold>1.8718699216842651e+00</stageThreshold>
      <weakClassifiers>
        <_>
          <internalNodes>
            0 -1 2 -1861070369 -1795096558 -2113911403 -720006755
            -1742700407 -1442283376 -1064566614 2039185545</internalNodes>
          <leafValues>
            -1. 9.2663377523422241e-01</leafValues></_>
        <_>
          <internalNodes>
            0 -1 0 -1 -1 -1 -1 -1 -1 -1 -262834588</internalNodes>
          <leafValues>
            -7.0523542165756226e-01 9.4523608684539795e-01</leafValues></_></weakClassifiers></_></stages>
  <features>
    <_>
      <rect>
        0 0 7 3</rect></_>
    <_>
      <rect>
        0 29 9 1</rect></_>
    <_>
      <rect>
        5 0 9 1</rect></_>
    <_>
      <rect>
        11 23 7 3</rect></_>
    <_>
      <rect>
        29 1 1 8</rect></_></features></cascade>
</opencv_storage>
