<?xml version="1.0"?>
<opencv_storage>
<!-- Created using Computer Vision System Toolbox(tm) for MATLAB(R) -->
<!-- Version 9.5.0.1033004 (R2018b) Update 2 -->
<!-- Compatible with OpenCV 3.4 -->
<cascade>
  <stageType>BOOST</stageType>
  <featureType>HOG</featureType>
  <height>32</height>
  <width>32</width>
  <stageParams>
    <boostType>GAB</boostType>
    <minHitRate>9.4999998807907104e-01</minHitRate>
    <maxFalseAlarm>3.0000001192092896e-01</maxFalseAlarm>
    <weightTrimRate>9.4999999999999996e-01</weightTrimRate>
    <maxDepth>1</maxDepth>
    <maxWeakCount>100</maxWeakCount></stageParams>
  <featureParams>
    <maxCatCount>0</maxCatCount>
    <featSize>36</featSize></featureParams>
  <stageNum>4</stageNum>
  <stages>
    <!-- stage 0 -->
    <_>
      <maxWeakCount>2</maxWeakCount>
      <stageThreshold>-4.6586081385612488e-02</stageThreshold>
      <weakClassifiers>
        <_>
          <internalNodes>
            0 -1 5 9.4751489814370871e-04</internalNodes>
          <leafValues>
            9.5543175935745239e-01 -8.6082589626312256e-01</leafValues></_>
        <_>
          <internalNodes>
            0 -1 9 7.6998032454866916e-05</internalNodes>
          <leafValues>
            8.1423985958099365e-01 -8.5727399587631226e-01</leafValues></_></weakClassifiers></_>
    <!-- stage 1 -->
    <_>
      <maxWeakCount>4</maxWeakCount>
      <stageThreshold>-4.3015336990356445e-01</stageThreshold>
      <weakClassifiers>
        <_>
          <internalNodes>
            0 -1 7 7.3394592618569732e-05</internalNodes>
          <leafValues>
            4.5969581604003906e-01 -7.8710937500000000e-01</leafValues></_>
        <_>
          <internalNodes>
            0 -1 10 4.7907568514347076e-03</internalNodes>
          <leafValues>
            -7.9780930280685425e-01 5.1095014810562134e-01</leafValues></_>
        <_>
          <internalNodes>
            0 -1 3 2.0365128875710070e-04</internalNodes>
          <leafValues>
            3.9137408137321472e-01 -7.0994162559509277e-01</leafValues></_>
        <_>
          <internalNodes>
            0 -1 2 5.3708024322986603e-02</internalNodes>
          <leafValues>
            -5.4536825418472290e-01 5.7205533981323242e-01</leafValues></_></weakClassifiers></_>
    <!-- stage 2 -->
    <_>
      <maxWeakCount>3</maxWeakCount>
      <stageThreshold>1.7222757637500763e-01</stageThreshold>
      <weakClassifiers>
        <_>
          <internalNodes>
            0 -1 6 1.4417871716432273e-04</internalNodes>
          <leafValues>
            6.4533823728561401e-01 -7.1385240554809570e-01</leafValues></_>
        <_>
          <internalNodes>
            0 -1 0 4.1728930227691308e-05</internalNodes>
          <leafValues>
            4.7080805897712708e-01 -8.0787652730941772e-01</leafValues></_>
        <_>
          <internalNodes>
            0 -1 11 5.1505109295248985e-03</internalNodes>
          <leafValues>
            -7.0729887485504150e-01 4.1527190804481506e-01</leafValues></_></weakClassifiers></_>
    <!-- stage 3 -->
    <_>
      <maxWeakCount>4</maxWeakCount>
      <stageThreshold>-5.5758632719516754e-02</stageThreshold>
      <weakClassifiers>
        <_>
          <internalNodes>
            0 -1 8 2.8564585372805595e-03</internalNodes>
          <leafValues>
            7.3470854759216309e-01 -1.9236417114734650e-01</leafValues></_>
        <_>
          <internalNodes>
            0 -1 1 1.3912331312894821e-02</internalNodes>
          <leafValues>
            -3.7883344292640686e-01 5.7805365324020386e-01</leafValues></_>
        <_>
          <internalNodes>
            0 -1 4 1.8443012959323823e-04</internalNodes>
          <leafValues>
            3.0987703800201416e-01 -7.8560501337051392e-01</leafValues></_>
        <_>
          <internalNodes>
            0 -1 12 2.6087351143360138e-03</internalNodes>
          <leafValues>
            -7.5132519006729126e-01 3.3877483010292053e-01</leafValues></_></weakClassifiers></_></stages>
  <features>
    <_>
      <rect>
        0 0 8 8 6</rect></_>
    <_>
      <rect>
        0 0 8 8 12</rect></_>
    <_>
      <rect>
        0 0 8 8 35</rect></_>
    <_>
      <rect>
        0 8 8 8 4</rect></_>
    <_>
      <rect>
        0 12 8 8 2</rect></_>
    <_>
      <rect>
        0 12 8 8 4</rect></_>
    <_>
      <rect>
        16 4 8 8 31</rect></_>
    <_>
      <rect>
        16 4 8 8 33</rect></_>
    <_>
      <rect>
        16 16 8 8 31</rect></_>
    <_>
      <rect>
        16 16 8 8 33</rect></_>
    <_>
      <rect>
        4 0 8 16 12</rect></_>
    <_>
      <rect>
        12 0 8 16 21</rect></_>
    <_>
      <rect>
        0 0 16 16 21</rect></_></features></cascade>
</opencv_storage>
