<?xml version="1.0"?>
<opencv_storage>
<!-- Created using Computer Vision System Toolbox(tm) for MATLAB(R) -->
<!-- Version 9.5.0.1033004 (R2018b) Update 2 -->
<!-- Compatible with OpenCV 3.4 -->
<cascade>
  <stageType>BOOST</stageType>
  <featureType>HOG</featureType>
  <height>24</height>
  <width>24</width>
  <stageParams>
    <boostType>GAB</boostType>
    <minHitRate>8.9999997615814209e-01</minHitRate>
    <maxFalseAlarm>5.0000000000000000e-01</maxFalseAlarm>
    <weightTrimRate>9.4999999999999996e-01</weightTrimRate>
    <maxDepth>1</maxDepth>
    <maxWeakCount>100</maxWeakCount></stageParams>
  <featureParams>
    <maxCatCount>0</maxCatCount>
    <featSize>36</featSize></featureParams>
  <stageNum>5</stageNum>
  <stages>
    <!-- stage 0 -->
    <_>
      <maxWeakCount>2</maxWeakCount>
      <stageThreshold>5.6322950869798660e-02</stageThreshold>
      <weakClassifiers>
        <_>
          <internalNodes>
            0 -1 2 1.0784614831209183e-02</internalNodes>
          <leafValues>
            8.9130437374114990e-01 -7.9370838403701782e-01</leafValues></_>
        <_>
          <internalNodes>
            0 -1 6 1.0987836867570877e-02</internalNodes>
          <leafValues>
            8.5003137588500977e-01 -6.5741419792175293e-01</leafValues></_></weakClassifiers></_>
    <!-- stage 1 -->
    <_>
      <maxWeakCount>2</maxWeakCount>
      <stageThreshold>3.4687932580709457e-02</stageThreshold>
      <weakClassifiers>
        <_>
          <internalNodes>
            0 -1 8 6.5034000726882368e-05</internalNodes>
          <leafValues>
            8.5026735067367554e-01 -6.9230771064758301e-01</leafValues></_>
        <_>
          <internalNodes>
            0 -1 3 2.8013388509862125e-04</internalNodes>
          <leafValues>
            7.2699564695358276e-01 -7.2927421331405640e-01</leafValues></_></weakClassifiers></_>
    <!-- stage 2 -->
    <_>
      <maxWeakCount>2</maxWeakCount>
      <stageThreshold>-2.8753441572189331e-01</stageThreshold>
      <weakClassifiers>
        <_>
          <internalNodes>
            0 -1 1 8.7528210133314133e-03</internalNodes>
          <leafValues>
            -7.4249827861785889e-01 6.2884157896041870e-01</leafValues></_>
        <_>
          <internalNodes>
            0 -1 4 1.2952768243849277e-02</internalNodes>
          <leafValues>
            -7.6104784011840820e-01 4.5496383309364319e-01</leafValues></_></weakClassifiers></_>
    <!-- stage 3 -->
    <_>
      <maxWeakCount>2</maxWeakCount>
      <stageThreshold>-6.5921880304813385e-02</stageThreshold>
      <weakClassifiers>
        <_>
          <internalNodes>
            0 -1 7 1.0294411331415176e-02</internalNodes>
          <leafValues>
            -6.6256725788116455e-01 4.7258770465850830e-01</leafValues></_>
        <_>
          <internalNodes>
            0 -1 5 8.3701370749622583e-04</internalNodes>
          <leafValues>
            6.2539905309677124e-01 -5.3850960731506348e-01</leafValues></_></weakClassifiers></_>
    <!-- stage 4 -->
    <_>
      <maxWeakCount>3</maxWeakCount>
      <stageThreshold>2.7307355403900146e-01</stageThreshold>
      <weakClassifiers>
        <_>
          <internalNodes>
            0 -1 2 7.2413659654557705e-04</internalNodes>
          <leafValues>
            5.5513429641723633e-01 -5.6953001022338867e-01</leafValues></_>
        <_>
          <internalNodes>
            0 -1 1 1.0000437498092651e-02</internalNodes>
          <leafValues>
            -7.2275823354721069e-01 4.1888642311096191e-01</leafValues></_>
        <_>
          <internalNodes>
            0 -1 0 1.1501702829264104e-04</internalNodes>
          <leafValues>
            4.4069755077362061e-01 -5.5757707357406616e-01</leafValues></_></weakClassifiers></_></stages>
  <features>
    <_>
      <rect>
        0 0 8 8 6</rect></_>
    <_>
      <rect>
        0 0 8 8 12</rect></_>
    <_>
      <rect>
        0 0 8 8 22</rect></_>
    <_>
      <rect>
        0 0 8 8 23</rect></_>
    <_>
      <rect>
        4 8 8 8 22</rect></_>
    <_>
      <rect>
        8 0 8 8 31</rect></_>
    <_>
      <rect>
        8 4 8 8 31</rect></_>
    <_>
      <rect>
        8 8 8 8 21</rect></_>
    <_>
      <rect>
        8 8 8 8 33</rect></_></features></cascade>
</opencv_storage>
