<?xml version="1.0"?>
<opencv_storage>
<!-- Created using Computer Vision System Toolbox(tm) for MATLAB(R) -->
<!-- Version 9.5.0.1033004 (R2018b) Update 2 -->
<!-- Compatible with OpenCV 3.4 -->
<cascade>
  <stageType>BOOST</stageType>
  <featureType>HOG</featureType>
  <height>16</height>
  <width>16</width>
  <stageParams>
    <boostType>GAB</boostType>
    <minHitRate>8.9999997615814209e-01</minHitRate>
    <maxFalseAlarm>6.9999998807907104e-01</maxFalseAlarm>
    <weightTrimRate>9.4999999999999996e-01</weightTrimRate>
    <maxDepth>1</maxDepth>
    <maxWeakCount>100</maxWeakCount></stageParams>
  <featureParams>
    <maxCatCount>0</maxCatCount>
    <featSize>36</featSize></featureParams>
  <stageNum>5</stageNum>
  <stages>
    <!-- stage 0 -->
    <_>
      <maxWeakCount>3</maxWeakCount>
      <stageThreshold>-8.9656144380569458e-01</stageThreshold>
      <weakClassifiers>
        <_>
          <internalNodes>
            0 -1 6 9.0603632852435112e-03</internalNodes>
          <leafValues>
            6.0759490728378296e-01 -5.5653077363967896e-01</leafValues></_>
        <_>
          <internalNodes>
            0 -1 5 3.1040566042065620e-02</internalNodes>
          <leafValues>
            -5.5098366737365723e-01 3.3401983976364136e-01</leafValues></_>
        <_>
          <internalNodes>
            0 -1 0 6.9258451461791992e-02</internalNodes>
          <leafValues>
            2.1095296740531921e-01 -8.1770116090774536e-01</leafValues></_></weakClassifiers></_>
    <!-- stage 1 -->
    <_>
      <maxWeakCount>3</maxWeakCount>
      <stageThreshold>-7.7739685773849487e-01</stageThreshold>
      <weakClassifiers>
        <_>
          <internalNodes>
            0 -1 7 1.7266083159483969e-04</internalNodes>
          <leafValues>
            7.3338872194290161e-01 -6.4262491464614868e-01</leafValues></_>
        <_>
          <internalNodes>
            0 -1 1 3.1507137464359403e-04</internalNodes>
          <leafValues>
            6.4516097307205200e-01 -3.6249613761901855e-01</leafValues></_>
        <_>
          <internalNodes>
            0 -1 5 2.5544835254549980e-02</internalNodes>
          <leafValues>
            -5.2730286121368408e-01 2.2772417962551117e-01</leafValues></_></weakClassifiers></_>
    <!-- stage 2 -->
    <_>
      <maxWeakCount>3</maxWeakCount>
      <stageThreshold>-7.7513319253921509e-01</stageThreshold>
      <weakClassifiers>
        <_>
          <internalNodes>
            0 -1 8 1.0635612125042826e-04</internalNodes>
          <leafValues>
            6.8499130010604858e-01 -6.1049759387969971e-01</leafValues></_>
        <_>
          <internalNodes>
            0 -1 1 2.4413759820163250e-04</internalNodes>
          <leafValues>
            5.8544689416885376e-01 -3.7310644984245300e-01</leafValues></_>
        <_>
          <internalNodes>
            0 -1 4 1.1940565891563892e-02</internalNodes>
          <leafValues>
            -7.2258424758911133e-01 2.0847085118293762e-01</leafValues></_></weakClassifiers></_>
    <!-- stage 3 -->
    <_>
      <maxWeakCount>3</maxWeakCount>
      <stageThreshold>-6.4651656150817871e-01</stageThreshold>
      <weakClassifiers>
        <_>
          <internalNodes>
            0 -1 8 3.7999041524017230e-05</internalNodes>
          <leafValues>
            5.9205192327499390e-01 -6.1004000902175903e-01</leafValues></_>
        <_>
          <internalNodes>
            0 -1 2 7.5741438195109367e-05</internalNodes>
          <leafValues>
            6.4927524328231812e-01 -3.1101074814796448e-01</leafValues></_>
        <_>
          <internalNodes>
            0 -1 3 1.2897567823529243e-02</internalNodes>
          <leafValues>
            -6.9503426551818848e-01 2.7453419566154480e-01</leafValues></_></weakClassifiers></_>
    <!-- stage 4 -->
    <_>
      <maxWeakCount>3</maxWeakCount>
      <stageThreshold>-7.3497945070266724e-01</stageThreshold>
      <weakClassifiers>
        <_>
          <internalNodes>
            0 -1 7 1.8509874644223601e-04</internalNodes>
          <leafValues>
            6.9560229778289795e-01 -6.6559642553329468e-01</leafValues></_>
        <_>
          <internalNodes>
            0 -1 2 8.5436506196856499e-05</internalNodes>
          <leafValues>
            7.9717236757278442e-01 -3.6223316192626953e-01</leafValues></_>
        <_>
          <internalNodes>
            0 -1 1 1.6374547034502029e-02</internalNodes>
          <leafValues>
            2.9285013675689697e-01 -5.8464139699935913e-01</leafValues></_></weakClassifiers></_></stages>
  <features>
    <_>
      <rect>
        0 0 8 8 4</rect></_>
    <_>
      <rect>
        0 0 8 8 5</rect></_>
    <_>
      <rect>
        0 0 8 8 6</rect></_>
    <_>
      <rect>
        0 0 8 8 13</rect></_>
    <_>
      <rect>
        0 0 8 8 22</rect></_>
    <_>
      <rect>
        0 0 8 8 26</rect></_>
    <_>
      <rect>
        0 0 8 8 31</rect></_>
    <_>
      <rect>
        0 0 8 8 32</rect></_>
    <_>
      <rect>
        0 0 8 8 33</rect></_></features></cascade>
</opencv_storage>
