<?xml version="1.0"?>
<opencv_storage>
<!-- Created using Computer Vision System Toolbox(tm) for MATLAB(R) -->
<!-- Version 9.5.0.1033004 (R2018b) Update 2 -->
<!-- Compatible with OpenCV 3.4 -->
<cascade>
  <stageType>BOOST</stageType>
  <featureType>HOG</featureType>
  <height>16</height>
  <width>16</width>
  <stageParams>
    <boostType>GAB</boostType>
    <minHitRate>8.9999997615814209e-01</minHitRate>
    <maxFalseAlarm>6.9999998807907104e-01</maxFalseAlarm>
    <weightTrimRate>9.4999999999999996e-01</weightTrimRate>
    <maxDepth>1</maxDepth>
    <maxWeakCount>100</maxWeakCount></stageParams>
  <featureParams>
    <maxCatCount>0</maxCatCount>
    <featSize>36</featSize></featureParams>
  <stageNum>5</stageNum>
  <stages>
    <!-- stage 0 -->
    <_>
      <maxWeakCount>4</maxWeakCount>
      <stageThreshold>8.7165921926498413e-02</stageThreshold>
      <weakClassifiers>
        <_>
          <internalNodes>
            0 -1 7 1.5194851905107498e-02</internalNodes>
          <leafValues>
            7.2670209407806396e-01 -3.6013400554656982e-01</leafValues></_>
        <_>
          <internalNodes>
            0 -1 6 4.1863773018121719e-02</internalNodes>
          <leafValues>
            -3.8017022609710693e-01 5.5068463087081909e-01</leafValues></_>
        <_>
          <internalNodes>
            0 -1 5 1.1071384698152542e-01</internalNodes>
          <leafValues>
            1.8417453765869141e-01 -9.3812108039855957e-01</leafValues></_>
        <_>
          <internalNodes>
            0 -1 2 8.8535249233245850e-05</internalNodes>
          <leafValues>
            6.6774111986160278e-01 -2.8755927085876465e-01</leafValues></_></weakClassifiers></_>
    <!-- stage 1 -->
    <_>
      <maxWeakCount>4</maxWeakCount>
      <stageThreshold>-2.8157055377960205e-01</stageThreshold>
      <weakClassifiers>
        <_>
          <internalNodes>
            0 -1 9 3.7172343581914902e-04</internalNodes>
          <leafValues>
            6.3797944784164429e-01 -3.3171206712722778e-01</leafValues></_>
        <_>
          <internalNodes>
            0 -1 0 8.8551238179206848e-02</internalNodes>
          <leafValues>
            1.6763661801815033e-01 -8.9423298835754395e-01</leafValues></_>
        <_>
          <internalNodes>
            0 -1 1 2.5517281028442085e-04</internalNodes>
          <leafValues>
            5.3075486421585083e-01 -3.3188334107398987e-01</leafValues></_>
        <_>
          <internalNodes>
            0 -1 4 1.8572717905044556e-02</internalNodes>
          <leafValues>
            -5.7157236337661743e-01 2.1438823640346527e-01</leafValues></_></weakClassifiers></_>
    <!-- stage 2 -->
    <_>
      <maxWeakCount>1</maxWeakCount>
      <stageThreshold>3.7469586730003357e-01</stageThreshold>
      <weakClassifiers>
        <_>
          <internalNodes>
            0 -1 5 1.3873768039047718e-02</internalNodes>
          <leafValues>
            -7.1962618827819824e-01 3.7469586730003357e-01</leafValues></_></weakClassifiers></_>
    <!-- stage 3 -->
    <_>
      <maxWeakCount>4</maxWeakCount>
      <stageThreshold>-5.9576463699340820e-01</stageThreshold>
      <weakClassifiers>
        <_>
          <internalNodes>
            0 -1 1 2.9488262953236699e-04</internalNodes>
          <leafValues>
            9.2563599348068237e-01 -4.4983357191085815e-01</leafValues></_>
        <_>
          <internalNodes>
            0 -1 8 2.1430780179798603e-04</internalNodes>
          <leafValues>
            9.2184948921203613e-01 -3.1572994589805603e-01</leafValues></_>
        <_>
          <internalNodes>
            0 -1 9 2.9163862927816808e-04</internalNodes>
          <leafValues>
            8.9590281248092651e-01 -1.5342874825000763e-01</leafValues></_>
        <_>
          <internalNodes>
            0 -1 3 1.8496664240956306e-02</internalNodes>
          <leafValues>
            -4.9156832695007324e-01 3.2322764396667480e-01</leafValues></_></weakClassifiers></_>
    <!-- stage 4 -->
    <_>
      <maxWeakCount>3</maxWeakCount>
      <stageThreshold>-3.6838239431381226e-01</stageThreshold>
      <weakClassifiers>
        <_>
          <internalNodes>
            0 -1 2 2.0306263468228281e-04</internalNodes>
          <leafValues>
            9.0777480602264404e-01 -3.8608893752098083e-01</leafValues></_>
        <_>
          <internalNodes>
            0 -1 8 1.2953400437254459e-04</internalNodes>
          <leafValues>
            7.7367895841598511e-01 -3.1988531351089478e-01</leafValues></_>
        <_>
          <internalNodes>
            0 -1 1 1.6372723504900932e-02</internalNodes>
          <leafValues>
            3.3759185671806335e-01 -5.8158898353576660e-01</leafValues></_></weakClassifiers></_></stages>
  <features>
    <_>
      <rect>
        0 0 8 8 4</rect></_>
    <_>
      <rect>
        0 0 8 8 5</rect></_>
    <_>
      <rect>
        0 0 8 8 6</rect></_>
    <_>
      <rect>
        0 0 8 8 13</rect></_>
    <_>
      <rect>
        0 0 8 8 17</rect></_>
    <_>
      <rect>
        0 0 8 8 22</rect></_>
    <_>
      <rect>
        0 0 8 8 26</rect></_>
    <_>
      <rect>
        0 0 8 8 31</rect></_>
    <_>
      <rect>
        0 0 8 8 32</rect></_>
    <_>
      <rect>
        0 0 8 8 33</rect></_></features></cascade>
</opencv_storage>
