<?xml version="1.0"?>
<opencv_storage>
<!-- Created using Computer Vision System Toolbox(tm) for MATLAB(R) -->
<!-- Version 9.5.0.1033004 (R2018b) Update 2 -->
<!-- Compatible with OpenCV 3.4 -->
<cascade>
  <stageType>BOOST</stageType>
  <featureType>HOG</featureType>
  <height>16</height>
  <width>16</width>
  <stageParams>
    <boostType>GAB</boostType>
    <minHitRate>8.9999997615814209e-01</minHitRate>
    <maxFalseAlarm>3.0000001192092896e-01</maxFalseAlarm>
    <weightTrimRate>9.4999999999999996e-01</weightTrimRate>
    <maxDepth>1</maxDepth>
    <maxWeakCount>100</maxWeakCount></stageParams>
  <featureParams>
    <maxCatCount>0</maxCatCount>
    <featSize>36</featSize></featureParams>
  <stageNum>7</stageNum>
  <stages>
    <!-- stage 0 -->
    <_>
      <maxWeakCount>4</maxWeakCount>
      <stageThreshold>8.7165921926498413e-02</stageThreshold>
      <weakClassifiers>
        <_>
          <internalNodes>
            0 -1 14 1.5194851905107498e-02</internalNodes>
          <leafValues>
            7.2670209407806396e-01 -3.6013400554656982e-01</leafValues></_>
        <_>
          <internalNodes>
            0 -1 12 4.1863773018121719e-02</internalNodes>
          <leafValues>
            -3.8017022609710693e-01 5.5068463087081909e-01</leafValues></_>
        <_>
          <internalNodes>
            0 -1 11 1.1071384698152542e-01</internalNodes>
          <leafValues>
            1.8417453765869141e-01 -9.3812108039855957e-01</leafValues></_>
        <_>
          <internalNodes>
            0 -1 3 8.8535249233245850e-05</internalNodes>
          <leafValues>
            6.6774111986160278e-01 -2.8755927085876465e-01</leafValues></_></weakClassifiers></_>
    <!-- stage 1 -->
    <_>
      <maxWeakCount>8</maxWeakCount>
      <stageThreshold>-7.9766273498535156e-02</stageThreshold>
      <weakClassifiers>
        <_>
          <internalNodes>
            0 -1 16 3.7172343581914902e-04</internalNodes>
          <leafValues>
            6.3797944784164429e-01 -3.3171206712722778e-01</leafValues></_>
        <_>
          <internalNodes>
            0 -1 1 8.8551238179206848e-02</internalNodes>
          <leafValues>
            1.6763661801815033e-01 -8.9423298835754395e-01</leafValues></_>
        <_>
          <internalNodes>
            0 -1 2 2.5517281028442085e-04</internalNodes>
          <leafValues>
            5.3075486421585083e-01 -3.3188334107398987e-01</leafValues></_>
        <_>
          <internalNodes>
            0 -1 8 1.8572717905044556e-02</internalNodes>
          <leafValues>
            -5.7157236337661743e-01 2.1438823640346527e-01</leafValues></_>
        <_>
          <internalNodes>
            0 -1 0 2.0443396642804146e-03</internalNodes>
          <leafValues>
            -5.8531987667083740e-01 1.3483914732933044e-01</leafValues></_>
        <_>
          <internalNodes>
            0 -1 3 1.0136389755643904e-04</internalNodes>
          <leafValues>
            4.8356646299362183e-01 -2.7201437950134277e-01</leafValues></_>
        <_>
          <internalNodes>
            0 -1 4 2.8983576223254204e-02</internalNodes>
          <leafValues>
            -4.0345817804336548e-01 2.5817206501960754e-01</leafValues></_>
        <_>
          <internalNodes>
            0 -1 7 1.3101935386657715e-01</internalNodes>
          <leafValues>
            8.0807447433471680e-02 -9.5825624465942383e-01</leafValues></_></weakClassifiers></_>
    <!-- stage 2 -->
    <_>
      <maxWeakCount>3</maxWeakCount>
      <stageThreshold>-5.0432354211807251e-01</stageThreshold>
      <weakClassifiers>
        <_>
          <internalNodes>
            0 -1 15 1.9606802379712462e-04</internalNodes>
          <leafValues>
            6.9017744064331055e-01 -4.0492510795593262e-01</leafValues></_>
        <_>
          <internalNodes>
            0 -1 11 2.0279265940189362e-02</internalNodes>
          <leafValues>
            -5.3868806362152100e-01 4.7476100921630859e-01</leafValues></_>
        <_>
          <internalNodes>
            0 -1 7 1.2921913526952267e-02</internalNodes>
          <leafValues>
            -6.5581291913986206e-01 2.9372274875640869e-01</leafValues></_></weakClassifiers></_>
    <!-- stage 3 -->
    <_>
      <maxWeakCount>6</maxWeakCount>
      <stageThreshold>-3.1159561872482300e-01</stageThreshold>
      <weakClassifiers>
        <_>
          <internalNodes>
            0 -1 17 6.0686794313369319e-05</internalNodes>
          <leafValues>
            7.1053957939147949e-01 -3.3020856976509094e-01</leafValues></_>
        <_>
          <internalNodes>
            0 -1 11 8.1869009882211685e-03</internalNodes>
          <leafValues>
            -9.0957742929458618e-01 2.8949585556983948e-01</leafValues></_>
        <_>
          <internalNodes>
            0 -1 3 7.6470001658890396e-05</internalNodes>
          <leafValues>
            6.3116538524627686e-01 -3.8506668806076050e-01</leafValues></_>
        <_>
          <internalNodes>
            0 -1 7 8.0278608947992325e-03</internalNodes>
          <leafValues>
            -7.7314180135726929e-01 1.8062971532344818e-01</leafValues></_>
        <_>
          <internalNodes>
            0 -1 16 3.7999041524017230e-05</internalNodes>
          <leafValues>
            6.2377768754959106e-01 -2.8402024507522583e-01</leafValues></_>
        <_>
          <internalNodes>
            0 -1 2 1.6340985894203186e-02</internalNodes>
          <leafValues>
            2.1757431328296661e-01 -5.5879652500152588e-01</leafValues></_></weakClassifiers></_>
    <!-- stage 4 -->
    <_>
      <maxWeakCount>2</maxWeakCount>
      <stageThreshold>-3.7084013223648071e-01</stageThreshold>
      <weakClassifiers>
        <_>
          <internalNodes>
            0 -1 0 3.6160653689876199e-04</internalNodes>
          <leafValues>
            -7.1469330787658691e-01 5.8154380321502686e-01</leafValues></_>
        <_>
          <internalNodes>
            0 -1 6 8.6751636117696762e-03</internalNodes>
          <leafValues>
            -5.8238059282302856e-01 3.4385314583778381e-01</leafValues></_></weakClassifiers></_>
    <!-- stage 5 -->
    <_>
      <maxWeakCount>7</maxWeakCount>
      <stageThreshold>-1.4596398174762726e-01</stageThreshold>
      <weakClassifiers>
        <_>
          <internalNodes>
            0 -1 16 2.3613861412741244e-04</internalNodes>
          <leafValues>
            5.3730756044387817e-01 -3.6615550518035889e-01</leafValues></_>
        <_>
          <internalNodes>
            0 -1 9 3.4841641900129616e-04</internalNodes>
          <leafValues>
            7.7966630458831787e-01 -1.2396224588155746e-01</leafValues></_>
        <_>
          <internalNodes>
            0 -1 10 8.8419318199157715e-03</internalNodes>
          <leafValues>
            -5.0960671901702881e-01 2.1269869804382324e-01</leafValues></_>
        <_>
          <internalNodes>
            0 -1 12 1.1181553825736046e-02</internalNodes>
          <leafValues>
            -8.9501875638961792e-01 1.5950934588909149e-01</leafValues></_>
        <_>
          <internalNodes>
            0 -1 3 1.5004056040197611e-03</internalNodes>
          <leafValues>
            4.5751217007637024e-01 -3.5087180137634277e-01</leafValues></_>
        <_>
          <internalNodes>
            0 -1 8 1.0324937291443348e-02</internalNodes>
          <leafValues>
            -8.4799653291702271e-01 6.9582343101501465e-02</leafValues></_>
        <_>
          <internalNodes>
            0 -1 2 3.7109875120222569e-04</internalNodes>
          <leafValues>
            2.6735100150108337e-01 -2.6794701814651489e-01</leafValues></_></weakClassifiers></_>
    <!-- stage 6 -->
    <_>
      <maxWeakCount>11</maxWeakCount>
      <stageThreshold>-1.2914496660232544e-01</stageThreshold>
      <weakClassifiers>
        <_>
          <internalNodes>
            0 -1 14 5.7319030165672302e-03</internalNodes>
          <leafValues>
            4.5306858420372009e-01 -2.4888448417186737e-01</leafValues></_>
        <_>
          <internalNodes>
            0 -1 12 2.2771894931793213e-02</internalNodes>
          <leafValues>
            -5.8914667367935181e-01 1.3800475001335144e-01</leafValues></_>
        <_>
          <internalNodes>
            0 -1 13 8.9667448773980141e-03</internalNodes>
          <leafValues>
            -3.2976332306861877e-01 3.2002219557762146e-01</leafValues></_>
        <_>
          <internalNodes>
            0 -1 9 6.6560909152030945e-02</internalNodes>
          <leafValues>
            -1.7558273673057556e-01 5.4612189531326294e-01</leafValues></_>
        <_>
          <internalNodes>
            0 -1 9 1.0589045268716291e-04</internalNodes>
          <leafValues>
            5.4984629154205322e-01 -1.9264222681522369e-01</leafValues></_>
        <_>
          <internalNodes>
            0 -1 14 4.1873492300510406e-02</internalNodes>
          <leafValues>
            1.6611950099468231e-01 -4.6959483623504639e-01</leafValues></_>
        <_>
          <internalNodes>
            0 -1 1 4.2364741675555706e-03</internalNodes>
          <leafValues>
            3.8720396161079407e-01 -1.3674187660217285e-01</leafValues></_>
        <_>
          <internalNodes>
            0 -1 11 1.2860774062573910e-02</internalNodes>
          <leafValues>
            -6.3912987709045410e-01 1.0877942293882370e-01</leafValues></_>
        <_>
          <internalNodes>
            0 -1 5 7.2829127311706543e-02</internalNodes>
          <leafValues>
            -1.2768696248531342e-01 4.9387377500534058e-01</leafValues></_>
        <_>
          <internalNodes>
            0 -1 5 7.5636511610355228e-05</internalNodes>
          <leafValues>
            6.7175644636154175e-01 -7.4985563755035400e-02</leafValues></_>
        <_>
          <internalNodes>
            0 -1 8 3.1390506774187088e-02</internalNodes>
          <leafValues>
            -3.4538158774375916e-01 1.6863399744033813e-01</leafValues></_></weakClassifiers></_></stages>
  <features>
    <_>
      <rect>
        0 0 8 8 3</rect></_>
    <_>
      <rect>
        0 0 8 8 4</rect></_>
    <_>
      <rect>
        0 0 8 8 5</rect></_>
    <_>
      <rect>
        0 0 8 8 6</rect></_>
    <_>
      <rect>
        0 0 8 8 8</rect></_>
    <_>
      <rect>
        0 0 8 8 10</rect></_>
    <_>
      <rect>
        0 0 8 8 12</rect></_>
    <_>
      <rect>
        0 0 8 8 13</rect></_>
    <_>
      <rect>
        0 0 8 8 17</rect></_>
    <_>
      <rect>
        0 0 8 8 19</rect></_>
    <_>
      <rect>
        0 0 8 8 21</rect></_>
    <_>
      <rect>
        0 0 8 8 22</rect></_>
    <_>
      <rect>
        0 0 8 8 26</rect></_>
    <_>
      <rect>
        0 0 8 8 30</rect></_>
    <_>
      <rect>
        0 0 8 8 31</rect></_>
    <_>
      <rect>
        0 0 8 8 32</rect></_>
    <_>
      <rect>
        0 0 8 8 33</rect></_>
    <_>
      <rect>
        0 0 8 8 34</rect></_></features></cascade>
</opencv_storage>
