<?xml version="1.0"?>
<opencv_storage>
<!-- Created using Computer Vision System Toolbox(tm) for MATLAB(R) -->
<!-- Version 9.5.0.1033004 (R2018b) Update 2 -->
<!-- Compatible with OpenCV 3.4 -->
<cascade>
  <stageType>BOOST</stageType>
  <featureType>HOG</featureType>
  <height>24</height>
  <width>24</width>
  <stageParams>
    <boostType>GAB</boostType>
    <minHitRate>8.9999997615814209e-01</minHitRate>
    <maxFalseAlarm>3.0000001192092896e-01</maxFalseAlarm>
    <weightTrimRate>9.4999999999999996e-01</weightTrimRate>
    <maxDepth>1</maxDepth>
    <maxWeakCount>100</maxWeakCount></stageParams>
  <featureParams>
    <maxCatCount>0</maxCatCount>
    <featSize>36</featSize></featureParams>
  <stageNum>6</stageNum>
  <stages>
    <!-- stage 0 -->
    <_>
      <maxWeakCount>2</maxWeakCount>
      <stageThreshold>5.6322950869798660e-02</stageThreshold>
      <weakClassifiers>
        <_>
          <internalNodes>
            0 -1 3 1.0784614831209183e-02</internalNodes>
          <leafValues>
            8.9130437374114990e-01 -7.9370838403701782e-01</leafValues></_>
        <_>
          <internalNodes>
            0 -1 14 1.0987836867570877e-02</internalNodes>
          <leafValues>
            8.5003137588500977e-01 -6.5741419792175293e-01</leafValues></_></weakClassifiers></_>
    <!-- stage 1 -->
    <_>
      <maxWeakCount>2</maxWeakCount>
      <stageThreshold>3.4687932580709457e-02</stageThreshold>
      <weakClassifiers>
        <_>
          <internalNodes>
            0 -1 17 6.5034000726882368e-05</internalNodes>
          <leafValues>
            8.5026735067367554e-01 -6.9230771064758301e-01</leafValues></_>
        <_>
          <internalNodes>
            0 -1 4 2.8013388509862125e-04</internalNodes>
          <leafValues>
            7.2699564695358276e-01 -7.2927421331405640e-01</leafValues></_></weakClassifiers></_>
    <!-- stage 2 -->
    <_>
      <maxWeakCount>3</maxWeakCount>
      <stageThreshold>2.5057682394981384e-01</stageThreshold>
      <weakClassifiers>
        <_>
          <internalNodes>
            0 -1 1 8.7528210133314133e-03</internalNodes>
          <leafValues>
            -7.4249827861785889e-01 6.2884157896041870e-01</leafValues></_>
        <_>
          <internalNodes>
            0 -1 12 1.2952768243849277e-02</internalNodes>
          <leafValues>
            -7.6104784011840820e-01 4.5496383309364319e-01</leafValues></_>
        <_>
          <internalNodes>
            0 -1 15 2.4696832406334579e-04</internalNodes>
          <leafValues>
            5.3811120986938477e-01 -5.1008814573287964e-01</leafValues></_></weakClassifiers></_>
    <!-- stage 3 -->
    <_>
      <maxWeakCount>4</maxWeakCount>
      <stageThreshold>-1.0653541237115860e-01</stageThreshold>
      <weakClassifiers>
        <_>
          <internalNodes>
            0 -1 7 6.8262324202805758e-04</internalNodes>
          <leafValues>
            5.4066687822341919e-01 -5.7053601741790771e-01</leafValues></_>
        <_>
          <internalNodes>
            0 -1 16 1.0294411331415176e-02</internalNodes>
          <leafValues>
            -6.9658577442169189e-01 4.9724802374839783e-01</leafValues></_>
        <_>
          <internalNodes>
            0 -1 5 5.8718509972095490e-02</internalNodes>
          <leafValues>
            -3.5212844610214233e-01 6.6228723526000977e-01</leafValues></_>
        <_>
          <internalNodes>
            0 -1 11 4.0355972945690155e-02</internalNodes>
          <leafValues>
            -5.3998148441314697e-01 4.0151193737983704e-01</leafValues></_></weakClassifiers></_>
    <!-- stage 4 -->
    <_>
      <maxWeakCount>5</maxWeakCount>
      <stageThreshold>1.1672443151473999e-01</stageThreshold>
      <weakClassifiers>
        <_>
          <internalNodes>
            0 -1 0 5.0071143050445244e-05</internalNodes>
          <leafValues>
            5.5305165052413940e-01 -4.7342601418495178e-01</leafValues></_>
        <_>
          <internalNodes>
            0 -1 9 8.0105708912014961e-03</internalNodes>
          <leafValues>
            -5.6315237283706665e-01 3.7866052985191345e-01</leafValues></_>
        <_>
          <internalNodes>
            0 -1 2 5.0396549340803176e-05</internalNodes>
          <leafValues>
            3.7506070733070374e-01 -6.4538061618804932e-01</leafValues></_>
        <_>
          <internalNodes>
            0 -1 6 5.3901188075542450e-02</internalNodes>
          <leafValues>
            -3.6118662357330322e-01 5.2459341287612915e-01</leafValues></_>
        <_>
          <internalNodes>
            0 -1 14 1.4822564087808132e-02</internalNodes>
          <leafValues>
            1.9761581718921661e-01 -6.7123216390609741e-01</leafValues></_></weakClassifiers></_>
    <!-- stage 5 -->
    <_>
      <maxWeakCount>4</maxWeakCount>
      <stageThreshold>1.1015433073043823e+00</stageThreshold>
      <weakClassifiers>
        <_>
          <internalNodes>
            0 -1 8 1.0748724639415741e-01</internalNodes>
          <leafValues>
            8.3377540111541748e-01 -7.8787881135940552e-01</leafValues></_>
        <_>
          <internalNodes>
            0 -1 13 6.8472968414425850e-03</internalNodes>
          <leafValues>
            -5.5867135524749756e-01 5.8081912994384766e-01</leafValues></_>
        <_>
          <internalNodes>
            0 -1 17 2.6848612469621003e-04</internalNodes>
          <leafValues>
            4.1103953123092651e-01 -5.5550456047058105e-01</leafValues></_>
        <_>
          <internalNodes>
            0 -1 10 1.2142870575189590e-02</internalNodes>
          <leafValues>
            -6.1670947074890137e-01 2.4245329201221466e-01</leafValues></_></weakClassifiers></_></stages>
  <features>
    <_>
      <rect>
        0 0 8 8 6</rect></_>
    <_>
      <rect>
        0 0 8 8 12</rect></_>
    <_>
      <rect>
        0 0 8 8 20</rect></_>
    <_>
      <rect>
        0 0 8 8 22</rect></_>
    <_>
      <rect>
        0 0 8 8 23</rect></_>
    <_>
      <rect>
        0 0 8 8 28</rect></_>
    <_>
      <rect>
        0 4 8 8 10</rect></_>
    <_>
      <rect>
        0 8 8 8 4</rect></_>
    <_>
      <rect>
        0 8 8 8 22</rect></_>
    <_>
      <rect>
        4 0 8 8 3</rect></_>
    <_>
      <rect>
        4 0 8 8 13</rect></_>
    <_>
      <rect>
        4 0 8 8 26</rect></_>
    <_>
      <rect>
        4 8 8 8 22</rect></_>
    <_>
      <rect>
        8 0 8 8 3</rect></_>
    <_>
      <rect>
        8 4 8 8 31</rect></_>
    <_>
      <rect>
        8 8 8 8 13</rect></_>
    <_>
      <rect>
        8 8 8 8 21</rect></_>
    <_>
      <rect>
        8 8 8 8 33</rect></_></features></cascade>
</opencv_storage>
