<?xml version="1.0"?>
<opencv_storage>
<!-- Created using Computer Vision System Toolbox(tm) for MATLAB(R) -->
<!-- Version 9.5.0.1033004 (R2018b) Update 2 -->
<!-- Compatible with OpenCV 3.4 -->
<cascade>
  <stageType>BOOST</stageType>
  <featureType>LBP</featureType>
  <height>32</height>
  <width>32</width>
  <stageParams>
    <boostType>GAB</boostType>
    <minHitRate>8.9999997615814209e-01</minHitRate>
    <maxFalseAlarm>3.0000001192092896e-01</maxFalseAlarm>
    <weightTrimRate>9.4999999999999996e-01</weightTrimRate>
    <maxDepth>1</maxDepth>
    <maxWeakCount>100</maxWeakCount></stageParams>
  <featureParams>
    <maxCatCount>256</maxCatCount>
    <featSize>1</featSize></featureParams>
  <stageNum>3</stageNum>
  <stages>
    <!-- stage 0 -->
    <_>
      <maxWeakCount>1</maxWeakCount>
      <stageThreshold>8.3755147457122803e-01</stageThreshold>
      <weakClassifiers>
        <_>
          <internalNodes>
            0 -1 2 -1 -69207457 -881335905 -2593 -85983493 -74452797
            -2098177 2147483647</internalNodes>
          <leafValues>
            -9.9899613857269287e-01 8.3755147457122803e-01</leafValues></_></weakClassifiers></_>
    <!-- stage 1 -->
    <_>
      <maxWeakCount>1</maxWeakCount>
      <stageThreshold>7.2839504480361938e-01</stageThreshold>
      <weakClassifiers>
        <_>
          <internalNodes>
            0 -1 1 2147483647 1073739775 -136839169 1073740799 -1
            1069277183 -2097153 -1073741825</internalNodes>
          <leafValues>
            -9.1575819253921509e-01 7.2839504480361938e-01</leafValues></_></weakClassifiers></_>
    <!-- stage 2 -->
    <_>
      <maxWeakCount>1</maxWeakCount>
      <stageThreshold>8.1506252288818359e-01</stageThreshold>
      <weakClassifiers>
        <_>
          <internalNodes>
            0 -1 0 -576848385 -44461927 -586679809 -13151847 -89613825
            -7831364 -72484097 2140906202</internalNodes>
          <leafValues>
            -9.9600994586944580e-01 8.1506252288818359e-01</leafValues></_></weakClassifiers></_></stages>
  <features>
    <_>
      <rect>
        0 29 9 1</rect></_>
    <_>
      <rect>
        11 23 7 3</rect></_>
    <_>
      <rect>
        29 0 1 9</rect></_></features></cascade>
</opencv_storage>
