<?xml version="1.0"?>
<opencv_storage>
<!-- Created using Computer Vision System Toolbox(tm) for MATLAB(R) -->
<!-- Version 9.5.0.1033004 (R2018b) Update 2 -->
<!-- Compatible with OpenCV 3.4 -->
<cascade>
  <stageType>BOOST</stageType>
  <featureType>HOG</featureType>
  <height>32</height>
  <width>32</width>
  <stageParams>
    <boostType>GAB</boostType>
    <minHitRate>8.9999997615814209e-01</minHitRate>
    <maxFalseAlarm>3.0000001192092896e-01</maxFalseAlarm>
    <weightTrimRate>9.4999999999999996e-01</weightTrimRate>
    <maxDepth>1</maxDepth>
    <maxWeakCount>100</maxWeakCount></stageParams>
  <featureParams>
    <maxCatCount>0</maxCatCount>
    <featSize>36</featSize></featureParams>
  <stageNum>4</stageNum>
  <stages>
    <!-- stage 0 -->
    <_>
      <maxWeakCount>1</maxWeakCount>
      <stageThreshold>9.6165192127227783e-01</stageThreshold>
      <weakClassifiers>
        <_>
          <internalNodes>
            0 -1 0 1.6786570195108652e-03</internalNodes>
          <leafValues>
            9.6165192127227783e-01 -8.6886996030807495e-01</leafValues></_></weakClassifiers></_>
    <!-- stage 1 -->
    <_>
      <maxWeakCount>1</maxWeakCount>
      <stageThreshold>5.3539103269577026e-01</stageThreshold>
      <weakClassifiers>
        <_>
          <internalNodes>
            0 -1 3 1.4616921544075012e-02</internalNodes>
          <leafValues>
            -8.1433111429214478e-01 5.3539103269577026e-01</leafValues></_></weakClassifiers></_>
    <!-- stage 2 -->
    <_>
      <maxWeakCount>1</maxWeakCount>
      <stageThreshold>6.8876081705093384e-01</stageThreshold>
      <weakClassifiers>
        <_>
          <internalNodes>
            0 -1 1 7.1010738611221313e-04</internalNodes>
          <leafValues>
            6.8876081705093384e-01 -7.9067671298980713e-01</leafValues></_></weakClassifiers></_>
    <!-- stage 3 -->
    <_>
      <maxWeakCount>2</maxWeakCount>
      <stageThreshold>1.5663608908653259e-02</stageThreshold>
      <weakClassifiers>
        <_>
          <internalNodes>
            0 -1 2 3.1370942015200853e-03</internalNodes>
          <leafValues>
            -6.3844621181488037e-01 8.9654153585433960e-01</leafValues></_>
        <_>
          <internalNodes>
            0 -1 4 2.7039845008403063e-03</internalNodes>
          <leafValues>
            -6.0894554853439331e-01 6.5410983562469482e-01</leafValues></_></weakClassifiers></_></stages>
  <features>
    <_>
      <rect>
        0 12 8 8 4</rect></_>
    <_>
      <rect>
        16 4 8 8 31</rect></_>
    <_>
      <rect>
        4 0 8 16 12</rect></_>
    <_>
      <rect>
        0 16 16 8 22</rect></_>
    <_>
      <rect>
        0 0 16 16 12</rect></_></features></cascade>
</opencv_storage>
