<?xml version="1.0"?>
<opencv_storage>
<!-- Created using Computer Vision Toolbox(tm) for MATLAB(R) -->
<!-- Version 9.6.0.1072779 (R2019a) -->
<!-- Compatible with OpenCV 3.4 -->
<cascade>
  <stageType>BOOST</stageType>
  <featureType>HOG</featureType>
  <height>32</height>
  <width>48</width>
  <stageParams>
    <boostType>GAB</boostType>
    <minHitRate>9.9500000476837158e-01</minHitRate>
    <maxFalseAlarm>5.0000000000000000e-01</maxFalseAlarm>
    <weightTrimRate>9.4999999999999996e-01</weightTrimRate>
    <maxDepth>1</maxDepth>
    <maxWeakCount>100</maxWeakCount></stageParams>
  <featureParams>
    <maxCatCount>0</maxCatCount>
    <featSize>36</featSize></featureParams>
  <stageNum>8</stageNum>
  <stages>
    <!-- stage 0 -->
    <_>
      <maxWeakCount>1</maxWeakCount>
      <stageThreshold>1.</stageThreshold>
      <weakClassifiers>
        <_>
          <internalNodes>
            0 -1 6 2.1114255650900304e-04</internalNodes>
          <leafValues>
            1. -1.</leafValues></_></weakClassifiers></_>
    <!-- stage 1 -->
    <_>
      <maxWeakCount>1</maxWeakCount>
      <stageThreshold>3.3150684833526611e-01</stageThreshold>
      <weakClassifiers>
        <_>
          <internalNodes>
            0 -1 10 6.6353175498079509e-05</internalNodes>
          <leafValues>
            3.3150684833526611e-01 -1.</leafValues></_></weakClassifiers></_>
    <!-- stage 2 -->
    <_>
      <maxWeakCount>3</maxWeakCount>
      <stageThreshold>-2.5201916694641113e-02</stageThreshold>
      <weakClassifiers>
        <_>
          <internalNodes>
            0 -1 12 1.2417203106451780e-04</internalNodes>
          <leafValues>
            -1.0207851976156235e-01 -1.</leafValues></_>
        <_>
          <internalNodes>
            0 -1 7 3.0765484552830458e-04</internalNodes>
          <leafValues>
            2.1792056038975716e-02 -1.</leafValues></_>
        <_>
          <internalNodes>
            0 -1 9 1.4350099954754114e-03</internalNodes>
          <leafValues>
            5.5084548890590668e-02 -1.</leafValues></_></weakClassifiers></_>
    <!-- stage 3 -->
    <_>
      <maxWeakCount>4</maxWeakCount>
      <stageThreshold>-1.9582636654376984e-01</stageThreshold>
      <weakClassifiers>
        <_>
          <internalNodes>
            0 -1 8 3.7907830119365826e-05</internalNodes>
          <leafValues>
            -2.3554857075214386e-01 -1.</leafValues></_>
        <_>
          <internalNodes>
            0 -1 11 1.5409248590003699e-05</internalNodes>
          <leafValues>
            7.7484608627855778e-03 -1.</leafValues></_>
        <_>
          <internalNodes>
            0 -1 0 2.2908454760909081e-02</internalNodes>
          <leafValues>
            3.1962845474481583e-02 -1.</leafValues></_>
        <_>
          <internalNodes>
            0 -1 8 2.4571685935370624e-04</internalNodes>
          <leafValues>
            1.0891341844398994e-05 -1.</leafValues></_></weakClassifiers></_>
    <!-- stage 4 -->
    <_>
      <maxWeakCount>2</maxWeakCount>
      <stageThreshold>-3.4580066800117493e-01</stageThreshold>
      <weakClassifiers>
        <_>
          <internalNodes>
            0 -1 4 4.4025048613548279e-01</internalNodes>
          <leafValues>
            -3.3287575840950012e-01 -1.</leafValues></_>
        <_>
          <internalNodes>
            0 -1 0 9.2811044305562973e-03</internalNodes>
          <leafValues>
            -1.2924897484481335e-02 -1.</leafValues></_></weakClassifiers></_>
    <!-- stage 5 -->
    <_>
      <maxWeakCount>1</maxWeakCount>
      <stageThreshold>-3.2780084013938904e-01</stageThreshold>
      <weakClassifiers>
        <_>
          <internalNodes>
            0 -1 5 3.0331613495945930e-02</internalNodes>
          <leafValues>
            -3.2780084013938904e-01 -1.</leafValues></_></weakClassifiers></_>
    <!-- stage 6 -->
    <_>
      <maxWeakCount>1</maxWeakCount>
      <stageThreshold>-3.2849740982055664e-01</stageThreshold>
      <weakClassifiers>
        <_>
          <internalNodes>
            0 -1 2 1.4906991273164749e-03</internalNodes>
          <leafValues>
            -3.2849740982055664e-01 -1.</leafValues></_></weakClassifiers></_>
    <!-- stage 7 -->
    <_>
      <maxWeakCount>2</maxWeakCount>
      <stageThreshold>-3.4451103210449219e-01</stageThreshold>
      <weakClassifiers>
        <_>
          <internalNodes>
            0 -1 1 7.8409329056739807e-02</internalNodes>
          <leafValues>
            -3.3172911405563354e-01 -1.</leafValues></_>
        <_>
          <internalNodes>
            0 -1 3 6.3225783407688141e-02</internalNodes>
          <leafValues>
            -1.2781918980181217e-02 -1.</leafValues></_></weakClassifiers></_></stages>
  <features>
    <_>
      <rect>
        0 0 8 8 0</rect></_>
    <_>
      <rect>
        0 0 8 8 1</rect></_>
    <_>
      <rect>
        4 0 8 8 8</rect></_>
    <_>
      <rect>
        8 16 8 8 27</rect></_>
    <_>
      <rect>
        8 16 8 8 35</rect></_>
    <_>
      <rect>
        0 0 8 16 4</rect></_>
    <_>
      <rect>
        0 0 8 16 13</rect></_>
    <_>
      <rect>
        32 0 8 16 35</rect></_>
    <_>
      <rect>
        0 0 16 16 17</rect></_>
    <_>
      <rect>
        0 0 16 16 26</rect></_>
    <_>
      <rect>
        8 0 16 16 35</rect></_>
    <_>
      <rect>
        12 0 16 16 22</rect></_>
    <_>
      <rect>
        16 0 16 16 17</rect></_></features></cascade>
</opencv_storage>
