<?xml version="1.0"?>
<opencv_storage>
<!-- Created using Computer Vision Toolbox(tm) for MATLAB(R) -->
<!-- Version 9.6.0.1072779 (R2019a) -->
<!-- Compatible with OpenCV 3.4 -->
<cascade>
  <stageType>BOOST</stageType>
  <featureType>HOG</featureType>
  <height>43</height>
  <width>32</width>
  <stageParams>
    <boostType>GAB</boostType>
    <minHitRate>9.9500000476837158e-01</minHitRate>
    <maxFalseAlarm>5.0000000000000000e-01</maxFalseAlarm>
    <weightTrimRate>9.4999999999999996e-01</weightTrimRate>
    <maxDepth>1</maxDepth>
    <maxWeakCount>100</maxWeakCount></stageParams>
  <featureParams>
    <maxCatCount>0</maxCatCount>
    <featSize>36</featSize></featureParams>
  <stageNum>8</stageNum>
  <stages>
    <!-- stage 0 -->
    <_>
      <maxWeakCount>2</maxWeakCount>
      <stageThreshold>-2.1502713859081268e-01</stageThreshold>
      <weakClassifiers>
        <_>
          <internalNodes>
            0 -1 6 3.9489902555942535e-02</internalNodes>
          <leafValues>
            -9.5905083417892456e-01 8.4463334083557129e-01</leafValues></_>
        <_>
          <internalNodes>
            0 -1 0 2.1300280094146729e-01</internalNodes>
          <leafValues>
            -9.2781394720077515e-01 7.4402368068695068e-01</leafValues></_></weakClassifiers></_>
    <!-- stage 1 -->
    <_>
      <maxWeakCount>4</maxWeakCount>
      <stageThreshold>-9.5704573392868042e-01</stageThreshold>
      <weakClassifiers>
        <_>
          <internalNodes>
            0 -1 10 2.1696001291275024e-02</internalNodes>
          <leafValues>
            -9.0496951341629028e-01 5.7346814870834351e-01</leafValues></_>
        <_>
          <internalNodes>
            0 -1 2 7.4613869190216064e-02</internalNodes>
          <leafValues>
            -8.2785302400588989e-01 4.4391876459121704e-01</leafValues></_>
        <_>
          <internalNodes>
            0 -1 9 2.8102311771363020e-03</internalNodes>
          <leafValues>
            -9.3471199274063110e-01 4.7123143076896667e-01</leafValues></_>
        <_>
          <internalNodes>
            0 -1 35 6.4217802137136459e-03</internalNodes>
          <leafValues>
            -9.0268552303314209e-01 4.3871697783470154e-01</leafValues></_></weakClassifiers></_>
    <!-- stage 2 -->
    <_>
      <maxWeakCount>3</maxWeakCount>
      <stageThreshold>-1.2134203910827637e+00</stageThreshold>
      <weakClassifiers>
        <_>
          <internalNodes>
            0 -1 17 2.9798308969475329e-04</internalNodes>
          <leafValues>
            8.7698960304260254e-01 -9.8209393024444580e-01</leafValues></_>
        <_>
          <internalNodes>
            0 -1 32 1.0010196268558502e-01</internalNodes>
          <leafValues>
            -8.9861291646957397e-01 8.3522379398345947e-01</leafValues></_>
        <_>
          <internalNodes>
            0 -1 11 1.6647242591716349e-04</internalNodes>
          <leafValues>
            6.6728651523590088e-01 -8.2873934507369995e-01</leafValues></_></weakClassifiers></_>
    <!-- stage 3 -->
    <_>
      <maxWeakCount>4</maxWeakCount>
      <stageThreshold>-9.8773437738418579e-01</stageThreshold>
      <weakClassifiers>
        <_>
          <internalNodes>
            0 -1 22 2.3664367198944092e-01</internalNodes>
          <leafValues>
            -7.7445173263549805e-01 5.2196693420410156e-01</leafValues></_>
        <_>
          <internalNodes>
            0 -1 8 3.1712811440229416e-02</internalNodes>
          <leafValues>
            -8.3584767580032349e-01 4.2356148362159729e-01</leafValues></_>
        <_>
          <internalNodes>
            0 -1 21 1.7594631761312485e-02</internalNodes>
          <leafValues>
            -9.4413518905639648e-01 2.9534736275672913e-01</leafValues></_>
        <_>
          <internalNodes>
            0 -1 27 7.5383715331554413e-02</internalNodes>
          <leafValues>
            -7.8588187694549561e-01 3.2721766829490662e-01</leafValues></_></weakClassifiers></_>
    <!-- stage 4 -->
    <_>
      <maxWeakCount>5</maxWeakCount>
      <stageThreshold>-1.8031507730484009e+00</stageThreshold>
      <weakClassifiers>
        <_>
          <internalNodes>
            0 -1 13 3.1187640503048897e-02</internalNodes>
          <leafValues>
            -8.5944014787673950e-01 3.8041371107101440e-01</leafValues></_>
        <_>
          <internalNodes>
            0 -1 9 2.9395360499620438e-02</internalNodes>
          <leafValues>
            -8.0789655447006226e-01 4.2445603013038635e-01</leafValues></_>
        <_>
          <internalNodes>
            0 -1 1 5.7106789201498032e-02</internalNodes>
          <leafValues>
            -7.9273378849029541e-01 3.1843104958534241e-01</leafValues></_>
        <_>
          <internalNodes>
            0 -1 25 2.1564476191997528e-03</internalNodes>
          <leafValues>
            -8.4765970706939697e-01 4.0320226550102234e-01</leafValues></_>
        <_>
          <internalNodes>
            0 -1 4 2.1664623171091080e-02</internalNodes>
          <leafValues>
            -7.6935297250747681e-01 2.5371751189231873e-01</leafValues></_></weakClassifiers></_>
    <!-- stage 5 -->
    <_>
      <maxWeakCount>7</maxWeakCount>
      <stageThreshold>-1.2366944551467896e+00</stageThreshold>
      <weakClassifiers>
        <_>
          <internalNodes>
            0 -1 14 9.8782759159803391e-03</internalNodes>
          <leafValues>
            -8.0465060472488403e-01 2.6884558796882629e-01</leafValues></_>
        <_>
          <internalNodes>
            0 -1 16 3.5813219845294952e-02</internalNodes>
          <leafValues>
            -7.5387102365493774e-01 3.4810981154441833e-01</leafValues></_>
        <_>
          <internalNodes>
            0 -1 10 1.3468899764120579e-02</internalNodes>
          <leafValues>
            -7.7622509002685547e-01 3.5070061683654785e-01</leafValues></_>
        <_>
          <internalNodes>
            0 -1 31 1.2920591235160828e-01</internalNodes>
          <leafValues>
            -7.3364734649658203e-01 3.0540695786476135e-01</leafValues></_>
        <_>
          <internalNodes>
            0 -1 3 1.7742216587066650e-02</internalNodes>
          <leafValues>
            -8.6285096406936646e-01 3.1534710526466370e-01</leafValues></_>
        <_>
          <internalNodes>
            0 -1 24 5.5147297680377960e-03</internalNodes>
          <leafValues>
            -7.6185286045074463e-01 2.0081636309623718e-01</leafValues></_>
        <_>
          <internalNodes>
            0 -1 30 5.8808382600545883e-02</internalNodes>
          <leafValues>
            -6.2103092670440674e-01 3.2775411009788513e-01</leafValues></_></weakClassifiers></_>
    <!-- stage 6 -->
    <_>
      <maxWeakCount>6</maxWeakCount>
      <stageThreshold>-1.0801415443420410e+00</stageThreshold>
      <weakClassifiers>
        <_>
          <internalNodes>
            0 -1 12 3.1849309802055359e-02</internalNodes>
          <leafValues>
            -7.0574498176574707e-01 5.6287062168121338e-01</leafValues></_>
        <_>
          <internalNodes>
            0 -1 18 1.0869523882865906e-01</internalNodes>
          <leafValues>
            -7.4382382631301880e-01 4.2224448919296265e-01</leafValues></_>
        <_>
          <internalNodes>
            0 -1 29 1.1631030589342117e-02</internalNodes>
          <leafValues>
            -7.5679689645767212e-01 3.5421240329742432e-01</leafValues></_>
        <_>
          <internalNodes>
            0 -1 9 3.1421877793036401e-04</internalNodes>
          <leafValues>
            -9.4899642467498779e-01 2.2652548551559448e-01</leafValues></_>
        <_>
          <internalNodes>
            0 -1 33 4.6093784272670746e-02</internalNodes>
          <leafValues>
            -7.9129046201705933e-01 1.6163830459117889e-01</leafValues></_>
        <_>
          <internalNodes>
            0 -1 0 7.1210563182830811e-01</internalNodes>
          <leafValues>
            -3.7294891476631165e-01 5.6615442037582397e-01</leafValues></_></weakClassifiers></_>
    <!-- stage 7 -->
    <_>
      <maxWeakCount>9</maxWeakCount>
      <stageThreshold>-5.9585499763488770e-01</stageThreshold>
      <weakClassifiers>
        <_>
          <internalNodes>
            0 -1 5 1.5800619125366211e-01</internalNodes>
          <leafValues>
            -4.6314102411270142e-01 7.3343545198440552e-01</leafValues></_>
        <_>
          <internalNodes>
            0 -1 15 5.2024163305759430e-03</internalNodes>
          <leafValues>
            -7.6879584789276123e-01 4.3398344516754150e-01</leafValues></_>
        <_>
          <internalNodes>
            0 -1 19 8.1348329782485962e-02</internalNodes>
          <leafValues>
            -5.8209758996963501e-01 4.0184092521667480e-01</leafValues></_>
        <_>
          <internalNodes>
            0 -1 7 7.1334792301058769e-03</internalNodes>
          <leafValues>
            -9.4505083560943604e-01 1.6804710030555725e-01</leafValues></_>
        <_>
          <internalNodes>
            0 -1 34 5.1336828619241714e-03</internalNodes>
          <leafValues>
            2.3384594917297363e-01 -6.3583648204803467e-01</leafValues></_>
        <_>
          <internalNodes>
            0 -1 23 3.4692506305873394e-03</internalNodes>
          <leafValues>
            -6.1647802591323853e-01 2.4679964780807495e-01</leafValues></_>
        <_>
          <internalNodes>
            0 -1 28 8.8456645607948303e-02</internalNodes>
          <leafValues>
            1.4229261875152588e-01 -8.9246153831481934e-01</leafValues></_>
        <_>
          <internalNodes>
            0 -1 20 3.5290897358208895e-05</internalNodes>
          <leafValues>
            1.8674369156360626e-01 -7.0970845222473145e-01</leafValues></_>
        <_>
          <internalNodes>
            0 -1 26 9.7688995301723480e-03</internalNodes>
          <leafValues>
            -9.3616926670074463e-01 1.5697187185287476e-01</leafValues></_></weakClassifiers></_></stages>
  <features>
    <_>
      <rect>
        0 0 8 8 28</rect></_>
    <_>
      <rect>
        0 8 8 8 19</rect></_>
    <_>
      <rect>
        0 12 8 8 19</rect></_>
    <_>
      <rect>
        4 16 8 8 22</rect></_>
    <_>
      <rect>
        8 0 8 8 10</rect></_>
    <_>
      <rect>
        8 4 8 8 19</rect></_>
    <_>
      <rect>
        8 24 8 8 4</rect></_>
    <_>
      <rect>
        12 4 8 8 35</rect></_>
    <_>
      <rect>
        12 16 8 8 17</rect></_>
    <_>
      <rect>
        12 24 8 8 26</rect></_>
    <_>
      <rect>
        16 0 8 8 17</rect></_>
    <_>
      <rect>
        16 8 8 8 13</rect></_>
    <_>
      <rect>
        16 16 8 8 8</rect></_>
    <_>
      <rect>
        16 16 8 8 31</rect></_>
    <_>
      <rect>
        16 20 8 8 30</rect></_>
    <_>
      <rect>
        16 24 8 8 13</rect></_>
    <_>
      <rect>
        16 24 8 8 26</rect></_>
    <_>
      <rect>
        0 0 8 16 4</rect></_>
    <_>
      <rect>
        0 0 8 16 19</rect></_>
    <_>
      <rect>
        0 0 8 16 31</rect></_>
    <_>
      <rect>
        0 4 8 16 4</rect></_>
    <_>
      <rect>
        0 4 8 16 22</rect></_>
    <_>
      <rect>
        0 8 8 16 10</rect></_>
    <_>
      <rect>
        4 0 8 16 21</rect></_>
    <_>
      <rect>
        4 0 8 16 30</rect></_>
    <_>
      <rect>
        4 4 8 16 30</rect></_>
    <_>
      <rect>
        4 8 8 16 1</rect></_>
    <_>
      <rect>
        12 4 8 16 1</rect></_>
    <_>
      <rect>
        12 4 8 16 31</rect></_>
    <_>
      <rect>
        16 0 8 16 31</rect></_>
    <_>
      <rect>
        0 0 16 8 10</rect></_>
    <_>
      <rect>
        0 4 16 8 19</rect></_>
    <_>
      <rect>
        0 8 16 8 19</rect></_>
    <_>
      <rect>
        0 4 16 16 22</rect></_>
    <_>
      <rect>
        0 4 16 16 24</rect></_>
    <_>
      <rect>
        0 4 16 16 30</rect></_></features></cascade>
</opencv_storage>
