<?xml version="1.0"?>
<opencv_storage>
<!-- Created using Computer Vision System Toolbox(tm) for MATLAB(R) -->
<!-- Version 9.5.0.1033004 (R2018b) Update 2 -->
<!-- Compatible with OpenCV 3.4 -->
<cascade>
  <stageType>BOOST</stageType>
  <featureType>HOG</featureType>
  <height>32</height>
  <width>32</width>
  <stageParams>
    <boostType>GAB</boostType>
    <minHitRate>9.9500000476837158e-01</minHitRate>
    <maxFalseAlarm>5.0000000000000000e-01</maxFalseAlarm>
    <weightTrimRate>9.4999999999999996e-01</weightTrimRate>
    <maxDepth>1</maxDepth>
    <maxWeakCount>100</maxWeakCount></stageParams>
  <featureParams>
    <maxCatCount>0</maxCatCount>
    <featSize>36</featSize></featureParams>
  <stageNum>6</stageNum>
  <stages>
    <!-- stage 0 -->
    <_>
      <maxWeakCount>3</maxWeakCount>
      <stageThreshold>-1.0014697313308716e+00</stageThreshold>
      <weakClassifiers>
        <_>
          <internalNodes>
            0 -1 10 4.9864553147926927e-04</internalNodes>
          <leafValues>
            9.8242187500000000e-01 -9.8265057802200317e-01</leafValues></_>
        <_>
          <internalNodes>
            0 -1 0 8.7151713669300079e-02</internalNodes>
          <leafValues>
            -9.2156267166137695e-01 9.2195069789886475e-01</leafValues></_>
        <_>
          <internalNodes>
            0 -1 11 5.0567463040351868e-04</internalNodes>
          <leafValues>
            9.0274351835250854e-01 -8.5594701766967773e-01</leafValues></_></weakClassifiers></_>
    <!-- stage 1 -->
    <_>
      <maxWeakCount>3</maxWeakCount>
      <stageThreshold>-1.0533624887466431e+00</stageThreshold>
      <weakClassifiers>
        <_>
          <internalNodes>
            0 -1 13 1.6372065874747932e-04</internalNodes>
          <leafValues>
            7.8074866533279419e-01 -9.6560442447662354e-01</leafValues></_>
        <_>
          <internalNodes>
            0 -1 8 9.1567501425743103e-02</internalNodes>
          <leafValues>
            -8.2062196731567383e-01 7.7206408977508545e-01</leafValues></_>
        <_>
          <internalNodes>
            0 -1 2 2.8171423822641373e-02</internalNodes>
          <leafValues>
            -7.8599715232849121e-01 7.3286390304565430e-01</leafValues></_></weakClassifiers></_>
    <!-- stage 2 -->
    <_>
      <maxWeakCount>3</maxWeakCount>
      <stageThreshold>-1.2005674839019775e+00</stageThreshold>
      <weakClassifiers>
        <_>
          <internalNodes>
            0 -1 7 4.6568453311920166e-02</internalNodes>
          <leafValues>
            -8.8109159469604492e-01 7.4021011590957642e-01</leafValues></_>
        <_>
          <internalNodes>
            0 -1 10 2.4960085283964872e-05</internalNodes>
          <leafValues>
            5.8042967319488525e-01 -9.0538585186004639e-01</leafValues></_>
        <_>
          <internalNodes>
            0 -1 4 2.8605973348021507e-02</internalNodes>
          <leafValues>
            -8.2533985376358032e-01 5.8590996265411377e-01</leafValues></_></weakClassifiers></_>
    <!-- stage 3 -->
    <_>
      <maxWeakCount>4</maxWeakCount>
      <stageThreshold>-1.6452881097793579e+00</stageThreshold>
      <weakClassifiers>
        <_>
          <internalNodes>
            0 -1 0 1.4233793318271637e-01</internalNodes>
          <leafValues>
            -8.8049715757369995e-01 8.0337637662887573e-01</leafValues></_>
        <_>
          <internalNodes>
            0 -1 9 8.8905192911624908e-02</internalNodes>
          <leafValues>
            -7.4852466583251953e-01 7.4106609821319580e-01</leafValues></_>
        <_>
          <internalNodes>
            0 -1 3 3.2426107674837112e-02</internalNodes>
          <leafValues>
            -6.2188810110092163e-01 7.4080073833465576e-01</leafValues></_>
        <_>
          <internalNodes>
            0 -1 16 6.8856621510349214e-05</internalNodes>
          <leafValues>
            6.0562175512313843e-01 -7.3873013257980347e-01</leafValues></_></weakClassifiers></_>
    <!-- stage 4 -->
    <_>
      <maxWeakCount>3</maxWeakCount>
      <stageThreshold>-1.1592032909393311e+00</stageThreshold>
      <weakClassifiers>
        <_>
          <internalNodes>
            0 -1 8 6.3847586512565613e-02</internalNodes>
          <leafValues>
            -9.5542049407958984e-01 7.5822222232818604e-01</leafValues></_>
        <_>
          <internalNodes>
            0 -1 14 2.0757338032126427e-02</internalNodes>
          <leafValues>
            -8.7466037273406982e-01 6.9779169559478760e-01</leafValues></_>
        <_>
          <internalNodes>
            0 -1 15 5.6211940944194794e-02</internalNodes>
          <leafValues>
            -8.1723034381866455e-01 6.7087751626968384e-01</leafValues></_></weakClassifiers></_>
    <!-- stage 5 -->
    <_>
      <maxWeakCount>4</maxWeakCount>
      <stageThreshold>-8.1110084056854248e-01</stageThreshold>
      <weakClassifiers>
        <_>
          <internalNodes>
            0 -1 12 9.4739407300949097e-02</internalNodes>
          <leafValues>
            -9.1067540645599365e-01 5.0593823194503784e-01</leafValues></_>
        <_>
          <internalNodes>
            0 -1 6 6.0897260904312134e-02</internalNodes>
          <leafValues>
            -8.7801367044448853e-01 4.4453015923500061e-01</leafValues></_>
        <_>
          <internalNodes>
            0 -1 1 1.0412318806629628e-04</internalNodes>
          <leafValues>
            4.9295338988304138e-01 -8.8791424036026001e-01</leafValues></_>
        <_>
          <internalNodes>
            0 -1 5 1.6866546124219894e-02</internalNodes>
          <leafValues>
            -7.8611332178115845e-01 5.4295861721038818e-01</leafValues></_></weakClassifiers></_></stages>
  <features>
    <_>
      <rect>
        0 4 8 8 10</rect></_>
    <_>
      <rect>
        0 8 8 8 22</rect></_>
    <_>
      <rect>
        4 0 8 8 30</rect></_>
    <_>
      <rect>
        4 12 8 8 24</rect></_>
    <_>
      <rect>
        12 16 8 8 21</rect></_>
    <_>
      <rect>
        16 0 8 8 3</rect></_>
    <_>
      <rect>
        16 0 8 8 22</rect></_>
    <_>
      <rect>
        16 12 8 8 6</rect></_>
    <_>
      <rect>
        16 12 8 8 19</rect></_>
    <_>
      <rect>
        16 16 8 8 8</rect></_>
    <_>
      <rect>
        0 0 8 16 4</rect></_>
    <_>
      <rect>
        0 0 8 16 6</rect></_>
    <_>
      <rect>
        0 0 8 16 10</rect></_>
    <_>
      <rect>
        16 0 8 16 31</rect></_>
    <_>
      <rect>
        0 0 16 8 32</rect></_>
    <_>
      <rect>
        0 16 16 8 8</rect></_>
    <_>
      <rect>
        0 16 16 8 33</rect></_></features></cascade>
</opencv_storage>
