<?xml version="1.0"?>
<opencv_storage>
<!-- Created using Computer Vision System Toolbox(tm) for MATLAB(R) -->
<!-- Version 9.5.0.1033004 (R2018b) Update 2 -->
<!-- Compatible with OpenCV 3.4 -->
<cascade>
  <stageType>BOOST</stageType>
  <featureType>HOG</featureType>
  <height>32</height>
  <width>32</width>
  <stageParams>
    <boostType>GAB</boostType>
    <minHitRate>9.9500000476837158e-01</minHitRate>
    <maxFalseAlarm>5.0000000000000000e-01</maxFalseAlarm>
    <weightTrimRate>9.4999999999999996e-01</weightTrimRate>
    <maxDepth>1</maxDepth>
    <maxWeakCount>100</maxWeakCount></stageParams>
  <featureParams>
    <maxCatCount>0</maxCatCount>
    <featSize>36</featSize></featureParams>
  <stageNum>4</stageNum>
  <stages>
    <!-- stage 0 -->
    <_>
      <maxWeakCount>2</maxWeakCount>
      <stageThreshold>-3.5150288604199886e-03</stageThreshold>
      <weakClassifiers>
        <_>
          <internalNodes>
            0 -1 5 4.4315471313893795e-04</internalNodes>
          <leafValues>
            9.8805969953536987e-01 -9.7956204414367676e-01</leafValues></_>
        <_>
          <internalNodes>
            0 -1 7 7.9411249316763133e-05</internalNodes>
          <leafValues>
            9.7604703903198242e-01 -9.3707782030105591e-01</leafValues></_></weakClassifiers></_>
    <!-- stage 1 -->
    <_>
      <maxWeakCount>2</maxWeakCount>
      <stageThreshold>-1.2329133599996567e-01</stageThreshold>
      <weakClassifiers>
        <_>
          <internalNodes>
            0 -1 1 2.9633004218339920e-02</internalNodes>
          <leafValues>
            -9.5548963546752930e-01 8.8921284675598145e-01</leafValues></_>
        <_>
          <internalNodes>
            0 -1 4 9.0489513240754604e-05</internalNodes>
          <leafValues>
            8.3219826221466064e-01 -9.3966650962829590e-01</leafValues></_></weakClassifiers></_>
    <!-- stage 2 -->
    <_>
      <maxWeakCount>2</maxWeakCount>
      <stageThreshold>-2.4099270999431610e-01</stageThreshold>
      <weakClassifiers>
        <_>
          <internalNodes>
            0 -1 3 7.9262778162956238e-02</internalNodes>
          <leafValues>
            -9.4035786390304565e-01 8.4898352622985840e-01</leafValues></_>
        <_>
          <internalNodes>
            0 -1 0 2.1949261426925659e-02</internalNodes>
          <leafValues>
            -9.4995075464248657e-01 6.9936513900756836e-01</leafValues></_></weakClassifiers></_>
    <!-- stage 3 -->
    <_>
      <maxWeakCount>3</maxWeakCount>
      <stageThreshold>-1.1523153781890869e+00</stageThreshold>
      <weakClassifiers>
        <_>
          <internalNodes>
            0 -1 2 6.7278340458869934e-02</internalNodes>
          <leafValues>
            -9.1750502586364746e-01 7.8119003772735596e-01</leafValues></_>
        <_>
          <internalNodes>
            0 -1 5 3.9820661186240613e-05</internalNodes>
          <leafValues>
            6.0911178588867188e-01 -9.3325096368789673e-01</leafValues></_>
        <_>
          <internalNodes>
            0 -1 6 2.6509216055274010e-02</internalNodes>
          <leafValues>
            -7.8198373317718506e-01 6.9844061136245728e-01</leafValues></_></weakClassifiers></_></stages>
  <features>
    <_>
      <rect>
        4 0 8 8 12</rect></_>
    <_>
      <rect>
        4 16 8 8 30</rect></_>
    <_>
      <rect>
        16 0 8 8 19</rect></_>
    <_>
      <rect>
        16 12 8 8 19</rect></_>
    <_>
      <rect>
        0 0 8 16 4</rect></_>
    <_>
      <rect>
        16 0 8 16 31</rect></_>
    <_>
      <rect>
        0 12 16 8 15</rect></_>
    <_>
      <rect>
        0 16 16 8 32</rect></_></features></cascade>
</opencv_storage>
