<?xml version="1.0"?>
<opencv_storage>
<!-- Created using Computer Vision System Toolbox(tm) for MATLAB(R) -->
<!-- Version 9.5.0.1033004 (R2018b) Update 2 -->
<!-- Compatible with OpenCV 3.4 -->
<cascade>
  <stageType>BOOST</stageType>
  <featureType>HOG</featureType>
  <height>32</height>
  <width>32</width>
  <stageParams>
    <boostType>GAB</boostType>
    <minHitRate>9.9500000476837158e-01</minHitRate>
    <maxFalseAlarm>5.0000000000000000e-01</maxFalseAlarm>
    <weightTrimRate>9.4999999999999996e-01</weightTrimRate>
    <maxDepth>1</maxDepth>
    <maxWeakCount>100</maxWeakCount></stageParams>
  <featureParams>
    <maxCatCount>0</maxCatCount>
    <featSize>36</featSize></featureParams>
  <stageNum>6</stageNum>
  <stages>
    <!-- stage 0 -->
    <_>
      <maxWeakCount>3</maxWeakCount>
      <stageThreshold>-1.0200451612472534e+00</stageThreshold>
      <weakClassifiers>
        <_>
          <internalNodes>
            0 -1 8 9.5619283616542816e-02</internalNodes>
          <leafValues>
            -9.5549243688583374e-01 9.3992245197296143e-01</leafValues></_>
        <_>
          <internalNodes>
            0 -1 12 7.1271359047386795e-05</internalNodes>
          <leafValues>
            8.9906257390975952e-01 -9.1934317350387573e-01</leafValues></_>
        <_>
          <internalNodes>
            0 -1 4 2.7013737708330154e-03</internalNodes>
          <leafValues>
            8.5479038953781128e-01 -7.8058516979217529e-01</leafValues></_></weakClassifiers></_>
    <!-- stage 1 -->
    <_>
      <maxWeakCount>3</maxWeakCount>
      <stageThreshold>-9.3319469690322876e-01</stageThreshold>
      <weakClassifiers>
        <_>
          <internalNodes>
            0 -1 6 1.3528409600257874e-01</internalNodes>
          <leafValues>
            -9.2638039588928223e-01 8.9268290996551514e-01</leafValues></_>
        <_>
          <internalNodes>
            0 -1 9 7.6214701402932405e-04</internalNodes>
          <leafValues>
            8.0467116832733154e-01 -8.1151014566421509e-01</leafValues></_>
        <_>
          <internalNodes>
            0 -1 1 6.3669875264167786e-02</internalNodes>
          <leafValues>
            -6.4064657688140869e-01 8.0469578504562378e-01</leafValues></_></weakClassifiers></_>
    <!-- stage 2 -->
    <_>
      <maxWeakCount>3</maxWeakCount>
      <stageThreshold>-9.5472186803817749e-01</stageThreshold>
      <weakClassifiers>
        <_>
          <internalNodes>
            0 -1 8 1.8460690975189209e-01</internalNodes>
          <leafValues>
            -8.6063683032989502e-01 8.3623337745666504e-01</leafValues></_>
        <_>
          <internalNodes>
            0 -1 14 6.4318761229515076e-02</internalNodes>
          <leafValues>
            -7.0107805728912354e-01 7.0794916152954102e-01</leafValues></_>
        <_>
          <internalNodes>
            0 -1 16 8.3054173737764359e-03</internalNodes>
          <leafValues>
            -8.0177658796310425e-01 6.0699301958084106e-01</leafValues></_></weakClassifiers></_>
    <!-- stage 3 -->
    <_>
      <maxWeakCount>3</maxWeakCount>
      <stageThreshold>-1.0470737218856812e+00</stageThreshold>
      <weakClassifiers>
        <_>
          <internalNodes>
            0 -1 5 1.7446029232814908e-04</internalNodes>
          <leafValues>
            8.1920903921127319e-01 -9.2122960090637207e-01</leafValues></_>
        <_>
          <internalNodes>
            0 -1 18 9.4321832060813904e-02</internalNodes>
          <leafValues>
            -8.2971805334091187e-01 5.2438318729400635e-01</leafValues></_>
        <_>
          <internalNodes>
            0 -1 13 8.7394222617149353e-02</internalNodes>
          <leafValues>
            -6.0921442508697510e-01 7.0387399196624756e-01</leafValues></_></weakClassifiers></_>
    <!-- stage 4 -->
    <_>
      <maxWeakCount>5</maxWeakCount>
      <stageThreshold>-1.3233567476272583e+00</stageThreshold>
      <weakClassifiers>
        <_>
          <internalNodes>
            0 -1 3 1.9418135343585163e-04</internalNodes>
          <leafValues>
            6.5148860216140747e-01 -8.9510488510131836e-01</leafValues></_>
        <_>
          <internalNodes>
            0 -1 6 2.6856613159179688e-01</internalNodes>
          <leafValues>
            -6.4207708835601807e-01 6.9120413064956665e-01</leafValues></_>
        <_>
          <internalNodes>
            0 -1 17 1.7489627003669739e-02</internalNodes>
          <leafValues>
            -7.3015660047531128e-01 5.5034250020980835e-01</leafValues></_>
        <_>
          <internalNodes>
            0 -1 15 5.1377769559621811e-03</internalNodes>
          <leafValues>
            -8.3360278606414795e-01 3.6822569370269775e-01</leafValues></_>
        <_>
          <internalNodes>
            0 -1 10 6.1448838096112013e-05</internalNodes>
          <leafValues>
            5.7575619220733643e-01 -5.4184240102767944e-01</leafValues></_></weakClassifiers></_>
    <!-- stage 5 -->
    <_>
      <maxWeakCount>6</maxWeakCount>
      <stageThreshold>-1.7753438949584961e+00</stageThreshold>
      <weakClassifiers>
        <_>
          <internalNodes>
            0 -1 11 8.0728328612167388e-05</internalNodes>
          <leafValues>
            3.7695589661598206e-01 -9.0794014930725098e-01</leafValues></_>
        <_>
          <internalNodes>
            0 -1 6 8.9561074972152710e-02</internalNodes>
          <leafValues>
            -9.0259212255477905e-01 3.8150373101234436e-01</leafValues></_>
        <_>
          <internalNodes>
            0 -1 2 8.1121034920215607e-02</internalNodes>
          <leafValues>
            -6.0803198814392090e-01 7.3202252388000488e-01</leafValues></_>
        <_>
          <internalNodes>
            0 -1 1 1.2079287320375443e-01</internalNodes>
          <leafValues>
            -4.5147109031677246e-01 6.9424229860305786e-01</leafValues></_>
        <_>
          <internalNodes>
            0 -1 0 2.1358778758440167e-04</internalNodes>
          <leafValues>
            6.4367347955703735e-01 -4.7324761748313904e-01</leafValues></_>
        <_>
          <internalNodes>
            0 -1 7 1.2093901634216309e-02</internalNodes>
          <leafValues>
            -7.0119684934616089e-01 4.2222580313682556e-01</leafValues></_></weakClassifiers></_></stages>
  <features>
    <_>
      <rect>
        0 0 8 8 6</rect></_>
    <_>
      <rect>
        0 0 8 8 33</rect></_>
    <_>
      <rect>
        0 0 8 8 34</rect></_>
    <_>
      <rect>
        0 8 8 8 4</rect></_>
    <_>
      <rect>
        0 12 8 8 4</rect></_>
    <_>
      <rect>
        0 12 8 8 8</rect></_>
    <_>
      <rect>
        0 16 8 8 10</rect></_>
    <_>
      <rect>
        4 16 8 8 22</rect></_>
    <_>
      <rect>
        16 0 8 8 19</rect></_>
    <_>
      <rect>
        16 4 8 8 31</rect></_>
    <_>
      <rect>
        16 4 8 8 33</rect></_>
    <_>
      <rect>
        16 4 8 8 35</rect></_>
    <_>
      <rect>
        16 8 8 8 29</rect></_>
    <_>
      <rect>
        16 16 8 8 6</rect></_>
    <_>
      <rect>
        16 16 8 8 7</rect></_>
    <_>
      <rect>
        4 0 8 16 21</rect></_>
    <_>
      <rect>
        16 0 8 16 3</rect></_>
    <_>
      <rect>
        0 0 16 8 25</rect></_>
    <_>
      <rect>
        0 0 16 8 28</rect></_></features></cascade>
</opencv_storage>
